tree
version=v4
num_class=1
num_tree_per_iteration=1
label_index=0
max_feature_idx=15
objective=regression
feature_names=hour_of_day day_of_week month is_weekend is_swiss_holiday temperature solar_radiation wind_speed cloud_cover hours_ahead demand_mw_lag_1h demand_mw_lag_24h demand_mw_lag_48h demand_mw_lag_168h demand_mw_rolling_24h_mean demand_mw_rolling_24h_std
feature_infos=[0:23] [0:6] [1:12] [0:1] [0:1] [-20.199999999999999:25.399999999999999] [0:991] [0:20.800000000000001] [0:100] [1:48] [2742.6300000000001:10437.059999999999] [2742.6300000000001:10437.059999999999] [2742.6300000000001:10437.059999999999] [2742.6300000000001:10437.059999999999] [3454.0795833333336:9475.2216666666664] [129.04188287583921:2594.5714404820374]
tree_sizes=6058 6140 6129 6119 6124 6145 6140 6129 6153 6147 6135 6139 6152 6137 6125 6129 6147 6143 6138 6131 6144 6127 6110 6106 6123 6144 6127 6169 6162 6132 6156 6129 6124 6128 6111 6105 6133 6134 6155 6131 6071 6116 6122 6094 6133 6132 6131 6105 6108 6134 6101 6083 6105 6144 6106 6114 6086 6115 6096 6088 6105 6060 6095 6090 6119 6116 6099 6118 6102 6106 6054 6110 6096 6091 6107 6080 6075 6085 6048 6020 6060 6086 6120 6073 6103 6068 6078 6111 6114 6088 6080 6123 6044 6092 6137 6073 5996 6093 6140 6103 6123 6123 6105 6042 6112 6004 6092 6052 6095 6042 6113 6079 6105 6126 6127 6006 6083 6033 6088 6009 6004 6105 6031 6037 6026 5974 6063 6065 6104 6085 6112 6093 6081 6006 6062 6010 6031 5967 5930 6077 6030 5949 6048 6016 5990 6040 6008 5948 6092 6006 6054 6020 5982 6140 6089 6082 5933 6073 6008 5940 5930 5920 6048 5920 5983 5958 5991 5871 5798 5941 5914 6019 6026 5899 5863 5926 6004 5896 5873 5804 5789 6021 5959 6008 5991 6004 5891 6013 6048 5978 5796 5915 5729 5926 5847 5986 6005 5783 5886 5772 6093 5685 5981 5698 5879 5910 5990 5860 5962 6028 5674 5954 5835 5870 5757 5756 5800 5964 5908 5675 5943 5748 5865 5962 5746 5792 5944 5718 5806 6008 5676 5775 5756 5780 5897 5862 5817 5955 5876 5811 5863 5776 5778 5847 5813 5679 5705 5872 5793 5840 5771 5723 5769 5953 6012 5838 5972 5813 5938 5841 5881 5972 5700 5841 5779 5701 5839 5872 5950 5712 5730 5783 5942 5815 5709 5903 5891 5950 5946 5980 5789 5946 5933 5812 5794 5906 5881 5767 5908 5888 5790 5926 5712 6032 5735 5857 5840 5746 5789 5763 5765 5947 5792 5815 5820 5935 5820 5828 5894 5658 5843 5721 5896 5873 5877 5755 5908 5763 5835 5883 5743 5779 5877 5693 5815 5991 5810 5753 5853 5967 5903 5864 5898 5830 5932 5679 5908 5943 5812 5861 5695 5883 5904 5842 5846 5760 5852 5901 5917 5835 5717 5897 5850 5874 5744 5963 5906 5865 5862 5734 5718 5648 5797 5969 5797 5879 5791 5719 5806 5635 5932 5856 5921 5880 5832 5821 5761 5882 5893 5832 5894 5933 5808 5940 5942 5856 5662 5849 5818 5810 5649 5915 5775 5709 5871 5779 5744 5798 5692 5829 5881 5967 5934 5763 5843 5757 5778 5871 5818 5866 5931 5710 5678 5881 5907 5766 5776 5881 5892 5650 5765 5953 5875 5797 5759 5877 5684 5668 5775 5759 5839 5812 5752 5964 5819 5812 5861 5786 5911 5771 5835 5700 5746 5730 5798 5642 5806 5835 5828 5758 5826 5745 5754 5631 5882 5815 5879 5803 5850 5821 5880 5809 5623 5786 5687 5830 5897 5972 5781 5912 5881 5678 5791 5858 5792 5875 5808 5897 5669 5874 5624 5815 5816 5725 5793 5866 5677 5831 5727 5705 5844 5645 5756 5901 5795 5814 5711 5634 5914 5752

Tree=0
num_leaves=63
num_cat=0
split_feature=14 6 14 14 6 1 14 6 1 1 14 5 0 14 2 1 14 1 1 1 2 0 5 0 2 0 0 0 6 5 0 1 0 0 6 6 2 2 1 1 0 5 5 4 6 0 14 15 0 0 2 0 0 6 14 0 6 1 14 0 5 1
split_gain=8.34917e+11 1.87776e+11 1.1819e+11 5.89972e+10 4.19981e+10 4.00859e+10 3.64303e+10 3.61502e+10 2.48287e+10 1.80673e+10 1.7775e+10 1.64615e+10 1.41735e+10 1.39201e+10 1.30024e+10 1.23752e+10 1.03391e+10 9.44756e+09 9.13387e+09 8.87758e+09 8.67418e+09 8.1932e+09 7.3443e+09 5.84716e+09 5.84063e+09 5.80215e+09 5.55747e+09 5.64364e+09 5.19283e+09 5.00592e+09 4.48284e+09 4.45111e+09 4.2664e+09 6.32104e+09 4.23941e+09 4.22339e+09 3.75747e+09 3.66947e+09 3.46136e+09 3.45958e+09 3.31346e+09 3.28495e+09 3.27899e+09 3.14289e+09 3.09166e+09 2.8905e+09 2.73475e+09 2.51293e+09 2.42282e+09 4.26349e+09 2.27944e+09 2.22008e+09 2.20609e+09 2.16117e+09 2.15052e+09 2.08416e+09 2.0585e+09 2.02739e+09 2.41445e+09 1.99176e+09 1.98866e+09 1.9871e+09
threshold=7206.9435416666684 56.500000000000007 7847.1329166666683 6619.8762500000003 1.0000000180025095e-35 4.5000000000000009 6388.1416666666682 1.0000000180025095e-35 4.5000000000000009 4.5000000000000009 8544.4060416666671 1.6500000000000001 14.500000000000002 5846.8745833333342 2.5000000000000004 3.5000000000000004 8453.155833333336 1.5000000000000002 1.5000000000000002 1.5000000000000002 10.500000000000002 6.5000000000000009 4.1500000000000012 5.5000000000000009 9.5000000000000018 19.500000000000004 7.5000000000000009 16.500000000000004 428.50000000000006 3.8500000000000001 14.500000000000002 4.5000000000000009 6.5000000000000009 19.500000000000004 1.0000000180025095e-35 1.5000000000000002 2.5000000000000004 10.500000000000002 4.5000000000000009 1.5000000000000002 13.500000000000002 -3.5499999999999994 7.0500000000000007 1.0000000180025095e-35 4.5000000000000009 7.5000000000000009 8544.4060416666671 555.21174582228912 6.5000000000000009 19.500000000000004 10.500000000000002 7.5000000000000009 12.500000000000002 1.0000000180025095e-35 5922.815833333334 17.500000000000004 1.0000000180025095e-35 1.5000000000000002 6215.6760416666675 4.5000000000000009 5.7500000000000009 3.5000000000000004
decision_type=2 2 2 2 2 2 2 2 2 2 2 2 2 2 2 2 2 2 2 2 2 2 2 2 2 2 2 2 2 2 2 2 2 2 2 2 2 2 2 2 2 2 2 2 2 2 2 2 2 2 2 2 2 2 2 2 2 2 2 2 2 2
left_child=1 3 7 13 10 16 15 14 18 12 17 19 21 42 39 30 41 -4 36 34 -16 -8 37 -19 44 31 -11 -28 54 -23 43 -25 -12 38 -5 57 -9 47 -34 -2 -20 -6 -1 45 -13 -3 -7 -15 -22 -50 53 -10 -43 -21 -17 -14 -26 -24 -59 -44 -38 -37
right_child=2 6 4 11 5 46 9 8 51 26 32 24 55 22 20 28 -18 23 40 50 48 29 35 25 56 -27 27 -29 -30 -31 -32 -33 33 -35 -36 61 60 -39 -40 -41 -42 52 59 -45 -46 -47 -48 -49 49 -51 -52 -53 -54 -55 -56 -57 -58 58 -60 -61 -62 -63
leaf_value=7065.3649108653626 7166.4261238061035 7104.4182899210673 7182.7003191935482 7121.5895419977805 7219.4306529159494 7157.349200294193 7112.4160755675557 7206.0030334501616 7109.1233987038104 7086.413896765458 7178.4782033426754 7082.167311396438 7125.1146409277881 7091.0815056839037 7118.2316671133967 7060.7114243816268 7233.9638225930603 7144.0914460813938 7171.710734832016 7095.2017392697007 7131.4965565966331 7163.3029764442781 7072.7174477969584 7193.4353592728639 7101.8986365848232 7151.5710371263331 7124.3462353451951 7088.2656250708314 7104.5552749801336 7144.417744026734 7101.2940153823738 7157.0541951078212 7231.1342733073416 7183.1677180458983 7158.4780436176952 7093.1789557067987 7184.5348648220634 7113.9868135339002 7183.9252847400576 7144.341253931093 7152.1589045826586 7208.5674026088554 7021.9980496499602 7043.8846219998568 7101.8480390884115 7128.204837541819 7182.344099341708 7074.0743854338662 7166.8412400395046 7134.0423220473776 7118.9101338074415 7140.0659071629661 7189.0458428608326 7117.2270123560875 7086.2354389058073 7104.1866626279116 7132.1521380439035 7048.8153204121872 7065.665959383442 7046.4659692702935 7150.6821823586388 7069.3747293748947
leaf_weight=13838 29670 15595 43254 45982 29400 36292 16669 22121 6479 14274 44254 125322 65901 39122 96991 11218 52113 59171 60040 64500 36870 46201 40565 22197 28492 37895 85994 12401 40262 145903 33707 13533 16485 25288 9377 20186 32822 9738 5079 44074 33907 29248 13978 1245 23734 70548 15668 48829 18508 21323 17636 55064 28647 13462 31218 14517 7005 34300 55909 20538 4999 15498
leaf_count=13838 29670 15595 43254 45982 29400 36292 16669 22121 6479 14274 44254 125322 65901 39122 96991 11218 52113 59171 60040 64500 36870 46201 40565 22197 28492 37895 85994 12401 40262 145903 33707 13533 16485 25288 9377 20186 32822 9738 5079 44074 33907 29248 13978 1245 23734 70548 15668 48829 18508 21323 17636 55064 28647 13462 31218 14517 7005 34300 55909 20538 4999 15498
internal_value=7130.36 7103.81 7166.5 7085.1 7184.49 7202.37 7123.82 7148.67 7163.65 7132.55 7171.68 7099.66 7139.17 7069.47 7135.64 7106.6 7216.34 7162.41 7174.38 7111.9 7128.17 7146.04 7073.98 7155.79 7089.64 7165.2 7115.57 7119.8 7091.69 7148.96 7116.78 7179.66 7189.61 7200.13 7127.84 7067.59 7189.63 7084.86 7220.02 7153.23 7164.65 7205.82 7044.8 7122.76 7085.3 7123.9 7164.89 7081.64 7140.73 7149.28 7102.68 7136.81 7198.91 7099 7079.49 7121.34 7107.87 7063.43 7059.26 7036.56 7180.06 7082.84
internal_weight=2.17506e+06 1.25366e+06 921392 648011 458524 191368 605653 462868 215432 401860 267156 335510 289191 312501 247436 203793 139408 176050 153889 150957 173692 208773 264147 132796 184553 73625 112669 98395 82698 192104 121095 35730 91106 46852 55359 166458 59942 97689 21564 73744 93947 87295 48354 87388 149056 86143 51960 87951 76701 39831 95598 61543 57895 77962 42436 80418 35497 130774 90209 34516 37821 35684
internal_count=2175056 1253664 921392 648011 458524 191368 605653 462868 215432 401860 267156 335510 289191 312501 247436 203793 139408 176050 153889 150957 173692 208773 264147 132796 184553 73625 112669 98395 82698 192104 121095 35730 91106 46852 55359 166458 59942 97689 21564 73744 93947 87295 48354 87388 149056 86143 51960 87951 76701 39831 95598 61543 57895 77962 42436 80418 35497 130774 90209 34516 37821 35684
is_linear=0
shrinkage=1


Tree=1
num_leaves=63
num_cat=0
split_feature=14 6 14 14 6 14 0 1 0 1 1 5 0 2 14 1 2 2 0 1 14 2 5 14 0 0 5 1 6 1 0 6 0 0 0 6 1 2 1 5 1 14 14 4 1 5 6 0 2 0 6 4 0 5 14 15 0 0 1 0 14 0
split_gain=7.53721e+11 1.69345e+11 1.01996e+11 5.6095e+10 3.66783e+10 3.42847e+10 3.35424e+10 3.24797e+10 3.17073e+10 2.69088e+10 1.75355e+10 1.58929e+10 1.41277e+10 1.32614e+10 1.24747e+10 1.09165e+10 9.74871e+09 9.29848e+09 7.65203e+09 7.52955e+09 7.46484e+09 7.18142e+09 6.62317e+09 6.00114e+09 5.91641e+09 5.92753e+09 5.76935e+09 4.55592e+09 4.40318e+09 3.68308e+09 3.60791e+09 3.56265e+09 3.50204e+09 3.35771e+09 6.00459e+09 3.303e+09 3.23348e+09 3.16314e+09 3.02621e+09 2.99697e+09 2.87844e+09 2.73983e+09 2.64699e+09 2.62515e+09 2.58793e+09 2.40327e+09 2.4327e+09 2.33103e+09 2.32538e+09 2.25581e+09 2.15152e+09 2.13894e+09 2.04276e+09 2.0073e+09 1.99976e+09 1.94998e+09 1.92479e+09 3.32623e+09 1.92478e+09 1.90996e+09 1.88856e+09 1.85118e+09
threshold=7229.3027083333345 52.500000000000007 7984.2627083333346 6619.8762500000003 1.0000000180025095e-35 6335.7954166666668 6.5000000000000009 4.5000000000000009 19.500000000000004 4.5000000000000009 4.5000000000000009 0.75000000000000011 15.500000000000002 2.5000000000000004 5846.8745833333342 3.5000000000000004 2.5000000000000004 10.500000000000002 6.5000000000000009 1.5000000000000002 8544.4060416666671 9.5000000000000018 4.1500000000000012 8544.4060416666671 7.5000000000000009 16.500000000000004 4.8500000000000005 1.5000000000000002 361.50000000000006 2.5000000000000004 15.500000000000002 1.5000000000000002 13.500000000000002 5.5000000000000009 19.500000000000004 4.5000000000000009 1.5000000000000002 10.500000000000002 2.5000000000000004 7.0500000000000007 1.5000000000000002 8429.716666666669 8544.4060416666671 1.0000000180025095e-35 1.5000000000000002 -4.8499999999999988 3.5000000000000004 6.5000000000000009 6.5000000000000009 6.5000000000000009 1.0000000180025095e-35 1.0000000180025095e-35 7.5000000000000009 -4.7499999999999991 6853.2716666666665 718.66975491682467 6.5000000000000009 19.500000000000004 1.5000000000000002 4.5000000000000009 6240.9650000000011 20.500000000000004
decision_type=2 2 2 2 2 2 2 2 2 2 2 2 2 2 2 2 2 2 2 2 2 2 2 2 2 2 2 2 2 2 2 2 2 2 2 2 2 2 2 2 2 2 2 2 2 2 2 2 2 2 2 2 2 2 2 2 2 2 2 2 2 2
left_child=1 3 4 14 13 15 23 8 20 16 12 19 18 27 39 30 40 -15 -7 33 36 35 37 29 -12 -26 44 53 -17 -4 43 55 49 -5 -35 54 -8 45 56 -1 -6 -9 -10 47 -20 -16 -47 -3 -49 -18 -23 -28 -11 -2 -13 -24 -19 -58 -51 -21 -57 -61
right_child=2 5 6 11 9 10 7 41 42 52 24 21 -14 17 22 28 32 38 26 59 -22 50 31 -25 25 -27 51 -29 -30 -31 -32 -33 -34 34 -36 -37 -38 -39 -40 -41 -42 -43 -44 -45 -46 46 -48 48 -50 58 -52 -53 -54 -55 -56 60 57 -59 -60 61 -62 -63
leaf_value=-61.752385955946671 48.879584349511966 -38.278734013173683 37.687639783970468 -13.491012803325024 75.775775694402554 -17.788566189947908 90.961236967177058 25.298798727565501 29.589653001723498 -18.059331702870772 -42.994251643339055 -50.006534169113358 -13.708888981209226 -9.6302446481162445 -8.870817760950457 -52.369726553388652 14.0575014070909 11.13131439433549 37.338862170703543 -33.87385911428526 99.016738343515513 -24.606993522872145 -58.780736087748778 45.709125798535254 -5.6730483467841424 -40.682752456233104 11.104818994077384 15.050067328262088 -28.007628953044708 13.212630279901781 -32.396219958660431 -45.357460829230348 27.071055223418149 35.870725504620445 -11.779548369400214 -25.110328033381197 70.252812791250562 -16.222015004955054 3.9124368553084929 -89.388374502180341 50.82485750757224 45.16962199114306 53.137371031863751 -83.372569521830144 17.473059396895515 -51.624504081303797 -26.851049773764544 8.1055974739499259 -11.315911653732414 58.231963809082416 3.9613636368963712 -53.55377144351128 11.105189432005933 25.075663408642647 -37.77402769936684 -82.274795824229912 53.708331900493988 14.313905166313138 41.110275140999249 -10.964541202078292 -62.702988060814846 -30.409389060158443
leaf_weight=13751 19034 6120 23942 24712 26333 18586 26840 36928 28750 6655 15845 83905 61165 101224 4072 33424 5682 19412 35172 33240 61439 34711 80789 44254 92552 13907 165667 57592 41670 42938 21550 33728 45671 13277 13169 24160 63323 9656 46609 34230 20603 32716 20404 1188 30706 71889 11494 20832 59241 24463 8135 1289 61386 16563 55518 22072 10119 11389 49891 31571 27913 19990
leaf_count=13751 19034 6120 23942 24712 26333 18586 26840 36928 28750 6655 15845 83905 61165 101224 4072 33424 5682 19412 35172 33240 61439 34711 80789 44254 92552 13907 165667 57592 41670 42938 21550 33728 45671 13277 13169 24160 63323 9656 46609 34230 20603 32716 20404 1188 30706 71889 11494 20832 59241 24463 8135 1289 61386 16563 55518 22072 10119 11389 49891 31571 27913 19990
internal_value=-1.99356e-07 -24.8261 34.8957 -42.6088 20.5471 -6.09318 54.5505 64.0548 74.2614 34.8834 1.56198 -28.6627 7.84222 8.30875 -58.0321 -24.1839 45.3789 0.689365 13.0851 -15.389 85.5761 -37.4052 -53.7338 31.4256 -14.4891 -10.2465 15.5496 23.7417 -38.8511 21.9743 -14.0728 -59.8464 38.1188 -0.239633 12.1429 -42.178 76.4174 -43.3794 12.6236 -81.4681 64.8233 34.6333 39.3644 -9.55382 28.0793 -46.3779 -48.2096 -8.53638 -6.26316 44.423 -19.1828 10.6056 8.25265 37.8038 -45.1356 -63.5832 22.5459 32.848 46.7434 -24.5282 -71.3454 -18.5032
internal_weight=2.17506e+06 1.2709e+06 904160 651982 522626 618914 381534 270400 200756 240684 434889 342388 312585 281942 309594 184025 172643 188753 251420 135959 151602 206429 261613 111134 122304 106459 232834 93189 75094 66880 108931 164502 125707 51158 26446 163583 90163 97111 87529 47981 46936 69644 49154 87381 65878 87455 83383 86193 80073 80036 42846 166956 68041 35597 139423 130774 40920 21508 74354 84801 49985 51561
internal_count=2175056 1270896 904160 651982 522626 618914 381534 270400 200756 240684 434889 342388 312585 281942 309594 184025 172643 188753 251420 135959 151602 206429 261613 111134 122304 106459 232834 93189 75094 66880 108931 164502 125707 51158 26446 163583 90163 97111 87529 47981 46936 69644 49154 87381 65878 87455 83383 86193 80073 80036 42846 166956 68041 35597 139423 130774 40920 21508 74354 84801 49985 51561
is_linear=0
shrinkage=0.05


Tree=2
num_leaves=63
num_cat=0
split_feature=14 6 14 14 1 6 14 6 1 5 1 0 1 0 0 2 0 14 5 2 1 2 1 6 6 14 5 14 14 0 0 15 14 14 2 0 2 0 0 5 0 1 2 4 8 4 1 1 15 5 0 0 0 0 5 0 0 14 14 5 0 2
split_gain=6.80574e+11 1.53246e+11 9.7277e+10 4.65341e+10 3.45223e+10 3.98932e+10 3.31538e+10 2.94216e+10 2.01805e+10 1.90854e+10 1.75497e+10 1.32523e+10 1.149e+10 1.10996e+10 1.59346e+10 1.05959e+10 9.10764e+09 8.48496e+09 7.71951e+09 7.65204e+09 7.5923e+09 7.02949e+09 6.1369e+09 5.80826e+09 5.67751e+09 5.34424e+09 4.90501e+09 4.53192e+09 4.39932e+09 4.01736e+09 4.04051e+09 3.32248e+09 3.24073e+09 3.11676e+09 3.07296e+09 3.06676e+09 2.98489e+09 2.90946e+09 3.8005e+09 2.84721e+09 2.82603e+09 2.81948e+09 2.5174e+09 2.63557e+09 2.33267e+09 2.15721e+09 2.12759e+09 2.04295e+09 2.00488e+09 1.96382e+09 1.96067e+09 1.89179e+09 1.88329e+09 1.87846e+09 1.85666e+09 1.85567e+09 1.81623e+09 1.78162e+09 1.77987e+09 1.77729e+09 1.75732e+09 1.7314e+09
threshold=7206.9435416666684 25.500000000000004 7847.1329166666683 6400.2031250000009 4.5000000000000009 1.0000000180025095e-35 6400.2031250000009 1.0000000180025095e-35 4.5000000000000009 0.75000000000000011 4.5000000000000009 15.500000000000002 3.5000000000000004 5.5000000000000009 19.500000000000004 2.5000000000000004 6.5000000000000009 8409.9758333333357 6.9500000000000011 9.5000000000000018 1.5000000000000002 10.500000000000002 1.5000000000000002 229.50000000000003 318.50000000000006 8429.716666666669 2.9500000000000006 5979.9491666666672 8544.4060416666671 15.500000000000002 6.5000000000000009 455.01434647672744 8453.155833333336 6853.2716666666665 10.500000000000002 6.5000000000000009 2.5000000000000004 4.5000000000000009 20.500000000000004 -1.9499999999999997 13.500000000000002 1.5000000000000002 6.5000000000000009 1.0000000180025095e-35 98.500000000000014 1.0000000180025095e-35 1.5000000000000002 2.5000000000000004 455.01434647672744 -3.5499999999999994 5.5000000000000009 8.5000000000000018 12.500000000000002 13.500000000000002 8.9500000000000011 8.5000000000000018 4.5000000000000009 8409.9758333333357 5979.9491666666672 5.7500000000000009 17.500000000000004 10.500000000000002
decision_type=2 2 2 2 2 2 2 2 2 2 2 2 2 2 2 2 2 2 2 2 2 2 2 2 2 2 2 2 2 2 2 2 2 2 2 2 2 2 2 2 2 2 2 2 2 2 2 2 2 2 2 2 2 2 2 2 2 2 2 2 2 2
left_child=1 3 7 18 5 13 12 15 20 22 11 16 29 28 35 41 50 39 34 33 36 -17 37 44 54 48 47 56 31 30 -3 -4 -16 -11 -1 -15 -9 -5 -39 -7 -22 -2 -32 -44 -12 53 -23 -18 -6 -24 -8 -25 -19 -28 -14 -10 -20 -37 -26 -38 -13 -21
right_child=2 6 4 9 25 17 10 8 55 19 23 60 24 14 32 21 26 52 27 61 40 46 49 51 58 -27 45 -29 -30 -31 42 -33 -34 -35 -36 57 59 38 -40 -41 -42 -43 43 -45 -46 -47 -48 -49 -50 -51 -52 -53 -54 -55 -56 -57 -58 -59 -60 -61 -62 -63
leaf_value=-54.841111638045533 32.48720106824414 -37.295472613946359 41.169996752681513 -17.874359710377419 32.580439420960118 77.361314917921703 -38.322595278940369 68.134783680320126 -11.95480195545642 -48.487318694595302 -39.678846490909301 -6.8331308303025287 -37.878016013952909 50.33653090735767 24.860846196952096 -10.994811677617221 36.778942584687599 100.93846790287492 -96.408090278567187 -27.031093742818701 37.287701298914634 21.957790886075731 -14.02631703700078 -26.861966399106958 -39.178459177412876 39.261284795486652 15.282450066336153 -62.829308503542592 45.245836013912566 -29.956009750934797 7.3599863692123648 12.866917728016757 48.881914397020772 -34.962387620506576 -18.795634987352933 68.501371752571274 49.242499900625738 18.501707553793779 -17.82244327578039 58.686552932465453 19.231149655085986 12.549823124299849 -9.5637840409917416 -91.707564066589555 -16.723184365543108 -45.296643623903009 3.7993810034491737 13.033988353352417 13.51431496034558 -30.708162168056237 -7.2461246446250334 -3.7921686692292607 82.786491286054272 2.888349822500603 -59.799490401484086 10.01938117626017 -75.435065833376086 88.883836173843505 -19.195829447982931 17.239422916915327 -24.003515542140558 -2.868559713247679
leaf_weight=94608 29670 11282 14019 24184 18180 38355 7391 22121 11914 152088 25172 44206 16500 12812 35131 96991 33189 30687 18596 35894 60040 23071 24353 10275 16342 49594 132604 53911 26110 29245 26717 39825 23389 59168 6307 22514 32822 19741 11336 43625 33907 44074 66659 991 19749 1634 53630 12459 57074 64023 16201 65755 26741 39731 23297 49629 23202 20468 35031 4999 22479 9344
leaf_count=94608 29670 11282 14019 24184 18180 38355 7391 22121 11914 152088 25172 44206 16500 12812 35131 96991 33189 30687 18596 35894 60040 23071 24353 10275 16342 49594 132604 53911 26110 29245 26717 39825 23389 59168 6307 22514 32822 19741 11336 43625 33907 44074 66659 991 19749 1634 53630 12459 57074 64023 16201 65755 26741 39731 23297 49629 23202 20468 35031 4999 22479 9344
internal_value=-3.43224e-08 -23.9775 32.6243 -42.3187 48.9473 57.3393 -7.31582 16.4545 29.9643 -32.5312 0.82072 7.1251 -22.8229 42.6939 52.6892 4.69199 12.5393 77.748 -62.2365 -40.7029 39.6419 -2.04989 -17.9388 -15.332 -36.5344 26.5183 15.7105 -72.4095 28.4033 -13.5557 -9.01594 20.236 34.4615 -44.6993 -52.5883 71.8075 53.5455 -4.86901 5.2517 67.4237 30.7708 20.5714 -5.635 -10.7671 -29.5867 11.8829 9.26127 30.2981 18.1203 -26.1113 -16.9819 -6.90991 92.4861 12.4251 -50.7108 5.76544 -84.766 78.2075 -25.5524 45.0125 -12.6211 -22.0403
internal_weight=2.17506e+06 1.25366e+06 921392 596755 458524 333676 656909 462868 215432 400131 430845 309894 226064 194268 114314 247436 243209 139408 196624 256494 153889 173692 143637 120951 91170 124848 219617 95709 79954 134894 105649 53844 58520 211256 100915 55794 59942 55261 31077 81980 93947 73744 94367 67650 44921 173969 76701 45648 75254 88376 23592 76030 57428 172335 39797 61543 41798 42982 51373 37821 66685 45238
internal_count=2175056 1253664 921392 596755 458524 333676 656909 462868 215432 400131 430845 309894 226064 194268 114314 247436 243209 139408 196624 256494 153889 173692 143637 120951 91170 124848 219617 95709 79954 134894 105649 53844 58520 211256 100915 55794 59942 55261 31077 81980 93947 73744 94367 67650 44921 173969 76701 45648 75254 88376 23592 76030 57428 172335 39797 61543 41798 42982 51373 37821 66685 45238
is_linear=0
shrinkage=0.05


Tree=3
num_leaves=63
num_cat=0
split_feature=14 6 14 14 6 1 14 6 1 1 5 14 0 2 1 0 14 1 1 5 2 2 6 1 5 6 0 0 0 0 14 1 1 1 14 2 0 0 0 2 8 14 1 0 0 14 0 0 1 0 0 0 4 0 0 0 0 2 2 0 0 0
split_gain=6.14656e+11 1.38416e+11 9.21636e+10 3.99586e+10 3.26157e+10 3.02289e+10 2.93037e+10 2.63288e+10 1.79734e+10 1.65889e+10 1.64031e+10 1.42837e+10 1.27055e+10 9.43001e+09 9.32338e+09 9.1828e+09 8.53835e+09 7.69083e+09 7.10684e+09 6.8192e+09 6.62271e+09 6.4185e+09 5.98655e+09 5.26387e+09 4.85224e+09 4.05458e+09 3.98435e+09 4.21751e+09 3.83092e+09 5.86501e+09 3.79501e+09 3.00937e+09 2.98524e+09 2.88388e+09 2.71747e+09 2.6316e+09 2.63121e+09 2.54891e+09 3.33468e+09 2.51113e+09 2.43185e+09 2.4265e+09 2.386e+09 2.3196e+09 2.57961e+09 2.14549e+09 2.07008e+09 3.54835e+09 2.0466e+09 1.98352e+09 1.98244e+09 1.97446e+09 1.88726e+09 1.7854e+09 2.6773e+09 1.74412e+09 1.71046e+09 1.69404e+09 1.78072e+09 1.67926e+09 1.6639e+09 1.63915e+09
threshold=7184.0733333333328 25.500000000000004 7804.2181250000012 6377.0706250000012 1.0000000180025095e-35 4.5000000000000009 6278.3777083333343 1.0000000180025095e-35 4.5000000000000009 4.5000000000000009 0.75000000000000011 8429.716666666669 15.500000000000002 2.5000000000000004 2.5000000000000004 6.5000000000000009 8409.9758333333357 1.5000000000000002 1.5000000000000002 6.9500000000000011 9.5000000000000018 10.500000000000002 229.50000000000003 1.5000000000000002 4.8500000000000005 432.50000000000006 5.5000000000000009 20.500000000000004 6.5000000000000009 19.500000000000004 5979.9491666666672 4.5000000000000009 4.5000000000000009 1.5000000000000002 6793.1010416666677 10.500000000000002 13.500000000000002 4.5000000000000009 19.500000000000004 2.5000000000000004 98.500000000000014 5873.6497916666667 2.5000000000000004 15.500000000000002 6.5000000000000009 8544.4060416666671 6.5000000000000009 19.500000000000004 1.5000000000000002 8.5000000000000018 12.500000000000002 5.5000000000000009 1.0000000180025095e-35 5.5000000000000009 19.500000000000004 7.5000000000000009 11.500000000000002 10.500000000000002 3.5000000000000004 17.500000000000004 13.500000000000002 4.5000000000000009
decision_type=2 2 2 2 2 2 2 2 2 2 2 2 2 2 2 2 2 2 2 2 2 2 2 2 2 2 2 2 2 2 2 2 2 2 2 2 2 2 2 2 2 2 2 2 2 2 2 2 2 2 2 2 2 2 2 2 2 2 2 2 2 2
left_child=1 3 7 19 11 16 14 13 18 12 23 17 15 42 43 51 33 -4 39 35 34 -15 40 37 48 41 -19 31 -13 32 61 -28 -30 -6 -12 -1 -20 -5 -39 -9 -11 -16 53 44 -3 -7 -23 -48 -17 -24 -35 -8 60 -2 -55 -10 -18 58 -25 -14 -26 -21
right_child=2 6 4 10 5 45 9 8 55 22 20 28 59 21 25 24 56 26 36 30 -22 46 49 57 52 -27 27 -29 29 -31 -32 -33 -34 50 -36 -37 -38 38 -40 -41 -42 -43 -44 -45 -46 -47 47 -49 -50 -51 -52 -53 -54 54 -56 -57 -58 -59 -60 -61 -62 -63
leaf_value=-52.456974182652267 16.154757164788546 -37.378881220184454 43.866840585037608 -17.900598455712004 76.122317722939883 23.315451152303989 -37.823864634371077 63.566153321857172 -19.925002034926322 -39.596671464159613 -47.064602910424206 39.078070996616837 -7.8843477874878722 -11.435763827933346 -64.81650810037668 32.770948966068993 97.777067276894925 9.5921783250719006 34.011718876404345 -91.587687548536678 -21.772618035706472 -0.69058926891948869 -27.021364421134535 -17.176301908522952 11.963331084910946 -24.25227173541537 47.462656839380571 12.05448441933857 84.771595239722942 42.93481509801218 -60.223802185956664 20.104446140500059 45.478054204673846 65.272666974416921 -35.321824506767875 -17.905294729294351 16.440005494329533 20.223014903247726 -13.134869114678828 42.148248069677315 -17.059904283918709 -39.359027555346266 8.9980649612138208 -28.862518225453329 -5.8120061670878442 45.160179990749896 32.202988130556214 1.8915282201599066 15.027976258515665 -4.6652486941300655 47.154726439576734 -8.5357626797382107 -49.456558035143232 56.955086389721458 18.81298370016362 7.1794658779811105 80.35207885653702 -10.990218821117365 -34.461989526612562 -23.751391461426895 0.35676965590901094 -71.663312682469083
leaf_weight=89844 16940 7224 42920 23711 29128 39774 8385 21333 6663 27453 137658 54225 48772 99456 12702 36011 24750 57157 59024 18596 45049 35960 11497 21723 134002 38182 26721 27408 19665 30992 51211 16113 6409 33029 76729 5871 33337 15439 14555 38175 21224 35579 31796 18887 62161 15668 18017 20803 29621 72408 27811 18343 1378 9582 8850 54336 32678 16026 47430 25338 40125 23202
leaf_count=89844 16940 7224 42920 23711 29128 39774 8385 21333 6663 27453 137658 54225 48772 99456 12702 36011 24750 57157 59024 18596 45049 35960 11497 21723 134002 38182 26721 27408 19665 30992 51211 16113 6409 33029 76729 5871 33337 15439 14555 38175 21224 35579 31796 18887 62161 15668 18017 20803 29621 72408 27811 18343 1378 9582 8850 54336 32678 16026 47430 25338 40125 23202
internal_value=-2.19814e-08 -23.1606 30.5036 -40.7552 45.6747 60.9612 -7.25285 14.3248 27.1435 -0.807348 -31.7761 34.6641 5.01341 3.02134 -24.758 10.0827 72.7993 25.5615 36.3513 -59.7067 -39.1999 -3.11439 -15.8211 -17.9083 13.1649 -36.4278 19.3945 27.3708 48.5946 57.6374 -69.3483 37.1712 75.1132 63.1847 -42.8619 -50.3376 27.6693 -5.64931 4.03564 49.8263 -29.7703 -46.0565 18.9376 -13.3273 -9.09858 29.4888 7.95289 15.9596 24.7632 -7.72857 56.9906 -17.7239 8.82752 27.8723 38.6414 4.21881 87.8618 -25.6376 -29.032 -13.3092 9.28877 -80.5277
internal_weight=2.17506e+06 1.23634e+06 938720 587044 484448 202838 649292 454272 212868 474557 398320 281610 341975 241404 174735 267865 147396 170319 151869 188724 259436 174236 132582 138884 241137 86463 127399 70242 111291 57066 93009 42834 26074 89968 214387 95715 92361 53705 29994 59508 48677 48281 67168 88272 69385 55442 74780 38820 65632 83905 60840 26728 175505 35372 18432 60999 57428 85179 69153 74110 174127 41798
internal_count=2175056 1236336 938720 587044 484448 202838 649292 454272 212868 474557 398320 281610 341975 241404 174735 267865 147396 170319 151869 188724 259436 174236 132582 138884 241137 86463 127399 70242 111291 57066 93009 42834 26074 89968 214387 95715 92361 53705 29994 59508 48677 48281 67168 88272 69385 55442 74780 38820 65632 83905 60840 26728 175505 35372 18432 60999 57428 85179 69153 74110 174127 41798
is_linear=0
shrinkage=0.05


Tree=4
num_leaves=63
num_cat=0
split_feature=14 6 14 14 14 6 1 6 1 1 14 0 1 1 0 2 15 0 0 5 6 0 0 5 5 14 0 0 2 2 14 2 5 0 1 0 14 1 4 14 2 2 0 0 0 0 0 0 0 0 5 0 14 15 5 14 15 15 2 14 0 14
split_gain=5.54894e+11 1.24957e+11 6.84501e+10 4.26875e+10 3.54183e+10 2.78488e+10 2.21749e+10 2.47581e+10 2.05491e+10 1.76191e+10 1.40217e+10 1.10455e+10 1.09482e+10 1.0599e+10 1.05135e+10 8.41823e+09 7.68596e+09 6.58522e+09 9.53976e+09 6.25952e+09 6.15756e+09 5.85625e+09 6.90302e+09 5.5757e+09 5.26953e+09 4.95499e+09 4.57902e+09 4.22935e+09 3.8361e+09 3.62697e+09 3.40057e+09 3.36261e+09 2.59928e+09 2.58022e+09 2.5513e+09 2.53529e+09 2.49298e+09 2.44387e+09 2.28451e+09 2.25347e+09 2.19638e+09 2.0924e+09 2.02176e+09 1.96602e+09 1.96146e+09 2.77479e+09 1.93349e+09 1.92953e+09 1.92705e+09 2.62512e+09 1.86735e+09 1.79988e+09 1.7912e+09 1.78665e+09 1.78163e+09 1.76711e+09 1.75341e+09 1.68965e+09 1.64375e+09 1.60598e+09 1.57887e+09 1.56412e+09
threshold=7278.3654166666674 4.5000000000000009 8084.706250000002 6793.1010416666677 6400.2031250000009 1.0000000180025095e-35 4.5000000000000009 1.0000000180025095e-35 4.5000000000000009 4.5000000000000009 6240.9650000000011 15.500000000000002 3.5000000000000004 1.5000000000000002 6.5000000000000009 2.5000000000000004 415.11901068960026 5.5000000000000009 19.500000000000004 -0.54999999999999993 318.50000000000006 7.5000000000000009 16.500000000000004 4.8500000000000005 6.9500000000000011 7653.3166666666675 5.5000000000000009 14.500000000000002 10.500000000000002 2.5000000000000004 8544.4060416666671 2.5000000000000004 2.4500000000000006 13.500000000000002 1.5000000000000002 5.5000000000000009 8544.4060416666671 1.5000000000000002 1.0000000180025095e-35 8583.6602083333346 10.500000000000002 10.500000000000002 6.5000000000000009 5.5000000000000009 5.5000000000000009 19.500000000000004 8.5000000000000018 11.500000000000002 4.5000000000000009 19.500000000000004 -2.2499999999999996 6.5000000000000009 6916.0070833333339 452.47245295338331 -3.4499999999999997 5922.815833333334 455.01434647672744 427.53891427955779 9.5000000000000018 8544.4060416666671 8.5000000000000018 7032.3612500000008
decision_type=2 2 2 2 2 2 2 2 2 2 2 2 2 2 2 2 2 2 2 2 2 2 2 2 2 2 2 2 2 2 2 2 2 2 2 2 2 2 2 2 2 2 2 2 2 2 2 2 2 2 2 2 2 2 2 2 2 2 2 2 2 2
left_child=1 3 5 10 12 13 7 17 15 11 24 14 26 31 35 37 61 39 42 -12 55 -11 52 34 58 57 -3 38 29 -18 47 48 -13 51 -16 -6 56 54 46 53 -21 -33 -19 -26 -27 -46 -28 -9 -2 -50 -31 -17 -23 -4 -7 -14 -8 -15 -1 -20 -10 -5
right_child=2 4 6 16 9 8 36 30 60 21 19 32 20 25 23 33 28 18 59 40 -22 22 -24 -25 43 44 27 -29 -30 50 -32 41 -34 -35 -36 -37 -38 -39 -40 -41 -42 -43 -44 -45 45 -47 -48 -49 49 -51 -52 -53 -54 -55 -56 -57 -58 -59 -60 -61 -62 -63
leaf_value=-55.554351341945477 21.032676420861765 -55.147442781719953 44.76632865697659 -12.085835286360156 -32.514925246146802 82.581633793933648 39.373247135014651 78.349538442869246 -7.0508606255637121 -37.01994497517569 -21.415986267918385 8.1637557486471302 -63.864404554124569 7.129826231024623 34.77280990285449 11.221207773193436 7.8839518340611257 48.932509923186501 26.52861766146907 -45.259612262575018 -23.132688538879897 -8.9696137709049157 -35.715324891529484 10.116357315297366 -80.019501315372693 3.8682660829331796 -14.996236198667573 -24.435773089083007 -4.0029485063087682 -17.624584424989109 86.254446879448139 2.7386749747238825 -13.855376853212761 24.848589537450248 16.626040086664915 -3.7818123417204301 37.290281416322301 47.008841433492165 -72.556255982849336 41.767349194578742 -9.9068960920377354 24.174357751851044 75.111026045219788 -62.754823328948341 30.589348851602551 7.624837899714108 0.30445522929505614 59.321163241274512 58.994423618025991 25.12712087366118 -31.669679141724586 41.980728512510417 5.3411586712624421 15.666812916943904 57.039693010990646 -42.20799175580354 15.942150492764364 -7.5279801412554681 -36.068368800415826 45.889665955792367 12.772438924514502 8.109999645935293
leaf_weight=48455 14062 6329 6641 16490 12529 12620 9923 23691 12276 23198 34592 16960 12937 25930 42131 5088 6989 9526 22546 194407 51373 60127 20590 159504 33306 44744 30912 44119 19818 29335 44954 18958 63900 44194 35850 19825 39313 24336 1260 24487 4495 28497 32667 32659 24153 28885 62178 30441 13333 10023 122449 72843 34361 25641 14874 34645 40867 81318 13935 20404 55261 22902
leaf_count=48455 14062 6329 6641 16490 12529 12620 9923 23691 12276 23198 34592 16960 12937 25930 42131 5088 6989 9526 22546 194407 51373 60127 20590 159504 33306 44744 30912 44119 19818 29335 44954 18958 63900 44194 35850 19825 39313 24336 1260 24487 4495 28497 32667 32659 24153 28885 62178 30441 13333 10023 122449 72843 34361 25641 14874 34645 40867 81318 13935 20404 55261 22902
internal_value=-4.50099e-08 -20.4719 31.1545 -37.8144 -6.74824 20.0359 48.9991 56.9111 32.5771 1.01323 -48.3441 6.97293 -22.318 9.58895 11.8304 41.6651 -20.3352 43.5199 52.3147 -41.0466 -35.1362 -14.1019 -9.48198 15.4732 -61.6192 3.43787 -13.558 -11.657 -24.7446 -27.3336 76.09 24.4483 -9.23697 34.4995 26.4302 -14.9086 27.837 58.549 -5.68155 30.3293 -44.4607 15.6109 69.2006 -71.4718 11.5783 18.0827 -4.77638 67.649 35.6562 44.4606 -28.9552 39.9725 -3.76543 21.6531 68.7637 -48.0961 20.52 -3.98407 -51.2021 35.7264 9.16922 -0.344238
internal_weight=2.17506e+06 1.31256e+06 862496 579832 732728 531395 331101 240998 241492 488975 361849 350699 243753 289903 269839 173955 217983 141912 85143 233494 98955 138276 115078 237485 128355 205030 144798 138469 178591 158773 99086 84873 80860 122125 77981 32354 90103 51830 94350 56769 198902 47455 42193 65965 97782 53038 93090 54132 37418 23356 151784 77931 94488 32282 27494 47582 50790 107248 62390 42950 67537 39392
internal_count=2175056 1312560 862496 579832 732728 531395 331101 240998 241492 488975 361849 350699 243753 289903 269839 173955 217983 141912 85143 233494 98955 138276 115078 237485 128355 205030 144798 138469 178591 158773 99086 84873 80860 122125 77981 32354 90103 51830 94350 56769 198902 47455 42193 65965 97782 53038 93090 54132 37418 23356 151784 77931 94488 32282 27494 47582 50790 107248 62390 42950 67537 39392
is_linear=0
shrinkage=0.05


Tree=5
num_leaves=63
num_cat=0
split_feature=14 6 14 14 0 1 0 14 6 1 3 5 0 0 1 15 14 14 5 6 2 1 1 15 5 6 0 0 2 14 1 1 14 14 1 2 0 5 14 0 0 0 14 0 1 0 4 5 0 5 14 14 0 5 2 2 15 14 0 0 0 1
split_gain=5.01466e+11 1.12758e+11 7.59868e+10 3.17875e+10 2.72629e+10 2.63808e+10 2.64239e+10 2.54097e+10 2.13985e+10 1.51711e+10 1.39954e+10 1.31251e+10 1.05807e+10 8.55034e+09 8.22339e+09 8.11123e+09 7.88734e+09 5.44105e+09 5.40077e+09 5.30302e+09 4.85834e+09 4.74993e+09 4.17069e+09 3.91693e+09 3.68955e+09 3.68951e+09 3.64274e+09 8.72343e+09 3.60408e+09 3.36559e+09 3.32294e+09 3.24731e+09 2.71321e+09 2.67216e+09 2.59428e+09 2.36644e+09 2.36197e+09 2.35747e+09 2.30363e+09 2.26502e+09 2.16153e+09 4.24347e+09 2.15204e+09 1.86457e+09 2.37327e+09 2.04686e+09 1.85681e+09 1.83228e+09 1.82825e+09 1.80297e+09 1.78987e+09 1.71089e+09 1.69582e+09 1.63078e+09 1.60734e+09 1.54622e+09 1.52099e+09 1.46465e+09 1.45094e+09 1.43054e+09 2.10062e+09 1.42984e+09
threshold=7184.0733333333328 19.500000000000004 7804.2181250000012 6400.2031250000009 6.5000000000000009 4.5000000000000009 19.500000000000004 6278.3777083333343 1.0000000180025095e-35 2.5000000000000004 1.0000000180025095e-35 1.0500000000000003 14.500000000000002 6.5000000000000009 2.5000000000000004 436.47886153336799 8385.7800000000007 8429.716666666669 6.9500000000000011 229.50000000000003 9.5000000000000018 1.5000000000000002 4.5000000000000009 455.01434647672744 3.8500000000000001 432.50000000000006 5.5000000000000009 19.500000000000004 2.5000000000000004 5979.9491666666672 1.5000000000000002 4.5000000000000009 8409.9758333333357 8429.716666666669 1.5000000000000002 10.500000000000002 21.500000000000004 2.2500000000000004 5873.6497916666667 17.500000000000004 5.5000000000000009 19.500000000000004 5846.8745833333342 5.5000000000000009 4.5000000000000009 19.500000000000004 1.0000000180025095e-35 5.4500000000000011 5.5000000000000009 -1.5499999999999998 7442.5733333333346 6853.2716666666665 8.5000000000000018 -3.0499999999999994 10.500000000000002 3.5000000000000004 564.74937539613404 8962.9737500000028 8.5000000000000018 5.5000000000000009 19.500000000000004 1.0000000180025095e-35
decision_type=2 2 2 2 2 2 2 2 2 2 2 2 2 2 2 2 2 2 2 2 2 2 2 2 2 2 2 2 2 2 2 2 2 2 2 2 2 2 2 2 2 2 2 2 2 2 2 2 2 2 2 2 2 2 2 2 2 2 2 2 2 2
left_child=1 3 8 18 17 6 16 14 15 28 12 21 13 48 42 34 30 23 35 37 36 40 50 -4 -15 38 -17 31 49 -20 53 -28 -8 -7 59 56 43 -12 -16 -14 -5 -42 -3 51 45 -45 -26 61 -9 -10 -11 -13 -21 -6 55 -23 -1 -19 -24 -2 -61 -30
right_child=2 7 4 11 5 33 32 10 9 22 19 20 39 24 25 26 -18 57 29 52 -22 54 58 -25 46 -27 27 -29 47 -31 -32 -33 -34 -35 -36 -37 -38 -39 -40 -41 41 -43 -44 44 -46 -47 -48 -49 -50 -51 -52 -53 -54 -55 -56 -57 -58 -59 -60 60 -62 -63
leaf_value=-40.39471610415162 14.979766559726215 -23.229875672502104 33.491417743086949 -14.707630130825946 79.066007217992677 19.255202287436518 19.866826283140252 -33.840374508313879 69.608346371766785 11.967939095847926 -9.7214423627781859 -44.238082083434684 -4.4496652826435064 25.494172230378368 -60.374079683837614 -11.739331072397929 78.189819556977 31.48909823728048 -73.183012449691589 -24.688823269433204 -20.247839574479723 -15.94933534469704 -11.89710299708725 8.9570582520860444 10.467063597072828 -22.020531673392934 33.585897562397513 -9.3186561551656251 50.218302234748052 -53.997968093806143 51.412403415400675 -1.823193039848044 41.155721751774472 37.148339244953789 7.217040898014516 -15.512165538997236 -50.117763237285438 -33.954830463407269 -36.193701049923291 -21.123490894329844 28.779446060087469 -12.057724365635565 -6.7988455695388428 -5.5939379571399641 -46.391350140576769 -30.036201093398233 -45.998591408947036 14.954141981400255 -6.7991258695298802 43.220923431939056 29.276582698052302 -29.494580876038874 -4.017471334385732 58.076831050691752 -9.5997949890872061 -31.873041601833531 -53.262085691595274 53.176255101657581 7.5125777728653649 50.421428905271036 17.764997357179638 32.199393882792094
leaf_weight=41239 17960 29890 21672 28146 20839 57604 35950 9258 12281 25412 13800 76618 76829 49784 13414 76314 81330 44814 40479 11497 41114 21819 11982 65242 163551 38182 23325 52108 15531 52520 72571 8963 25641 32716 43025 6140 39243 36794 37070 27715 11055 14983 59791 11906 14869 30527 1469 10907 19242 13689 36231 26477 72408 16647 16080 50596 51831 9422 49017 10093 9616 37818
leaf_count=41239 17960 29890 21672 28146 20839 57604 35950 9258 12281 25412 13800 76618 76829 49784 13414 76314 81330 44814 40479 11497 41114 21819 11982 65242 163551 38182 23325 52108 15531 52520 72571 8963 25641 32716 43025 6140 39243 36794 37070 27715 11055 14983 59791 11906 14869 30527 1469 10907 19242 13689 36231 26477 72408 16647 16080 50596 51831 9422 49017 10093 9616 37818
internal_value=-6.06515e-09 -20.9197 27.5522 -37.0967 41.3276 48.9333 57.2152 -6.82514 12.8617 24.418 -0.862718 -28.7779 4.43327 10.1495 -22.9507 2.67137 66.3822 22.8295 -53.6919 -14.5595 -35.8993 -16.7612 12.969 15.0747 13.5637 -33.7485 -3.82305 3.33515 39.9804 -62.3485 57.6566 23.7565 28.7296 25.7365 15.6056 -45.5772 -39.1226 -27.3449 -42.6186 -8.86996 -5.10234 5.28059 -12.2752 -36.4325 -29.2016 -23.1781 9.96441 33.6274 -15.5833 55.6993 22.1412 -40.4516 -6.84994 69.745 -23.8998 -27.0751 -47.5606 35.2566 3.69994 25.187 34.4884 37.4451
internal_weight=2.17506e+06 1.23634e+06 938720 575642 484448 343298 252978 660694 454272 212868 482347 383433 347848 243304 178347 241404 191387 141150 192209 134499 240754 142679 122642 86914 214804 88666 160710 84396 90226 92999 110057 32288 61591 90320 80694 99210 199640 50594 50484 104544 54184 26038 89681 160397 57302 42433 165020 64256 28500 25970 61643 103095 83905 37486 88495 72415 93070 54236 60999 37669 19709 53349
internal_count=2175056 1236336 938720 575642 484448 343298 252978 660694 454272 212868 482347 383433 347848 243304 178347 241404 191387 141150 192209 134499 240754 142679 122642 86914 214804 88666 160710 84396 90226 92999 110057 32288 61591 90320 80694 99210 199640 50594 50484 104544 54184 26038 89681 160397 57302 42433 165020 64256 28500 25970 61643 103095 83905 37486 88495 72415 93070 54236 60999 37669 19709 53349
is_linear=0
shrinkage=0.05


Tree=6
num_leaves=63
num_cat=0
split_feature=14 6 14 14 14 6 1 6 1 14 1 1 1 6 0 2 1 0 0 0 0 0 5 5 14 0 0 14 5 5 14 4 2 14 14 2 0 0 14 1 2 5 2 5 0 5 2 15 0 0 0 0 0 14 0 5 14 2 2 1 2 5
split_gain=4.5288e+11 1.02339e+11 5.63066e+10 3.50799e+10 2.95873e+10 2.18268e+10 1.89646e+10 2.11856e+10 1.60038e+10 1.15342e+10 1.14141e+10 1.12249e+10 8.69891e+09 7.78501e+09 7.43529e+09 6.63415e+09 6.4559e+09 6.24201e+09 5.6876e+09 8.26287e+09 5.47892e+09 5.52969e+09 5.17471e+09 4.40972e+09 3.76515e+09 3.52832e+09 3.84403e+09 3.12503e+09 3.07756e+09 3.00309e+09 2.89148e+09 2.88256e+09 2.80438e+09 2.80009e+09 2.46802e+09 2.37584e+09 2.27227e+09 2.19687e+09 2.03904e+09 2.01226e+09 1.93867e+09 1.92152e+09 1.9209e+09 1.88948e+09 1.84368e+09 1.68886e+09 1.67905e+09 1.645e+09 1.58458e+09 1.5663e+09 2.52966e+09 1.51824e+09 1.51485e+09 1.48065e+09 1.44994e+09 1.43353e+09 1.42761e+09 1.42585e+09 1.49343e+09 1.39239e+09 1.37716e+09 1.34784e+09
threshold=7278.3654166666674 4.5000000000000009 8049.8022916666678 6793.1010416666677 6636.4433333333345 1.0000000180025095e-35 4.5000000000000009 1.0000000180025095e-35 4.5000000000000009 6228.8404166666678 3.5000000000000004 4.5000000000000009 1.5000000000000002 318.50000000000006 14.500000000000002 2.5000000000000004 1.5000000000000002 6.5000000000000009 5.5000000000000009 19.500000000000004 5.5000000000000009 14.500000000000002 -0.74999999999999989 7.3500000000000005 7607.413333333333 7.5000000000000009 16.500000000000004 8544.4060416666671 2.9500000000000006 2.9500000000000006 6180.5706250000012 1.0000000180025095e-35 2.5000000000000004 6201.5456250000016 5873.6497916666667 10.500000000000002 13.500000000000002 8.5000000000000018 8583.6602083333346 1.5000000000000002 10.500000000000002 2.6500000000000008 2.5000000000000004 -3.1499999999999999 16.500000000000004 -4.7499999999999991 10.500000000000002 439.75239410298042 6.5000000000000009 5.5000000000000009 19.500000000000004 8.5000000000000018 6.5000000000000009 8663.8191666666698 5.5000000000000009 -4.0499999999999989 7041.0195833333346 2.5000000000000004 9.5000000000000018 1.5000000000000002 9.5000000000000018 2.8500000000000001
decision_type=2 2 2 2 2 2 2 2 2 2 2 2 2 2 2 2 2 2 2 2 2 2 2 2 2 2 2 2 2 2 2 2 2 2 2 2 2 2 2 2 2 2 2 2 2 2 2 2 2 2 2 2 2 2 2 2 2 2 2 2 2 2
left_child=1 3 5 9 10 12 7 18 15 23 20 14 32 30 17 39 29 54 38 48 -3 31 -11 60 57 -13 -27 43 59 56 -12 34 45 -15 -22 42 52 -8 47 55 -24 -16 -18 -9 -25 -2 -34 -4 -20 -26 -51 -36 -17 -21 -6 -7 -5 -14 -59 -19 -1 -38
right_child=2 4 6 16 11 8 37 27 -10 22 13 25 24 33 41 36 35 28 19 53 21 -23 40 44 49 26 -28 -29 -30 -31 -32 -33 46 -35 51 -37 61 -39 -40 -41 -42 -43 -44 -45 -46 -47 -48 -49 -50 50 -52 -53 -54 -55 -56 -57 -58 58 -60 -61 -62 -63
leaf_value=-50.894618357456409 41.502728492326682 -46.046439312970165 40.926197171641661 -8.368827234303259 -25.369248515206955 75.597252200364551 15.661574879004807 72.091015314297408 7.9221574822508929 -19.035406669822226 -50.880993950161631 -31.217613627159359 7.9316184919407959 -26.952607973944591 10.085325640631764 9.4147585184931977 3.7845539108372104 37.734267766542409 44.582586638580608 24.966377939063086 -15.063316482820941 -18.935598239606637 -41.014351751897685 -74.427790207420529 2.3658492640471915 -1.280579101473192 -29.948401464902737 78.03223309910436 14.261485036562853 -23.790585436647973 -30.441653530943491 -60.694551246532114 2.1797468402335691 -7.7961717976105653 -5.7312082519749028 -7.1447849102638887 27.197822029197525 31.079806049381514 37.87292623412187 41.590219640626245 -8.9739957567911386 -7.7287459064199631 -27.46867620018498 53.661689513653556 -56.963274243474807 19.610873679994878 21.534805653458868 13.768399174896055 67.205512312449159 26.225390752582566 5.0159191184956873 6.5619781288225116 37.738854152933008 43.924239020523181 0.45383788430743499 52.013982389460324 8.7793435922890577 -16.847542262726019 -2.3062120891006397 19.63791662661113 -33.432019844786261 7.8149532963042097
leaf_weight=49690 20912 9402 6938 22204 8759 11018 39895 22225 65506 33456 28391 16623 17651 32548 20214 5057 5111 24437 10008 29193 24118 66141 198809 30368 48245 70689 14011 44954 117458 16268 44306 2020 18802 46086 37326 18452 30466 54891 24487 22963 4836 60278 129178 37165 30080 15223 27732 28402 34160 25694 31045 76780 70961 15914 14328 15521 26770 28594 46163 18813 14610 12711
leaf_count=49690 20912 9402 6938 22204 8759 11018 39895 22225 65506 33456 28391 16623 17651 32548 20214 5057 5111 24437 10008 29193 24118 66141 198809 30368 48245 70689 14011 44954 117458 16268 44306 2020 18802 46086 37326 18452 30466 54891 24487 22963 4836 60278 129178 37165 30080 15223 27732 28402 34160 25694 31045 76780 70961 15914 14328 15521 26770 28594 46163 18813 14610 12711
internal_value=-2.36386e-08 -18.4946 28.1454 -34.1892 -6.07496 17.6328 43.6703 50.806 28.897 -43.7347 -16.1016 3.99308 8.21294 -26.6294 9.41768 37.0417 -18.3439 14.9677 38.7129 46.7071 -8.71852 -7.01802 -37.2595 -56.0416 2.51021 -10.1562 -6.02279 68.0865 18.4601 -5.17801 -38.424 -1.39752 21.8296 -15.7254 -0.53096 -23.9676 30.6518 24.5903 26.7837 52.4277 -40.2535 -3.25509 -26.2792 60.5583 -65.7371 32.2801 13.7144 19.1001 62.0794 8.98894 14.6205 2.54067 35.8546 31.6548 -9.34321 61.8049 1.00465 -4.85022 -7.86816 29.8627 -46.9268 21.4916
internal_weight=2.17506e+06 1.31256e+06 862496 579832 732728 514264 348232 253446 234203 361849 367118 365610 280061 151331 264287 168697 217983 183795 149102 89275 215787 206385 237101 124748 197392 101323 84700 104344 160708 65242 72697 140244 82669 78634 138224 152741 119195 94786 59827 49502 203645 80492 134289 59390 60448 36135 46534 35340 44168 104984 56739 114106 76018 45107 23087 26539 48974 92408 74757 43250 64300 43177
internal_count=2175056 1312560 862496 579832 732728 514264 348232 253446 234203 361849 367118 365610 280061 151331 264287 168697 217983 183795 149102 89275 215787 206385 237101 124748 197392 101323 84700 104344 160708 65242 72697 140244 82669 78634 138224 152741 119195 94786 59827 49502 203645 80492 134289 59390 60448 36135 46534 35340 44168 104984 56739 114106 76018 45107 23087 26539 48974 92408 74757 43250 64300 43177
is_linear=0
shrinkage=0.05


Tree=7
num_leaves=63
num_cat=0
split_feature=14 6 14 14 14 0 1 0 6 1 1 5 0 0 1 15 14 2 6 14 15 5 6 15 1 0 0 1 0 2 1 0 0 1 14 14 14 0 5 14 5 1 1 2 5 0 4 5 0 2 12 5 14 0 0 14 1 0 1 5 1 14
split_gain=4.0924e+11 9.20027e+10 6.38941e+10 2.37915e+10 2.27987e+10 2.23845e+10 2.16134e+10 2.17057e+10 1.77739e+10 1.29283e+10 1.25582e+10 9.88401e+09 8.15562e+09 8.04048e+09 7.25757e+09 7.05063e+09 6.36693e+09 4.99329e+09 4.97082e+09 4.59998e+09 4.23264e+09 3.60571e+09 3.58185e+09 3.35856e+09 3.33878e+09 3.21353e+09 7.80329e+09 3.04124e+09 2.94842e+09 2.94476e+09 2.92027e+09 2.59468e+09 2.45074e+09 2.36537e+09 2.29603e+09 2.26579e+09 2.25553e+09 2.12184e+09 2.09559e+09 2.0867e+09 2.07829e+09 1.88058e+09 1.73729e+09 1.72394e+09 1.71368e+09 1.69938e+09 1.68827e+09 1.62963e+09 1.586e+09 1.58438e+09 1.55766e+09 1.5274e+09 1.51002e+09 1.45537e+09 1.44291e+09 1.44254e+09 1.44179e+09 1.3433e+09 1.307e+09 1.29293e+09 1.26354e+09 1.25374e+09
threshold=7173.7300000000005 4.5000000000000009 7804.2181250000012 6377.0706250000012 6278.3777083333343 6.5000000000000009 4.5000000000000009 19.500000000000004 1.0000000180025095e-35 2.5000000000000004 4.5000000000000009 -0.34999999999999992 15.500000000000002 5.5000000000000009 3.5000000000000004 436.47886153336799 8453.155833333336 9.5000000000000018 229.50000000000003 8453.155833333336 564.74937539613404 4.8500000000000005 212.50000000000003 455.01434647672744 4.5000000000000009 5.5000000000000009 19.500000000000004 1.5000000000000002 5.5000000000000009 2.5000000000000004 4.5000000000000009 14.500000000000002 4.5000000000000009 1.5000000000000002 8478.2016666666677 5726.3429166666674 8544.4060416666671 7.5000000000000009 -5.6499999999999995 6934.5560416666667 2.2500000000000004 2.5000000000000004 1.5000000000000002 6.5000000000000009 1.6500000000000001 20.500000000000004 1.0000000180025095e-35 5.4500000000000011 13.500000000000002 10.500000000000002 7835.4500000000007 -1.5499999999999998 7442.5733333333346 8.5000000000000018 11.500000000000002 6215.6760416666675 1.5000000000000002 7.5000000000000009 1.0000000180025095e-35 7.0500000000000007 2.5000000000000004 8962.9737500000028
decision_type=2 2 2 2 2 2 2 2 2 2 2 2 2 2 2 2 2 2 2 2 2 2 2 2 2 2 2 2 2 2 2 2 2 2 2 2 2 2 2 2 2 2 2 2 2 2 2 2 2 2 2 2 2 2 2 2 2 2 2 2 2 2
left_child=1 3 8 20 14 19 7 16 15 29 12 33 13 -6 28 38 27 39 40 23 35 42 -16 -4 52 -17 30 50 -3 51 -27 43 55 -5 -8 -1 -9 -23 -2 -13 -12 45 -15 -30 -14 -34 -45 58 -39 -19 -7 -10 -11 -20 -29 59 -40 -26 -31 -22 -25 -21
right_child=2 4 5 11 10 6 34 36 9 24 18 17 44 21 22 25 -18 49 53 61 32 37 -24 60 57 26 -28 54 31 47 -32 -33 41 -35 -36 -37 -38 48 56 -41 -42 -43 -44 46 -46 -47 -48 -49 -50 -51 -52 -53 -54 -55 -56 -57 -58 -59 -60 -61 -62 -63
leaf_value=-63.832861966620094 24.983194508180603 -52.109386138694269 30.611982053830459 -4.3700395212718748 -29.146461181876447 53.060432410315187 17.758239250149142 19.220819641878315 63.053052472886463 10.490496741029716 -10.48489650930264 -37.934490319254088 7.5337050421801637 25.960631584917866 -47.854648903277877 -11.152605671135479 71.97389488066942 -22.934524568412719 -22.888361889950531 28.813020675963465 -58.064287673642013 -6.5725846235219443 -25.470493520043156 18.576885604104636 -17.601560473397207 31.339742487085239 -8.9505753120829947 55.967662599042683 7.2790755259702937 46.069966143196126 -1.9670145068218394 -23.389409357495971 -22.226308599327485 -20.22496132426906 34.789317550462236 -36.097035718208581 39.549773983774486 11.055867766699967 17.286077098303892 -25.469387970788109 -31.495859272776581 -56.775372493968746 10.697241656950988 -9.826686604800301 -12.922020257903462 -49.281353850476329 -82.674783177712598 13.147684544326324 -0.42253533122405618 -1.8274398354192365 72.874349703664123 38.854285639435787 26.16375884564232 -3.6761426993113342 42.165042705676854 -50.140805545153711 0.66562351790407837 5.7834160553466925 29.029388740009615 -76.522696105195763 3.6576510359676648 48.979162925805696
leaf_weight=8488 29005 4772 22204 39899 14110 17522 61036 41187 12329 26687 16526 176886 11902 40139 28063 77872 70869 37070 11429 42350 16537 28851 49212 20367 6903 23640 53209 30682 17068 15901 9120 33790 9931 57318 29284 55574 20404 119355 23983 41440 40891 30461 34811 54975 73260 13967 807 11305 40240 11696 22860 13842 36231 71679 49454 14440 28619 55631 38491 22253 46807 9422
leaf_count=8488 29005 4772 22204 39899 14110 17522 61036 41187 12329 26687 16526 176886 11902 40139 28063 77872 70869 37070 11429 42350 16537 28851 49212 20367 6903 23640 53209 30682 17068 15901 9120 33790 9931 57318 29284 55574 20404 119355 23983 41440 40891 30461 34811 54975 73260 13967 807 11305 40240 11696 22860 13842 36231 71679 49454 14440 28619 55631 38491 22253 46807 9422
internal_value=-4.37683e-09 -19.0492 24.6928 -34.5999 -7.00303 37.3849 44.2766 51.7729 11.4061 21.8199 -1.44509 -27.3688 3.47178 7.62543 -21.825 2.18565 60.0813 -32.3375 -14.1346 20.6233 -49.947 9.59529 -33.5995 13.7536 11.3839 -3.79511 2.86942 53.088 -13.6583 36.0709 22.0675 -11.9376 -56.0055 -13.7179 23.2801 -39.7719 25.9554 5.90591 14.1931 -35.5685 -25.4484 -48.538 18.8715 -6.62596 -10.0632 -38.0384 -10.8806 30.4209 8.16172 -17.8722 64.277 50.2542 19.5159 -6.3182 47.4497 -63.6314 8.24344 3.202 34.011 -68.6535 8.18113 32.4831
internal_weight=2.17506e+06 1.22784e+06 947216 535960 691880 484448 343298 252978 462768 217320 503193 364309 362668 277506 188687 245448 191387 267092 140525 141150 171651 263396 77275 89378 125452 163841 85969 120518 111412 91868 32760 106640 107589 97217 90320 64062 61591 188446 81607 218326 57417 54359 74950 72850 85162 23898 55782 65697 159595 48766 40382 26171 62918 83108 80136 53230 52602 62534 54392 38790 67174 51772
internal_count=2175056 1227840 947216 535960 691880 484448 343298 252978 462768 217320 503193 364309 362668 277506 188687 245448 191387 267092 140525 141150 171651 263396 77275 89378 125452 163841 85969 120518 111412 91868 32760 106640 107589 97217 90320 64062 61591 188446 81607 218326 57417 54359 74950 72850 85162 23898 55782 65697 159595 48766 40382 26171 62918 83108 80136 53230 52602 62534 54392 38790 67174 51772
is_linear=0
shrinkage=0.05


Tree=8
num_leaves=63
num_cat=0
split_feature=14 6 14 14 14 6 1 1 6 1 14 1 1 6 15 2 0 0 0 0 5 5 0 0 14 0 0 2 2 5 5 4 0 14 14 0 0 0 0 0 0 0 1 0 2 1 5 0 2 14 14 0 0 0 5 1 0 0 14 0 0 15
split_gain=3.69941e+11 8.33804e+10 4.44412e+10 3.07464e+10 2.56502e+10 1.96403e+10 1.46171e+10 1.34974e+10 1.43491e+10 9.61693e+09 9.37765e+09 9.32967e+09 7.97706e+09 6.48218e+09 6.00324e+09 5.99697e+09 4.68505e+09 4.59322e+09 4.47002e+09 4.4987e+09 4.21186e+09 3.73142e+09 3.71292e+09 5.73808e+09 3.65156e+09 3.6357e+09 3.83209e+09 2.86798e+09 2.88994e+09 2.79131e+09 2.61763e+09 2.46548e+09 2.42338e+09 2.37149e+09 2.26634e+09 2.17654e+09 2.11433e+09 2.07433e+09 1.75277e+09 2.42982e+09 1.69216e+09 2.78114e+09 1.64199e+09 1.61139e+09 1.60819e+09 1.54287e+09 1.51246e+09 1.47769e+09 1.47197e+09 1.46064e+09 1.44102e+09 1.38434e+09 1.36669e+09 1.35893e+09 1.33168e+09 1.31306e+09 1.29829e+09 1.27268e+09 1.26507e+09 1.26435e+09 2.93824e+09 1.2601e+09
threshold=7297.8529166666676 4.5000000000000009 8179.4145833333341 6793.1010416666677 6636.4433333333345 1.0000000180025095e-35 4.5000000000000009 4.5000000000000009 1.0000000180025095e-35 3.5000000000000004 6228.8404166666678 3.5000000000000004 1.5000000000000002 318.50000000000006 415.11901068960026 2.5000000000000004 14.500000000000002 6.5000000000000009 5.5000000000000009 14.500000000000002 -0.74999999999999989 7.3500000000000005 5.5000000000000009 20.500000000000004 7664.8683333333329 16.500000000000004 7.5000000000000009 10.500000000000002 2.5000000000000004 5.7500000000000009 -4.2499999999999991 1.0000000180025095e-35 12.500000000000002 6180.5706250000012 6201.5456250000016 13.500000000000002 8.5000000000000018 12.500000000000002 5.5000000000000009 20.500000000000004 4.5000000000000009 20.500000000000004 4.5000000000000009 8.5000000000000018 9.5000000000000018 4.5000000000000009 2.8500000000000001 16.500000000000004 6.5000000000000009 8962.9737500000028 6916.0070833333339 5.5000000000000009 19.500000000000004 6.5000000000000009 -2.4499999999999997 1.5000000000000002 8.5000000000000018 19.500000000000004 5846.8745833333342 5.5000000000000009 19.500000000000004 691.68603843997505
decision_type=2 2 2 2 2 2 2 2 2 2 2 2 2 2 2 2 2 2 2 2 2 2 2 2 2 2 2 2 2 2 2 2 2 2 2 2 2 2 2 2 2 2 2 2 2 2 2 2 2 2 2 2 2 2 2 2 2 2 2 2 2 2
left_child=1 3 5 10 11 12 15 8 22 16 21 18 30 33 55 37 17 -6 -3 31 -12 -1 49 -24 59 26 45 28 -16 -19 40 36 -10 -13 -15 53 58 -7 -26 42 -2 -42 -40 -9 -22 -11 -18 61 -38 -4 -28 -46 -53 -17 -30 -5 -8 -49 -20 -14 -61 -23
right_child=2 4 7 14 9 6 56 43 32 25 20 13 24 34 27 35 46 29 19 -21 44 47 23 -25 38 -27 50 -29 54 -31 -32 -33 -34 -35 -36 -37 48 -39 39 -41 41 -43 -44 -45 51 -47 -48 57 -50 -51 -52 52 -54 -55 -56 -57 -58 -59 -60 60 -62 -63
leaf_value=-42.244169630050891 17.568074224479073 -41.704050833737242 23.912970325669587 8.742005620719592 -8.0887103741959638 57.624944060381466 -6.1672060661646011 15.774267141693478 71.841910665502539 -3.5682293250034642 -17.251707663197365 -46.224654458923339 -8.6860759699977805 -24.331452699496207 7.9168440830268274 8.6313868734991726 11.803381570566739 27.365529966003812 -28.092761969041163 -17.200996775550205 -38.135362816470916 -56.663248930967974 55.262888857229193 26.764534157116501 3.356621456104778 -23.475654789850502 -3.6260046929889471 -2.9039797760834638 -13.969274329658706 12.579172498209124 12.868143889893595 -56.221805902648683 55.027488153976641 -27.714187313547058 -7.0972738916180553 20.493965465734494 12.695665470104577 38.464881320232081 32.562357550852099 3.836446438287358 49.146549032151427 16.398070803212541 10.858020716428998 30.23781177453143 -38.20045423348801 -28.269230801289055 -5.1603622098737461 -23.79048543477337 -0.68625145404308818 51.854073326692529 7.6847783849110147 -0.013100085903672674 -29.640261249296312 35.930559450638548 -25.904786571981177 -8.9650085878077022 11.653492492448542 -55.483459880247409 -5.6872497540326599 15.851472404573087 -7.3225590411617079 -77.054928686118615
leaf_weight=64300 16690 9402 44261 23633 17530 30912 12449 33491 46159 10092 33456 28391 48568 32548 7578 4856 18450 57707 7553 66141 176538 14486 46780 28378 51249 23267 57359 21750 28653 71418 42071 2020 39997 44306 46086 45021 30752 26014 22288 24929 18427 10002 14308 45310 11518 16922 45650 3598 61940 5230 55316 7523 8066 74449 126751 18797 57087 26482 37979 23433 32857 15882
leaf_count=64300 16690 9402 44261 23633 17530 30912 12449 33491 46159 10092 33456 28391 48568 32548 7578 4856 18450 57707 7553 66141 176538 14486 46780 28378 51249 23267 57359 21750 28653 71418 42071 2020 39997 44306 46086 45021 30752 26014 22288 24929 18427 10002 14308 45310 11518 16922 45650 3598 61940 5230 55316 7523 8066 74449 126751 18797 57087 26482 37979 23433 32857 15882
internal_value=-5.50104e-08 -16.4394 25.8653 -30.4804 -5.27576 17.5878 27.9518 41.7456 48.3452 3.94552 -39.5317 -14.6627 9.06095 -24.1807 -16.0626 35.4285 10.9984 15.927 -7.98765 -6.45168 -33.6932 -50.6286 37.4999 44.5025 3.9413 -5.17614 -2.12812 -19.958 -22.2339 19.1873 21.8399 -1.38215 64.036 -34.9432 -14.2308 29.2744 -0.580724 48.8692 10.1865 15.8756 30.2056 37.6249 24.0766 24.0907 -36.3943 -19.0413 -0.277662 -59.5474 3.75341 26.8657 1.92684 -25.0551 -15.3427 34.259 -23.7041 0.897585 8.46306 -51.6925 -9.40395 -2.77533 2.32457 -67.3278
internal_weight=2.17506e+06 1.32984e+06 845216 589011 740829 555610 250788 289606 210805 373711 361849 367118 304822 151331 227162 181252 210755 146655 215787 206385 237101 124748 124649 75158 217632 162956 139689 184732 162982 129125 87190 140244 86156 72697 78634 124326 138224 56926 112774 61525 45119 28429 36596 78801 203645 27014 64100 60448 92692 49491 112675 27107 15589 79305 155404 42430 69536 30080 45532 104858 56290 30368
internal_count=2175056 1329840 845216 589011 740829 555610 250788 289606 210805 373711 361849 367118 304822 151331 227162 181252 210755 146655 215787 206385 237101 124748 124649 75158 217632 162956 139689 184732 162982 129125 87190 140244 86156 72697 78634 124326 138224 56926 112774 61525 45119 28429 36596 78801 203645 27014 64100 60448 92692 49491 112675 27107 15589 79305 155404 42430 69536 30080 45532 104858 56290 30368
is_linear=0
shrinkage=0.05


Tree=9
num_leaves=63
num_cat=0
split_feature=14 6 14 14 14 6 1 1 6 1 1 14 1 2 6 2 2 2 0 0 0 0 5 5 2 14 0 0 4 0 5 0 2 14 14 14 0 14 0 1 0 0 1 2 0 0 2 0 1 1 5 2 8 15 0 0 0 5 0 0 1 14
split_gain=3.34264e+11 7.49913e+10 3.70989e+10 3.12171e+10 2.49073e+10 1.82931e+10 1.35198e+10 1.08292e+10 1.13757e+10 9.22914e+09 8.892e+09 8.79584e+09 7.56181e+09 6.22508e+09 6.02029e+09 5.69075e+09 5.11236e+09 4.64119e+09 4.43821e+09 4.18953e+09 4.01645e+09 3.8811e+09 3.86497e+09 3.32924e+09 3.24107e+09 3.05192e+09 2.92225e+09 4.48421e+09 2.47554e+09 2.43734e+09 2.40898e+09 2.31872e+09 2.30543e+09 2.26376e+09 2.2273e+09 2.09442e+09 2.05154e+09 2.04533e+09 1.92437e+09 1.91606e+09 1.8626e+09 2.58382e+09 1.65915e+09 1.61334e+09 1.46104e+09 2.43896e+09 1.46022e+09 1.4493e+09 1.385e+09 1.3342e+09 1.31005e+09 1.28188e+09 1.27513e+09 1.27416e+09 1.26404e+09 1.23808e+09 1.2144e+09 1.19055e+09 1.18893e+09 2.95635e+09 1.77055e+09 1.15862e+09
threshold=7344.0275000000011 3.5000000000000004 8251.7547916666681 6811.0260416666688 6655.5345833333349 1.0000000180025095e-35 4.5000000000000009 4.5000000000000009 1.0000000180025095e-35 2.5000000000000004 3.5000000000000004 6240.9650000000011 1.5000000000000002 2.5000000000000004 324.50000000000006 10.500000000000002 2.5000000000000004 3.5000000000000004 5.5000000000000009 15.500000000000002 16.500000000000004 7.5000000000000009 -0.54999999999999993 7.0500000000000007 10.500000000000002 7664.8683333333329 5.5000000000000009 20.500000000000004 1.0000000180025095e-35 15.500000000000002 -4.2499999999999991 5.5000000000000009 3.5000000000000004 6151.916666666667 5922.815833333334 6070.267083333335 11.500000000000002 7745.1168750000006 13.500000000000002 4.5000000000000009 5.5000000000000009 20.500000000000004 4.5000000000000009 10.500000000000002 4.5000000000000009 20.500000000000004 9.5000000000000018 14.500000000000002 2.5000000000000004 1.0000000180025095e-35 -3.3499999999999992 9.5000000000000018 98.500000000000014 427.53891427955779 8.5000000000000018 12.500000000000002 8.5000000000000018 -4.0499999999999989 21.500000000000004 4.5000000000000009 3.5000000000000004 8962.9737500000028
decision_type=2 2 2 2 2 2 2 2 2 2 2 2 2 2 2 2 2 2 2 2 2 2 2 2 2 2 2 2 2 2 2 2 2 2 2 2 2 2 2 2 2 2 2 2 2 2 2 2 2 2 2 2 2 2 2 2 2 2 2 2 2 2
left_child=1 3 5 11 10 12 16 8 26 17 18 23 30 -5 33 32 36 -6 -3 28 21 39 -13 51 29 -14 61 -28 34 31 44 -19 -15 -12 -20 -16 -7 49 -10 -11 53 42 -42 58 -2 -46 -34 -23 -25 -18 -36 -1 -35 -27 -9 -51 -8 -38 59 -24 -61 -4
right_child=2 4 7 13 9 6 56 54 38 20 14 22 25 15 35 -17 37 24 19 -21 -22 47 43 48 -26 40 27 -29 -30 -31 -32 -33 46 52 50 -37 57 -39 -40 -41 41 -43 -44 -45 45 -47 -48 -49 -50 55 -52 -53 -54 -55 -56 -57 -58 -59 -60 60 -62 -63
leaf_value=-43.561254971834721 18.769158691994015 -39.056059807819665 24.169616065270709 11.576935064066573 30.923186627734168 57.712623146595263 -5.1149430206301076 16.462817699424612 68.493503987446715 -3.3584720419513645 -44.48902985707327 -16.789024168455963 -1.7090112726023539 -8.890610304719786 -26.800204615330045 1.3297828487658636 41.264459131283211 -23.336699754190345 -13.009376308130388 -17.920472970090788 -18.357627379153744 6.7955381659003216 -38.418475982649483 -48.063815714470771 32.133646487989537 20.797815995374151 53.925245853524807 27.149950536040759 -53.16908504019375 -6.4422099991940982 13.629532286485428 12.861276483931597 -26.128326716888111 -32.988907405329385 43.720526440197631 -8.4152252127363703 53.804062506470942 37.873751333183115 51.875016279689966 -26.087598324843857 31.318106229722474 3.9661462747099265 10.944828420902136 -6.3817538152993967 47.864593984784811 17.450735222698967 -14.145367538787164 -4.9208121812770669 -62.737653978249469 28.001087575173045 1.2937926333960768 -26.385020553113602 -16.822440879089154 0.39879481690535451 30.158824022314526 14.126562585415023 12.388204740001296 33.089745481469464 -42.679319811126916 -17.153538615647538 -34.603323294837899 49.261368181071823
leaf_weight=49105 16862 10486 38232 21689 31462 26569 12033 29434 48143 20219 26714 36765 93276 35120 20923 36717 10176 4690 31097 53177 32470 119029 99602 30073 13936 9059 41573 25065 2307 27212 39465 78019 105171 30430 1846 59667 9786 45340 27297 17126 25954 28395 16250 5016 18928 10114 33528 33915 34561 35945 126685 13948 20357 49392 39394 29092 56165 23823 41052 35173 24777 5230
leaf_count=49105 16862 10486 38232 21689 31462 26569 12033 29434 48143 20219 26714 36765 93276 35120 20923 36717 10176 4690 31097 53177 32470 119029 99602 30073 13936 9059 41573 25065 2307 27212 39465 78019 105171 30430 1846 59667 9786 45340 27297 17126 25954 28395 16250 5016 18928 10114 33528 33915 34561 35945 126685 13948 20357 49392 39394 29092 56165 23823 41052 35173 24777 5230
internal_value=7.15292e-09 -15.1137 25.4208 -28.2982 -4.68926 18.1915 28.2691 41.2402 47.5237 4.4187 -13.664 -37.3154 10.0387 -13.9284 -22.7568 -16.5559 35.427 13.7742 -7.29218 -5.74379 -2.10441 0.668959 -31.7206 -47.9359 9.41799 5.18157 37.2755 43.8541 -1.74515 6.53805 22.688 10.8087 -20.3341 -32.7065 -1.00196 -13.1884 47.3294 29.4856 62.4803 -13.7818 10.162 15.6277 23.4737 -34.3904 30.4758 37.2728 -23.2317 4.19746 -55.9102 24.429 1.90314 -39.7617 -26.5089 3.56033 24.3018 21.7948 9.29991 39.1212 -35.0907 -33.1382 -24.3654 27.189
internal_weight=2.17506e+06 1.36406e+06 810992 602297 761767 556624 248929 254368 185540 378078 383689 370072 307695 232225 158091 210536 180731 155319 225598 215112 222759 190289 242385 127687 123857 222326 110100 66638 161935 109921 85369 82709 173819 77501 159628 80590 60178 120553 75440 37345 129050 70599 42204 205620 45904 29042 138699 152944 64634 75213 128531 63053 50787 58451 68828 65037 68198 33609 200604 159552 59950 43462
internal_count=2175056 1364064 810992 602297 761767 556624 248929 254368 185540 378078 383689 370072 307695 232225 158091 210536 180731 155319 225598 215112 222759 190289 242385 127687 123857 222326 110100 66638 161935 109921 85369 82709 173819 77501 159628 80590 60178 120553 75440 37345 129050 70599 42204 205620 45904 29042 138699 152944 64634 75213 128531 63053 50787 58451 68828 65037 68198 33609 200604 159552 59950 43462
is_linear=0
shrinkage=0.05


Tree=10
num_leaves=63
num_cat=0
split_feature=14 6 14 14 0 1 0 1 14 5 6 6 1 14 0 14 1 1 1 1 14 2 5 15 2 2 14 0 0 0 0 0 0 0 0 2 2 0 0 15 14 14 0 0 0 1 0 1 5 0 0 0 5 6 0 0 0 1 4 0 0 0
split_gain=3.02077e+11 6.81273e+10 4.81199e+10 2.18978e+10 1.69167e+10 1.59541e+10 1.65798e+10 1.38892e+10 1.30749e+10 7.49398e+09 7.31881e+09 6.98777e+09 5.86757e+09 5.62182e+09 5.14633e+09 4.9519e+09 4.95081e+09 4.6136e+09 4.02895e+09 3.73004e+09 3.59611e+09 3.09694e+09 3.0939e+09 2.89317e+09 2.84417e+09 2.63991e+09 2.54452e+09 2.52609e+09 2.49781e+09 4.34558e+09 2.18768e+09 2.28762e+09 2.1836e+09 2.04841e+09 4.92475e+09 2.00058e+09 1.89734e+09 1.78738e+09 2.01733e+09 1.9041e+09 1.78631e+09 1.76116e+09 1.74483e+09 1.74022e+09 1.69741e+09 2.7332e+09 2.04627e+09 1.62936e+09 1.5615e+09 1.54531e+09 1.85972e+09 1.53454e+09 1.50988e+09 1.45463e+09 1.4162e+09 1.36931e+09 1.54729e+09 1.34623e+09 1.34517e+09 1.29889e+09 1.25212e+09 1.45834e+09
threshold=7173.7300000000005 74.500000000000014 7804.2181250000012 6527.9975000000004 6.5000000000000009 4.5000000000000009 19.500000000000004 1.5000000000000002 6400.2031250000009 1.4500000000000002 1.0000000180025095e-35 1.5000000000000002 4.5000000000000009 5846.8745833333342 14.500000000000002 8544.4060416666671 1.5000000000000002 2.5000000000000004 1.5000000000000002 4.5000000000000009 8544.4060416666671 9.5000000000000018 -3.5499999999999994 455.01434647672744 2.5000000000000004 10.500000000000002 5942.5870833333347 7.5000000000000009 5.5000000000000009 19.500000000000004 8.5000000000000018 16.500000000000004 21.500000000000004 5.5000000000000009 19.500000000000004 10.500000000000002 9.5000000000000018 5.5000000000000009 18.500000000000004 714.37081295716723 8544.4060416666671 8544.4060416666671 14.500000000000002 13.500000000000002 5.5000000000000009 4.5000000000000009 18.500000000000004 2.5000000000000004 2.8500000000000001 4.5000000000000009 20.500000000000004 5.5000000000000009 -1.2499999999999998 1.0000000180025095e-35 12.500000000000002 7.5000000000000009 15.500000000000002 1.5000000000000002 1.0000000180025095e-35 8.5000000000000018 5.5000000000000009 19.500000000000004
decision_type=2 2 2 2 2 2 2 2 2 2 2 2 2 2 2 2 2 2 2 2 2 2 2 2 2 2 2 2 2 2 2 2 2 2 2 2 2 2 2 2 2 2 2 2 2 2 2 2 2 2 2 2 2 2 2 2 2 2 2 2 2 2
left_child=1 3 7 13 20 6 15 11 17 18 24 33 14 36 27 22 35 42 28 43 23 32 57 -4 -9 -26 -19 -10 -5 -30 -14 -32 44 -2 -35 53 47 39 -39 -18 -8 -7 59 -12 -11 46 -46 51 -13 -20 -51 -1 -29 -15 -24 -28 -57 -6 -54 -3 -23 -62
right_child=2 8 4 9 5 41 40 10 12 21 19 48 30 16 -16 -17 37 26 49 -21 -22 60 54 -25 25 -27 55 52 29 -31 31 -33 -34 34 -36 -37 -38 38 -40 -41 -42 -43 -44 -45 45 -47 -48 -49 -50 50 -52 -53 58 -55 -56 56 -58 -59 -60 -61 61 -63
leaf_value=-60.260811277144143 3.9238371230562175 -13.119947622964213 27.459121519779661 -11.442840830628775 65.090888680632986 15.786351479712764 16.103728693270423 8.9396792529190989 -3.388731809751365 -29.975780755575155 23.368826312539795 40.701319906408628 -23.109288641028058 -30.732705635162741 -5.5972702852223319 63.619118569894908 -38.918940011758735 -34.665279626658624 -25.211294008205357 2.4971026657005986 29.467289169862212 -24.809205881115538 47.659451229250706 7.351860141427645 -12.199057966238101 2.1789211387153058 -35.001214800145291 33.385030222145424 27.950011983179561 -10.271004102856272 -1.5706773085199874 -27.214094449340607 -39.802865204206832 39.113706722798213 4.4318632667998905 7.6824722208975693 -29.218492459882864 -20.356153253134835 -39.345395083839179 -55.760196861108625 34.194985852702153 31.27321623640275 -17.22923491673658 9.2152096216426411 2.7120180331128712 -36.332689641686493 -19.744510592059878 -68.499496329642341 21.997631235779945 -5.126464516710608 -23.639922213549177 -35.133088948904174 11.873157390885904 -14.922778586336912 34.090475250254961 -10.116949228765224 -28.745763909836906 48.842315840006982 -32.186286577432668 1.880766192134868 2.8400545126639543 -21.711263258718393
leaf_weight=13279 33704 19923 23674 26590 22389 64689 41187 38747 29603 90497 60077 44598 19995 55169 71951 61439 40083 26850 36719 62534 44254 13555 34479 73222 79889 53175 8989 8204 15522 14277 72101 9890 31725 19122 22026 4522 7062 18216 60234 28873 20404 25631 26617 34013 13798 18140 38308 18257 14883 36042 21751 11201 154605 19760 43478 51027 14262 29602 1752 52347 16642 9502
leaf_count=13279 33704 19923 23674 26590 22389 64689 41187 38747 29603 90497 60077 44598 19995 55169 71951 61439 40083 26850 36719 62534 44254 13555 34479 73222 79889 53175 8989 8204 15522 14277 72101 9890 31725 19122 22026 4522 7062 18216 60234 28873 20404 25631 26617 34013 13798 18140 38308 18257 14883 36042 21751 11201 154605 19760 43478 51027 14262 29602 1752 52347 16642 9502
internal_value=-2.62743e-08 -16.3662 21.2148 -27.2956 32.2294 38.2205 44.661 9.6843 -3.6744 -19.5542 4.1445 23.2287 1.91697 -38.0147 5.82494 51.9224 -34.6752 -13.9646 -10.8797 11.9619 17.658 -25.1923 46.3923 12.2645 -2.98189 -6.45333 -21.4738 10.0576 -0.302615 9.63794 -8.28021 -4.66386 -27.815 13.0631 20.549 -24.6142 -53.2273 -40.098 -34.9361 -45.9706 22.097 20.1812 -6.28522 18.2524 -25.449 -19.6172 -13.7979 -57.1946 36.0214 -17.1903 -12.0942 -48.7634 12.4765 -26.5634 40.0918 -16.7053 -14.1863 55.8395 11.3795 -2.25455 -12.477 -6.08309
internal_weight=2.17506e+06 1.22784e+06 947216 659724 484448 343298 252978 462768 568116 383068 328435 134333 368101 276656 266115 191387 226857 200015 150901 156624 141150 232167 129948 96896 171811 133064 101128 194164 56389 29799 101986 81991 192468 74852 41148 79451 49799 147406 78450 68956 61591 90320 98887 94090 160743 70246 52106 42737 59481 94512 57793 24480 164561 74929 77957 74278 65289 51991 156357 72270 39699 26144
internal_count=2175056 1227840 947216 659724 484448 343298 252978 462768 568116 383068 328435 134333 368101 276656 266115 191387 226857 200015 150901 156624 141150 232167 129948 96896 171811 133064 101128 194164 56389 29799 101986 81991 192468 74852 41148 79451 49799 147406 78450 68956 61591 90320 98887 94090 160743 70246 52106 42737 59481 94512 57793 24480 164561 74929 77957 74278 65289 51991 156357 72270 39699 26144
is_linear=0
shrinkage=0.05


Tree=11
num_leaves=63
num_cat=0
split_feature=14 6 14 14 14 0 0 1 3 1 6 14 1 15 0 0 1 6 15 14 5 2 5 14 0 2 0 8 2 5 5 0 0 2 14 2 0 5 0 5 0 2 0 15 0 2 1 5 6 0 0 5 0 1 1 0 0 5 5 2 14 0
split_gain=2.73387e+11 6.11468e+10 2.9192e+10 2.71889e+10 2.14167e+10 1.61493e+10 1.58887e+10 1.43991e+10 1.00353e+10 7.77837e+09 8.29486e+09 7.2723e+09 7.13016e+09 5.73625e+09 5.4756e+09 6.03458e+09 5.38082e+09 5.19446e+09 4.08537e+09 3.79899e+09 3.45622e+09 3.14423e+09 2.99311e+09 2.94082e+09 2.61451e+09 2.51739e+09 2.51536e+09 2.34381e+09 2.3343e+09 2.3333e+09 2.22811e+09 2.14027e+09 3.30809e+09 1.75211e+09 1.62694e+09 1.62022e+09 1.52842e+09 1.51891e+09 1.48087e+09 1.39443e+09 1.36501e+09 1.36314e+09 1.33521e+09 1.27452e+09 1.26515e+09 1.26073e+09 2.08928e+09 1.46376e+09 1.33351e+09 1.25109e+09 1.24959e+09 1.24306e+09 1.18205e+09 1.14717e+09 1.11372e+09 1.10108e+09 1.56207e+09 1.10011e+09 1.08087e+09 1.07182e+09 1.06103e+09 1.03988e+09
threshold=7365.6172916666683 3.5000000000000004 8307.1410416666677 6811.0260416666688 6774.8722916666675 6.5000000000000009 19.500000000000004 4.5000000000000009 1.0000000180025095e-35 4.5000000000000009 1.0000000180025095e-35 6215.6760416666675 2.5000000000000004 415.11901068960026 5.5000000000000009 14.500000000000002 1.0000000180025095e-35 318.50000000000006 427.53891427955779 7760.8606250000003 -3.4499999999999997 3.5000000000000004 7.0500000000000007 6201.5456250000016 15.500000000000002 10.500000000000002 7.5000000000000009 93.500000000000014 10.500000000000002 -4.4499999999999993 -2.9499999999999997 5.5000000000000009 20.500000000000004 9.5000000000000018 5979.9491666666672 2.5000000000000004 11.500000000000002 -3.7499999999999996 15.500000000000002 -3.3499999999999992 7.5000000000000009 2.5000000000000004 8.5000000000000018 497.52565987733664 16.500000000000004 11.500000000000002 2.5000000000000004 0.15000000000000005 351.50000000000006 5.5000000000000009 8.5000000000000018 -0.34999999999999992 21.500000000000004 3.5000000000000004 1.5000000000000002 7.5000000000000009 16.500000000000004 3.3500000000000001 -9.6499999999999968 9.5000000000000018 5809.2379166666678 17.500000000000004
decision_type=2 2 2 2 2 2 2 2 2 2 2 2 2 2 2 2 2 2 2 2 2 2 2 2 2 2 2 2 2 2 2 2 2 2 2 2 2 2 2 2 2 2 2 2 2 2 2 2 2 2 2 2 2 2 2 2 2 2 2 2 2 2
left_child=1 3 5 11 8 18 7 16 14 10 31 22 21 54 -3 23 57 27 -2 -18 -13 -6 59 42 26 38 -14 60 43 -8 -15 -4 -33 35 -17 -32 -12 41 49 -25 -41 -20 -16 -22 -24 47 -47 -21 58 -23 -9 -52 53 -46 -5 -29 -57 -7 -48 -1 -10 -36
right_child=2 4 9 13 12 6 29 50 17 -11 36 20 24 30 15 34 19 -19 37 45 28 25 44 39 -26 -27 -28 55 -30 -31 33 32 -34 -35 61 -37 -38 -39 -40 40 -42 -43 -44 -45 52 46 48 -49 -50 -51 51 -53 -54 -55 -56 56 -58 -59 -60 -61 -62 -63
leaf_value=-39.433494529016315 17.254232440589274 -34.563834275502124 25.773097042821377 9.9208931946478547 29.820874246730639 54.586377248268242 13.918870765959444 -3.6891144340402664 -65.241921064182065 23.242914827798927 66.182355547124374 -6.315750952638207 -10.07231028936455 -6.0562935250239809 -17.748217068149806 -28.380007464930245 24.144146449226039 -12.462606925046934 16.037799542694572 45.748965691861038 -23.847017446961811 -19.452794913989546 -58.592782630415506 39.865493058436371 -11.545382107209072 31.430195333279716 6.8210124342057359 -38.395886811500759 -5.4693893193482808 -1.9981878815169409 4.5560845834415131 49.836603082670635 25.648193502008947 -10.337147816670319 -7.773956529723403 -23.764079525381927 51.009291204038774 -5.8135410784359109 -4.7396258299200671 -5.8424085003849049 6.1665363544422123 -0.29579952437635909 -3.2305358310157426 -33.293433048079969 -24.183540692295043 40.412876117961851 -148.27543797897081 31.741421812575545 -191.15487100352414 13.447891812221076 19.093473952967297 5.7295032874083249 -55.766971240092438 -49.920425629034241 -5.2679366308754183 -7.6463468040518912 -32.282831381134805 24.065235290206598 5.030184998737032 -23.336621348305858 -37.957374742799907 -19.337086910510873
leaf_weight=45618 43484 15900 39204 26967 30725 34810 39994 13041 4065 61417 29203 15886 27689 43128 23739 17233 91943 71804 19632 51823 44544 3054 31299 2709 37499 13135 107907 8524 9014 54263 5314 37745 22598 42266 59060 101803 38450 65020 18134 29921 113133 36565 47584 179985 9592 7028 118 29136 92 53639 39187 31298 12869 7892 21846 15695 10904 3226 4483 13373 28861 28986
leaf_count=45618 43484 15900 39204 26967 30725 34810 39994 13041 4065 61417 29203 15886 27689 43128 23739 17233 91943 71804 19632 51823 44544 3054 31299 2709 37499 13135 107907 8524 9014 54263 5314 37745 22598 42266 59060 101803 38450 65020 18134 29921 113133 36565 47584 179985 9592 7028 118 29136 92 53639 39187 31298 12869 7892 21846 15695 10904 3226 4483 13373 28861 28986
internal_value=-4.93589e-08 -13.4377 23.3842 -25.2428 -4.063 17.2856 22.7062 28.2321 -10.5776 38.4601 44.0498 -33.7574 6.61199 -12.1857 -5.9199 -4.5071 34.8732 -21.8434 4.10638 31.3452 -28.8827 16.0511 -43.8356 0.256935 0.139822 11.2413 3.37136 -31.7419 -30.4178 4.75555 -16.0674 34.8688 40.7782 -18.9577 -14.3306 -22.3591 57.5589 -0.610131 7.69741 4.32774 3.65476 5.41022 -8.06257 -31.4194 -51.5393 38.489 23.1626 40.7078 -2.67045 11.6756 10.5288 13.1594 -44.266 -35.8008 3.12321 -22.7574 -17.7458 51.9977 1.09842 -35.7844 -41.3259 -11.5807
internal_weight=2.17506e+06 1.3813e+06 793760 611396 769900 565143 400442 306185 478118 228617 167200 370072 291782 241324 338265 322365 222659 139853 164701 184623 249429 118687 120643 217086 173095 87962 135596 68049 233543 94257 192511 99547 60343 149383 105279 107117 67653 121217 74827 145763 143054 56197 71323 224529 61652 92680 11721 80959 4693 56693 83526 70485 30353 17484 48813 35123 26599 38036 4601 58991 32926 88046
internal_count=2175056 1381296 793760 611396 769900 565143 400442 306185 478118 228617 167200 370072 291782 241324 338265 322365 222659 139853 164701 184623 249429 118687 120643 217086 173095 87962 135596 68049 233543 94257 192511 99547 60343 149383 105279 107117 67653 121217 74827 145763 143054 56197 71323 224529 61652 92680 11721 80959 4693 56693 83526 70485 30353 17484 48813 35123 26599 38036 4601 58991 32926 88046
is_linear=0
shrinkage=0.05


Tree=12
num_leaves=63
num_cat=0
split_feature=14 6 14 14 1 6 1 14 0 0 5 0 14 0 0 0 14 1 2 1 0 0 1 1 0 6 0 0 0 5 14 1 0 0 3 1 14 15 0 15 0 1 2 15 0 0 14 0 0 15 2 4 5 5 14 1 1 5 6 0 0 15
split_gain=2.4707e+11 5.48365e+10 4.55869e+10 1.53317e+10 1.4607e+10 1.51631e+10 1.26924e+10 9.91859e+09 8.63965e+09 9.06691e+09 6.80148e+09 5.13137e+09 5.12338e+09 4.79698e+09 5.02858e+09 4.26941e+09 3.88819e+09 3.8578e+09 3.76244e+09 3.48621e+09 3.45616e+09 4.98723e+09 3.154e+09 3.0905e+09 2.85366e+09 2.80696e+09 2.78876e+09 2.59828e+09 2.87161e+09 2.50952e+09 2.46973e+09 2.39767e+09 2.26802e+09 2.24148e+09 2.11069e+09 1.93385e+09 1.88691e+09 1.82334e+09 1.75146e+09 1.68665e+09 1.60752e+09 1.68439e+09 1.55599e+09 1.53679e+09 1.45536e+09 1.86148e+09 1.44075e+09 1.43102e+09 2.14977e+09 1.31783e+09 1.31452e+09 1.28849e+09 1.25233e+09 1.24881e+09 1.21686e+09 1.201e+09 1.18342e+09 1.1787e+09 1.16523e+09 1.15777e+09 1.15575e+09 1.1396e+09
threshold=7098.5760416666681 74.500000000000014 7760.8606250000003 6291.0906250000007 4.5000000000000009 1.0000000180025095e-35 2.5000000000000004 6228.8404166666678 5.5000000000000009 20.500000000000004 0.75000000000000011 15.500000000000002 8663.8191666666698 6.5000000000000009 19.500000000000004 8.5000000000000018 8544.4060416666671 2.5000000000000004 8.5000000000000018 2.5000000000000004 4.5000000000000009 20.500000000000004 4.5000000000000009 2.5000000000000004 5.5000000000000009 1.0000000180025095e-35 20.500000000000004 4.5000000000000009 20.500000000000004 -0.84999999999999998 8478.2016666666677 4.5000000000000009 12.500000000000002 13.500000000000002 1.0000000180025095e-35 4.5000000000000009 5873.6497916666667 629.39120063425878 21.500000000000004 455.01434647672744 5.5000000000000009 4.5000000000000009 10.500000000000002 462.49000911992408 6.5000000000000009 18.500000000000004 5760.4568750000008 8.5000000000000018 14.500000000000002 470.1118592258884 2.5000000000000004 1.0000000180025095e-35 -3.5499999999999994 -5.9499999999999993 5809.2379166666678 1.5000000000000002 1.0000000180025095e-35 0.8500000000000002 475.50000000000006 8.5000000000000018 18.500000000000004 933.18250023135431
decision_type=2 2 2 2 2 2 2 2 2 2 2 2 2 2 2 2 2 2 2 2 2 2 2 2 2 2 2 2 2 2 2 2 2 2 2 2 2 2 2 2 2 2 2 2 2 2 2 2 2 2 2 2 2 2 2 2 2 2 2 2 2 2
left_child=1 3 6 17 5 12 8 19 49 29 23 15 20 53 34 22 32 24 38 54 43 44 51 27 46 61 -26 -5 -29 50 39 -27 55 35 -15 58 42 -38 40 -6 -12 60 -19 -4 -22 -46 -1 -21 -49 -2 -10 57 -36 -8 -3 -7 -34 -9 -17 -41 -42 -20
right_child=2 7 4 10 30 16 13 11 9 -11 18 -13 -14 14 -16 33 -18 36 25 47 21 -23 -24 -25 26 31 -28 28 -30 -31 -32 -33 56 -35 52 -37 37 -39 -40 59 41 -43 -44 -45 45 -47 -48 48 -50 -51 -52 -53 -54 -55 -56 -57 -58 -59 -60 -61 -62 -63
leaf_value=-54.146280988333267 6.7872050627974891 -17.084632682632272 24.250340827646752 -14.936757331206421 22.153887426500333 57.827095262873655 2.9204929317462316 21.276348990002671 45.331435102919535 -4.2875746894789106 -30.39107675363223 -11.979469520917258 38.838407773151829 14.847248954157127 -9.7309345286792599 18.7830908231408 58.149762497635805 -60.826830608135424 -19.434402856373307 -38.69821423440829 23.704292943856728 11.367048711607898 -23.385688446484036 -18.950526091952383 -11.158178294624641 10.81696305683684 -36.439249222353787 15.086572593510789 -14.296287720372163 21.579448409631766 24.677835243669744 -27.322888874767685 52.581589981273616 -1.7572167884109213 15.754876811807708 0.4526213940911486 -32.31222378061733 -49.132488240118548 -38.307970285358813 -0.66747632961636194 -1.8976416092657844 -32.899035943092329 -3.556731889424853 5.9208383126476605 49.957070262918059 29.764488852624638 -34.213219253806407 -12.883448625829729 -33.637521012487042 -8.7784351380974055 29.712540301375881 -67.125262165329431 -0.16190635389499558 -12.842199391333645 -3.1318760284991285 42.525977038686349 30.000854533494437 -2.8369937104840455 8.665244432169807 12.080278757563264 -19.905613114858948 -44.916059442139925
leaf_weight=12538 28030 23547 15779 28446 23298 18705 15513 5624 21034 26838 105395 74372 52263 76100 47138 42253 44954 22187 72823 12938 21969 36558 22476 64975 25634 14460 18989 24574 12568 76708 44542 5763 6678 71143 15515 50749 30470 34191 37332 30805 11245 20823 1253 41542 21749 24017 32729 35367 19279 26409 37467 734 60734 66130 46456 40792 44251 51254 87148 42226 42908 4669
leaf_count=12538 28030 23547 15779 28446 23298 18705 15513 5624 21034 26838 105395 74372 52263 76100 47138 42253 44954 22187 72823 12938 21969 36558 22476 64975 25634 14460 18989 24574 12568 76708 44542 5763 6678 71143 15515 50749 30470 34191 37332 30805 11245 20823 1253 41542 21749 24017 32729 35367 19279 26409 37467 734 60734 66130 46456 40792 44251 51254 87148 42226 42908 4669
internal_value=-6.40767e-09 -15.6577 18.1369 -25.7703 28.6401 33.866 7.36961 -4.04429 16.4694 22.2589 -20.819 -0.110451 25.23 0.362229 4.54056 2.55332 45.7533 -38.1766 -24.7916 -15.6454 20.8292 26.25 -7.4997 -11.2217 -30.8891 -16.6406 -21.9164 -3.56512 5.14409 27.5282 14.9419 -0.051848 40.7067 5.75725 8.95627 8.72479 -45.612 -41.2063 -28.4502 10.4401 -26.4099 -20.8134 -57.7654 10.9665 34.2826 39.3604 -39.7343 -23.7456 -20.2054 -0.76387 35.3283 -1.30214 3.07681 -9.84713 -7.82518 47.3364 32.9617 -0.452707 11.969 6.70318 -16.1662 -20.9697
internal_weight=2.17506e+06 1.16731e+06 1.00774e+06 623972 510128 369257 497616 543340 216486 162047 445981 405753 213877 281130 199487 331381 155380 177991 315418 137587 161614 104293 80088 130563 89890 97715 44623 65588 37142 135209 140871 20223 110426 251293 152349 180150 88101 64661 217703 96329 180371 74976 23440 57321 67735 45766 45267 67584 54646 54439 58501 57612 76249 81643 70003 59497 50929 56878 129401 73031 54153 77492
internal_count=2175056 1167312 1007744 623972 510128 369257 497616 543340 216486 162047 445981 405753 213877 281130 199487 331381 155380 177991 315418 137587 161614 104293 80088 130563 89890 97715 44623 65588 37142 135209 140871 20223 110426 251293 152349 180150 88101 64661 217703 96329 180371 74976 23440 57321 67735 45766 45267 67584 54646 54439 58501 57612 76249 81643 70003 59497 50929 56878 129401 73031 54153 77492
is_linear=0
shrinkage=0.05


Tree=13
num_leaves=63
num_cat=0
split_feature=14 6 14 14 14 1 3 1 6 6 1 14 0 15 0 0 0 6 1 2 5 15 5 2 14 2 2 0 14 8 2 2 0 2 0 0 0 14 0 0 5 14 0 0 1 0 5 0 1 0 0 7 5 6 0 0 0 1 0 15 5 4
split_gain=2.23672e+11 5.00268e+10 2.35871e+10 2.30025e+10 1.85759e+10 1.26782e+10 8.55827e+09 7.3828e+09 7.5491e+09 7.02327e+09 6.25255e+09 5.87969e+09 5.55293e+09 5.26337e+09 4.56376e+09 5.14051e+09 4.43124e+09 4.29521e+09 3.37192e+09 3.44169e+09 2.92163e+09 2.73452e+09 2.6706e+09 2.65315e+09 2.49765e+09 2.30426e+09 2.24894e+09 2.23508e+09 2.10828e+09 2.09161e+09 2.0663e+09 2.32838e+09 2.0136e+09 1.99422e+09 1.77527e+09 1.73655e+09 2.9445e+09 1.55816e+09 1.55719e+09 1.50515e+09 1.44571e+09 1.43635e+09 1.40904e+09 3.18306e+09 1.40691e+09 1.4831e+09 1.28977e+09 1.22948e+09 1.20658e+09 1.15546e+09 2.163e+09 1.14732e+09 1.14506e+09 1.13508e+09 1.08765e+09 1.07979e+09 1.62305e+09 1.38248e+09 1.42298e+09 1.04963e+09 1.026e+09 1.01997e+09
threshold=7385.8514583333354 3.5000000000000004 6811.0260416666688 8251.7547916666681 6786.9314583333344 2.5000000000000004 1.0000000180025095e-35 4.5000000000000009 1.0000000180025095e-35 3.5000000000000004 2.5000000000000004 6228.8404166666678 6.5000000000000009 415.11901068960026 5.5000000000000009 14.500000000000002 19.500000000000004 318.50000000000006 4.5000000000000009 11.500000000000002 -3.4499999999999997 566.49169426931269 -4.7499999999999991 3.5000000000000004 5979.9491666666672 2.5000000000000004 10.500000000000002 15.500000000000002 8914.7666666666682 93.500000000000014 10.500000000000002 2.5000000000000004 8.5000000000000018 10.500000000000002 4.5000000000000009 5.5000000000000009 20.500000000000004 5726.3429166666674 13.500000000000002 6.5000000000000009 2.5500000000000003 5979.9491666666672 5.5000000000000009 19.500000000000004 4.5000000000000009 20.500000000000004 -1.3499999999999999 15.500000000000002 4.5000000000000009 5.5000000000000009 20.500000000000004 3.8500000000000001 -2.3499999999999992 336.50000000000006 9.5000000000000018 21.500000000000004 4.5000000000000009 4.5000000000000009 19.500000000000004 497.52565987733664 8.9500000000000011 1.0000000180025095e-35
decision_type=2 2 2 2 2 2 2 2 2 2 2 2 2 2 2 2 2 2 2 2 2 2 2 2 2 2 2 2 2 2 2 2 2 2 2 2 2 2 2 2 2 2 2 2 2 2 2 2 2 2 2 2 2 2 2 2 2 2 2 2 2 2
left_child=1 2 11 5 6 9 14 8 28 22 23 21 -7 -4 -3 24 18 29 19 40 -13 37 49 -6 -16 46 47 32 35 -8 31 -15 48 59 -23 -5 -37 -1 -10 -26 -14 -17 -24 -44 45 -36 -11 -25 -12 -2 -51 53 -41 -21 -9 56 -33 58 -58 -22 -31 -54
right_child=3 4 13 7 10 12 17 54 38 25 27 20 16 30 15 41 -18 -19 -20 51 33 34 42 26 39 -27 -28 -29 -30 60 -32 55 -34 -35 44 36 -38 -39 -40 52 -42 -43 43 -45 -46 -47 -48 -49 -50 50 -52 -53 61 -55 -56 -57 57 -59 -60 -61 -62 -63
leaf_value=-48.669840609621957 17.192316363561748 -31.06018817867421 3.4865574314070225 19.162951021431372 27.626894555591605 -1.5885762257300347 -37.688225067672832 13.21131497910914 56.630483264583852 52.680906601369898 2.427819698633376 -5.2342991304488864 31.786714011493565 6.5206836198372606 -11.317164363558845 -26.133907642119897 0.099624647018501863 -11.328515322512835 9.6046355700722383 -17.99988197754983 -21.498581196241922 -52.505985992744755 1.2935359625865708 10.921921116675325 -10.791461581676858 28.870219217813993 29.198601340230368 -10.437623661499714 46.213881661092451 -13.787845939201652 -1.7887878737829415 -20.733550447167445 7.4262263130600887 -4.4279748764404934 -17.234506651230941 42.223102069312603 18.426593361237313 -24.859472800535514 41.681280600076093 33.77446771843676 16.251722971412342 -10.381667003834615 30.400361417374985 2.8623041392362256 -50.972007455770353 -40.902499353039161 33.186566373977477 -4.3319685794979303 -14.815871052690751 41.432325371705716 14.581945603230487 9.7454053576390081 4.1135204785313864 -128.01399074113701 25.802315909383157 -26.447672881533983 6.3211741205435139 -22.107241660919982 -12.816129869076059 -30.149183046591148 -31.36511138876747 -37.459799403932934
leaf_weight=8510 26913 16274 51917 36625 32134 89568 33509 32465 48143 21693 21038 15737 55800 10358 37654 17233 49137 72961 76687 3558 43696 39383 26595 54767 18300 57436 13911 37099 18244 22455 27945 75210 94361 8998 11290 34297 20934 35675 27297 3235 20470 90313 20063 22000 13243 15998 13935 17409 19592 19802 12074 6082 161011 251 36363 30253 17229 15455 22268 177542 13172 1489
leaf_count=8510 26913 16274 51917 36625 32134 89568 33509 32465 48143 21693 21038 15737 55800 10358 37654 17233 49137 72961 76687 3558 43696 39383 26595 54767 18300 57436 13911 37099 18244 22455 27945 75210 94361 8998 11290 34297 20934 35675 27297 3235 20470 90313 20063 22000 13243 15998 13935 17409 19592 19802 12074 6082 161011 251 36363 30253 17229 15455 22268 177542 13172 1489
internal_value=1.41199e-08 -11.9465 -22.5328 21.5199 -3.49963 15.5126 -9.4614 33.8491 39.0373 24.6244 6.51375 -30.5541 8.84962 -10.6892 -5.21333 -3.93573 13.26 -19.7906 17.2309 24.0186 -26.0775 -39.4269 16.9992 15.3669 0.415828 35.0667 10.7906 0.431894 30.6888 -28.7208 -14.3927 -16.4552 3.41912 -27.5022 -44.9458 27.6053 33.2036 -29.4453 51.2213 2.81643 27.6173 -12.9058 10.3017 15.9973 -37.5998 -31.1102 45.0562 7.24265 -5.88718 24.821 31.2619 -3.73102 4.31897 -25.2494 19.8634 -17.9387 -15.961 -9.42913 -4.46824 -28.4406 -20.2865 3.73258
internal_weight=2.17506e+06 1.39862e+06 620707 776432 777917 522064 487606 254368 185540 220511 290311 370072 301553 250635 345509 329235 211985 142097 162848 86161 245973 124099 127447 118221 221689 93064 86087 172090 110100 69136 198718 170773 134991 230236 79914 91856 55231 44185 75440 184035 76270 107546 68658 42063 40531 27288 35628 72176 40630 58789 31876 9891 165735 3809 68828 160415 130162 54952 39497 221238 35627 162500
internal_count=2175056 1398624 620707 776432 777917 522064 487606 254368 185540 220511 290311 370072 301553 250635 345509 329235 211985 142097 162848 86161 245973 124099 127447 118221 221689 93064 86087 172090 110100 69136 198718 170773 134991 230236 79914 91856 55231 44185 75440 184035 76270 107546 68658 42063 40531 27288 35628 72176 40630 58789 31876 9891 165735 3809 68828 160415 130162 54952 39497 221238 35627 162500
is_linear=0
shrinkage=0.05


Tree=14
num_leaves=63
num_cat=0
split_feature=14 6 14 14 0 1 0 1 14 0 0 0 0 5 0 5 0 5 2 1 1 1 14 6 1 1 0 0 14 0 1 14 5 1 0 0 14 6 14 2 2 1 1 5 1 5 0 0 0 5 4 14 15 0 15 15 5 2 2 0 1 5
split_gain=2.0196e+11 4.46902e+10 3.84155e+10 1.24171e+10 1.20551e+10 1.12087e+10 1.17692e+10 1.10192e+10 8.23064e+09 5.84704e+09 5.73303e+09 5.39293e+09 5.92751e+09 4.94984e+09 4.24892e+09 4.09823e+09 3.73874e+09 3.59523e+09 3.43473e+09 3.40813e+09 3.00112e+09 2.59378e+09 2.51329e+09 2.32847e+09 2.24372e+09 2.17765e+09 2.15032e+09 2.35432e+09 1.96351e+09 1.94534e+09 1.78151e+09 1.59223e+09 1.58909e+09 1.57614e+09 1.52293e+09 2.2985e+09 1.48633e+09 1.42284e+09 1.39307e+09 1.37074e+09 1.48912e+09 1.35768e+09 1.31775e+09 1.31742e+09 1.2989e+09 1.27087e+09 1.21382e+09 1.7582e+09 1.14245e+09 1.11184e+09 1.09337e+09 1.0822e+09 1.07906e+09 1.07548e+09 1.0685e+09 1.0547e+09 1.04257e+09 1.03351e+09 1.11712e+09 1.00998e+09 1.00827e+09 1.00294e+09
threshold=7088.1866666666674 74.500000000000014 7760.8606250000003 6377.0706250000012 6.5000000000000009 4.5000000000000009 19.500000000000004 1.5000000000000002 6201.5456250000016 5.5000000000000009 19.500000000000004 5.5000000000000009 19.500000000000004 -0.34999999999999992 15.500000000000002 -2.4499999999999997 8.5000000000000018 6.9500000000000011 8.5000000000000018 4.5000000000000009 2.5000000000000004 4.5000000000000009 8429.716666666669 1.0000000180025095e-35 2.5000000000000004 4.5000000000000009 5.5000000000000009 19.500000000000004 5979.9491666666672 13.500000000000002 2.5000000000000004 8583.6602083333346 2.8500000000000001 3.5000000000000004 5.5000000000000009 19.500000000000004 8716.6789583333357 1.5000000000000002 8686.3658333333351 2.5000000000000004 11.500000000000002 1.5000000000000002 4.5000000000000009 -5.3499999999999988 2.5000000000000004 2.4500000000000006 8.5000000000000018 15.500000000000002 8.5000000000000018 -3.5499999999999994 1.0000000180025095e-35 7442.5733333333346 557.18046268229887 13.500000000000002 589.3169190488685 385.66974723085548 7.3500000000000005 6.5000000000000009 8.5000000000000018 14.500000000000002 2.5000000000000004 0.8500000000000002
decision_type=2 2 2 2 2 2 2 2 2 2 2 2 2 2 2 2 2 2 2 2 2 2 2 2 2 2 2 2 2 2 2 2 2 2 2 2 2 2 2 2 2 2 2 2 2 2 2 2 2 2 2 2 2 2 2 2 2 2 2 2 2 2
left_child=1 3 7 17 22 6 15 11 20 39 19 -2 32 30 16 36 21 26 37 51 57 50 24 54 -4 -25 -1 42 44 33 34 53 -13 56 -5 -36 41 -15 52 -9 -41 -6 -28 -8 -19 -12 -22 -48 -21 -50 61 -11 -7 -17 -20 -53 -18 -3 -59 -51 -30 -10
right_child=2 8 4 13 5 38 43 9 14 10 45 12 -14 18 -16 31 29 28 23 48 46 -23 -24 25 -26 -27 27 -29 60 -31 -32 -33 -34 -35 35 -37 -38 -39 -40 40 -42 -43 -44 -45 -46 -47 47 -49 49 59 -52 55 -54 -55 -56 -57 -58 58 -60 -61 -62 -63
leaf_value=-33.694042502253481 1.5435290419730874 3.8800429912988217 18.674241724863791 -10.040589016363164 53.727984703481106 20.176681747435836 25.21864555319867 4.9633766934835108 19.411615136045462 9.9759889103274872 -4.9715410637341222 33.338665481958365 1.7349518675594784 -27.325637124300943 -11.008384685545973 36.480970047103469 18.911411311388626 -39.252406049917575 -11.510225110438087 -9.8008931859691266 -36.83000732912766 -21.502150616387144 22.544755765761121 11.699698259095067 2.8722549213372939 -24.800908272884612 1.3904671369216213 -28.422125294928755 -25.670715452938062 -1.8466931355653888 -15.341763479683204 46.756422733934187 17.214412609892118 2.4755656491869011 24.159708229005016 -7.3854160397556115 59.056002089481012 -18.128165224097771 28.45088910711225 -14.591591304570336 7.3078975043541838 40.375749786881286 -25.0362597314966 10.904038646170982 -55.678047277318257 -24.673380973634394 -13.931627128542107 -35.595437801727066 18.026131267669165 7.3943866067455772 -62.938251018258519 2.8112768232487939 8.206382619172027 24.265486277400178 -23.127406866760264 21.848644293242636 8.3286737718806219 -16.354238169175172 -0.90406698301466326 -6.53208548535323 -38.901544939115162 -3.0020817052394855
leaf_weight=53361 37368 15709 36841 24705 30628 32594 30206 14106 5520 63625 50167 66688 24388 156496 75359 40254 35056 25165 38505 17615 12045 22819 54236 14623 57563 5671 15001 30437 24187 71841 44082 20600 19822 77610 11143 11986 26578 57499 18769 66237 8793 50313 6881 34354 23069 9781 38640 12362 12396 30222 718 8420 44572 32620 40730 53517 69239 32514 18276 22871 35583 52080
leaf_count=53361 37368 15709 36841 24705 30628 32594 30206 14106 5520 63625 50167 66688 24388 156496 75359 40254 35056 25165 38505 17615 12045 22819 54236 14623 57563 5671 15001 30437 24187 71841 44082 20600 19822 77610 11143 11986 26578 57499 18769 66237 8793 50313 6881 34354 23069 9781 38640 12362 12396 30222 718 8420 44572 32620 40730 53517 69239 32514 18276 22871 35583 52080
internal_value=6.80155e-09 -14.2666 16.271 -23.4346 25.9536 30.8823 36.1742 6.50985 -3.75113 1.75985 5.44207 17.9711 23.5065 -18.294 -0.28163 42.1399 2.13222 -33.1883 -21.2853 9.35732 -14.7382 -7.21056 13.967 -13.6115 9.03895 1.49989 -26.6318 -19.4289 -39.6037 5.11964 -8.09063 34.4826 29.6441 7.8709 -1.40826 7.81227 48.7969 -24.8543 16.234 -9.33665 -12.0251 45.4282 -6.91966 17.6015 -47.1083 -8.18606 -22.5541 -19.1826 1.50278 4.5432 -1.61847 14.5559 13.2625 31.0131 -17.4819 19.2606 11.8858 -7.32812 -10.7947 1.39525 -33.5475 -0.854102
internal_weight=2.17506e+06 1.15891e+06 1.01614e+06 619124 510128 361488 265553 506016 539788 357750 268614 148266 110898 405440 410242 200993 334883 213684 313524 208666 129546 81137 148640 99529 94404 20294 105680 52319 108004 253746 91916 93474 86510 181905 47834 23129 107519 213995 95935 89136 75030 80941 21882 64560 48234 59948 63047 51002 83104 65489 58318 125562 77166 72874 79235 61937 104295 66499 50790 53093 59770 57600
internal_count=2175056 1158912 1016144 619124 510128 361488 265553 506016 539788 357750 268614 148266 110898 405440 410242 200993 334883 213684 313524 208666 129546 81137 148640 99529 94404 20294 105680 52319 108004 253746 91916 93474 86510 181905 47834 23129 107519 213995 95935 89136 75030 80941 21882 64560 48234 59948 63047 51002 83104 65489 58318 125562 77166 72874 79235 61937 104295 66499 50790 53093 59770 57600
is_linear=0
shrinkage=0.05


Tree=15
num_leaves=63
num_cat=0
split_feature=14 6 14 14 14 1 0 1 0 1 1 0 14 0 2 2 6 14 15 2 1 6 0 5 0 0 0 0 15 14 0 2 2 5 2 5 8 4 5 12 5 0 0 14 0 1 0 0 2 2 5 4 14 2 5 5 5 0 0 14 1 0
split_gain=1.8273e+11 4.10911e+10 2.0687e+10 1.78163e+10 1.49309e+10 8.62707e+09 8.04995e+09 7.19073e+09 7.66151e+09 5.57552e+09 5.56343e+09 4.56182e+09 4.52e+09 4.48359e+09 4.43261e+09 4.15011e+09 3.88878e+09 3.82942e+09 3.40833e+09 3.08151e+09 3.02991e+09 2.78758e+09 2.4251e+09 2.35034e+09 2.3137e+09 2.18449e+09 2.17115e+09 2.60979e+09 2.0482e+09 1.9089e+09 1.89243e+09 1.79893e+09 1.66215e+09 1.64414e+09 1.6127e+09 1.59746e+09 1.56336e+09 1.50367e+09 1.49498e+09 1.37195e+09 1.33897e+09 1.18059e+09 1.43142e+09 1.15649e+09 1.14594e+09 1.10305e+09 1.09206e+09 1.09827e+09 1.03922e+09 1.03841e+09 1.01396e+09 1.11567e+09 1.00457e+09 9.83142e+08 9.57781e+08 8.9735e+08 8.79541e+08 8.76529e+08 8.63981e+08 8.59462e+08 8.47508e+08 9.64051e+08
threshold=7355.425208333334 3.5000000000000004 8049.8022916666678 6774.8722916666675 6662.6229166666672 1.5000000000000002 6.5000000000000009 4.5000000000000009 19.500000000000004 2.5000000000000004 3.5000000000000004 6.5000000000000009 5846.8745833333342 19.500000000000004 2.5000000000000004 10.500000000000002 3.5000000000000004 5979.9491666666672 589.3169190488685 3.5000000000000004 4.5000000000000009 432.50000000000006 17.500000000000004 -2.9499999999999997 16.500000000000004 5.5000000000000009 6.5000000000000009 13.500000000000002 587.6166218542993 6278.3777083333343 7.5000000000000009 2.5000000000000004 3.5000000000000004 3.2500000000000004 11.500000000000002 2.5500000000000003 88.500000000000014 1.0000000180025095e-35 -5.9499999999999993 7704.3950000000013 5.1500000000000012 7.5000000000000009 15.500000000000002 8768.1847916666684 14.500000000000002 2.5000000000000004 5.5000000000000009 20.500000000000004 9.5000000000000018 9.5000000000000018 9.0500000000000025 1.0000000180025095e-35 8544.4060416666671 10.500000000000002 -5.9499999999999993 -2.1499999999999999 -6.7499999999999991 8.5000000000000018 12.500000000000002 5846.8745833333342 2.5000000000000004 6.5000000000000009
decision_type=2 2 2 2 2 2 2 2 2 2 2 2 2 2 2 2 2 2 2 2 2 2 2 2 2 2 2 2 2 2 2 2 2 2 2 2 2 2 2 2 2 2 2 2 2 2 2 2 2 2 2 2 2 2 2 2 2 2 2 2 2 2
left_child=1 3 5 12 9 16 28 8 23 26 19 38 48 20 -5 32 31 41 33 -6 34 36 30 -8 25 -21 -3 50 -4 45 -12 -2 46 54 35 -13 -19 40 -7 -18 -27 -11 -43 58 -32 -20 -16 -48 -1 -34 -28 59 -30 -33 -14 -22 -10 -9 -25 -52 61 -17
right_child=2 4 6 14 10 11 7 57 56 17 22 13 18 -15 15 60 39 21 29 24 55 -23 -24 43 -26 37 27 -29 52 -31 44 53 49 -35 -36 -37 -38 -39 -40 -41 -42 42 -44 -45 -46 -47 47 -49 -50 -51 51 -53 -54 -55 -56 -57 -58 -59 -60 -61 -62 -63
leaf_value=-47.303813327319908 24.319619894715267 -19.223369577245851 24.849153029824151 10.118190303624051 22.113086176463899 8.4477611668773331 50.186736842462643 3.5023203020209062 29.864371938222146 -50.644521368392716 -13.361984535885188 26.976998032284214 7.744919352736483 -1.215692745724116 -14.814663039431256 -1.3482176534677495 26.096189783375934 -24.363293927672935 -29.866262978009061 -18.601489703773691 13.78519941982033 -4.7673544611694751 -24.192025024548489 41.010611064434052 -7.130598790077153 17.42402731258812 10.041215113157357 -9.4194887820594246 4.8893834899510908 -27.197263369309429 4.1994582919995329 -1.1634105725005184 -20.34994316570986 -25.309323112316576 4.4399289941670705 12.868794143039251 -11.835107356884038 -32.606708186701503 -5.4311150632436762 42.243699186422276 7.1245181563452284 -19.256481237017748 -42.339236753418021 50.756333154927809 -6.3883146808178717 -44.412455423987247 15.100658988765938 -9.4059757447572583 -24.620414132261203 -10.79218271099294 -11.390438231737853 -64.711911641983761 17.980614461803835 14.673152875492162 -15.789501318899909 2.061621682756074 15.118151857281418 20.787861696544891 28.349891121588215 3.2416600422384381 -5.3834160065661241 20.824683150698785
leaf_weight=34230 32769 20796 41258 22952 37270 26975 71123 8465 15305 6082 27286 66737 4680 53692 18885 10303 29680 49151 22087 6960 27926 66008 12676 24290 27173 48467 35224 69830 34909 125461 89335 15806 121721 67334 13785 28690 50472 2032 69121 23625 90437 21241 9822 12669 35796 31792 8766 9555 5923 37074 12805 672 25256 25792 56695 39282 29802 54891 30264 46407 20192 9352
leaf_count=34230 32769 20796 41258 22952 37270 26975 71123 8465 15305 6082 27286 66737 4680 53692 18885 10303 29680 49151 22087 6960 27926 66008 12676 24290 27173 48467 35224 69830 34909 125461 89335 15806 121721 67334 13785 28690 50472 2032 69121 23625 90437 21241 9822 12669 35796 31792 8766 9555 5923 37074 12805 672 25256 25792 56695 39282 29802 54891 30264 46407 20192 9352
