tree
version=v4
num_class=1
num_tree_per_iteration=1
label_index=0
max_feature_idx=15
objective=regression
feature_names=hour_of_day day_of_week month is_weekend is_swiss_holiday temperature solar_radiation wind_speed cloud_cover hours_ahead demand_mw_lag_1h demand_mw_lag_24h demand_mw_lag_48h demand_mw_lag_168h demand_mw_rolling_24h_mean demand_mw_rolling_24h_std
feature_infos=[0:23] [0:6] [1:12] [0:1] [0:1] [-20.199999999999999:25.399999999999999] [0:991] [0:20.800000000000001] [0:100] [1:48] [2742.6300000000001:10437.059999999999] [2742.6300000000001:10437.059999999999] [2742.6300000000001:10437.059999999999] [2742.6300000000001:10437.059999999999] [3454.0795833333336:9475.2216666666664] [129.04188287584191:2594.5714404820374]
tree_sizes=926 940 942 941 944 940 947 943 943 948 948 940 938 937 934 935 941 944 943 939 942 946 949 939 938 946 934 943 951 942 938 938 941 940 940 942 929 934 928 947 935 945 940 936 936 940 948 940 940 939 940 936 924 934 944 938 935 945 941 939 932 914 934 933 943 938 937 929 941 930 941 941 915 942 929 937 935 935 930 938 945 934 920 931 935 935 929 916 930 940 938 943 933 934 915 944 935 940 937 936 926 932 919 936 936 921 941 941 945 932 937 947 901 943 932 939 943 928 938 935 928 911 943 946 936 940 951 927 956 945 947 945 928 926 925 932 934 924 912 927 932 938 918 924 950 940 923 946 934 927 939 915 946 936 948 926 938 944 939 942 935 927 925 950 932 949 943 941 945 948 942 928 933 942 947 939 911 944 939 941 937 939 938 952 929 945 946 935 918 925 943 916 928 943 945 939 951 941 926 944 940 934 931 946 938 908 945 942 934 942 939 926 940 928 938 937 943 945 939 954 943 941 943 949 940 954 930 935 937 919 925 945 925 955 943 944 925 947 943 959 942 945 951 944 930 953 952 953 937 960 940 942 943 938 901 933 918 938 956 911 933 928 948 935 948 934 952 943 931 936 952 936 948 920 946 938 943 943 936 949 947 944 943 949 941 949 930 920 942 950 936 911 938 934 939 932 950 941 949 940 939 932 954 929 945 931 924 930 943 935 945 943 929 943 945 939 943 942 918 941 923 946 938 940 935 942 940 825 923 932 914 942 945 934 943 935 941 943 940 928 945 930 945 935 943 943 938 944 939 945 918 924 906 937 943 947 921 918 937 933 925 935 933 934 941 922 930 944 928 924 910 940 922 924 946 941 950 943 947 928 938 929 940 942 948 938 948 937 926 932 942 948 946 942 926 937 933 925 935 922 942 948 948 933 939 950 927 912 938 922 956 944 920 945 949 925 940 949 936 941 938 941 925 940 943 949 940 947 923 948 920 928 948 941 923 950 942 928 941 949 947 949 951 956 940 947 943 937 941 944 945 943 919 947 936 929 930 941 942 922 899 924 916 947 939 927 937 949 936 941 939 950 935 942 936 942 949 916 926 934 925 934 948 928 941 940 947 947 949 931 947 944 924 948 941 940 945 933 939 955 940 943 919 944 939 947 943 927 912 916 951 942 946 945 936 941 944 950 920 955 928 941 939 951 935 950 935 941 935 950 937 942 933 944 944 913 936 927 947 940 945 936 954 938 949 938 943 949 937 939 919 939 947 917 915 938 950 909 936 938 950 941 956 935 905 934 946 921 950 943 933 948 933 944 937 942 921 926 938 920 940 947 950 933 948 940 948 941 941 935 934 943 935 940 942 931 952 940 936 942 930 940 948 940 947 945 943 928 921 937 951 946 922 951 946 926 948 931 949 947 932 934 944 939 929 950 934 923 945 950 924 948 942 948 946 939 949 917 935 947 948 941 951 948 926 946 961 947 953 952 940 932 948 942 933 952 937 923 948 934 935 942 940 934 927 926 937 950 960 941 946 953 942 924 925 942 960 930 923 947 953 936 932 922 928 944 929 956 921 913 946 896 940 944 934 939 927 942 944 940 941 938 947 936 960 942 925 947 941 926 953 935 939 921 942 929 920 957 948 946 937 933 938 938 929 947 925 930 928 944 932 942 954 942 933 942 950 927 922 927 945 946 952 941 940 921 945 949 945 931

Tree=0
num_leaves=8
num_cat=0
split_feature=14 6 14 14 6 14 6
split_gain=8.34917e+11 1.87776e+11 1.1819e+11 5.89972e+10 4.19981e+10 3.64303e+10 3.61502e+10
threshold=7206.9435416666684 56.500000000000007 7847.1329166666683 6619.8762500000003 1.0000000180025095e-35 6388.1416666666682 1.0000000180025095e-35
decision_type=2 2 2 2 2 2 2
left_child=1 3 6 -1 -4 -3 -2
right_child=2 5 4 -5 -6 -7 -8
leaf_value=7018.9943919180305 7140.0066763708182 7086.908521018112 7205.9286079937219 7074.210157235827 7262.0480540201579 7134.3705108145086 7191.2375560878663
leaf_weight=312501 247436 203793 267156 335510 191368 401860 215432
leaf_count=312501 247436 203793 267156 335510 191368 401860 215432
internal_value=7130.36 7081.8 7196.45 7047.58 7229.35 7118.4 7163.85
internal_weight=2.17506e+06 1.25366e+06 921392 648011 458524 605653 462868
internal_count=2175056 1253664 921392 648011 458524 605653 462868
is_linear=0
shrinkage=1


Tree=1
num_leaves=8
num_cat=0
split_feature=14 6 14 14 14 1 1
split_gain=6.90095e+11 1.57319e+11 9.58288e+10 4.57943e+10 4.07348e+10 3.89529e+10 3.21672e+10
threshold=7229.3027083333345 4.5000000000000009 8084.706250000002 6377.0706250000012 6335.7954166666668 1.5000000000000002 4.5000000000000009
decision_type=2 2 2 2 2 2 2
left_child=1 3 5 -1 -3 -2 -4
right_child=2 4 6 -5 -6 -7 -8
leaf_value=-119.11070447918654 75.821982876542421 -48.359741484478668 117.65452380823231 -62.348197841213235 -0.67204055070699453 23.234250760011271 53.615384826228386
leaf_weight=171651 165661 213999 240998 386250 498996 407398 90103
leaf_count=171651 165661 213999 240998 386250 498996 407398 90103
internal_value=-3.27031e-08 -43.4432 61.0641 -79.8125 -14.9851 38.4364 100.227
internal_weight=2.17506e+06 1.2709e+06 904160 557901 712995 573059 331101
internal_count=2175056 1270896 904160 557901 712995 573059 331101
is_linear=0
shrinkage=0.0914397


Tree=2
num_leaves=8
num_cat=0
split_feature=14 6 14 5 0 6 1
split_gain=5.72073e+11 1.3388e+11 8.8093e+10 4.27573e+10 3.82282e+10 2.93725e+10 2.71155e+10
threshold=7184.0733333333328 74.500000000000014 7804.2181250000012 3.7500000000000004 6.5000000000000009 1.0000000180025095e-35 4.5000000000000009
decision_type=2 2 2 2 2 2 2
left_child=1 3 5 -1 -4 -2 -3
right_child=2 6 4 -5 -6 -7 -8
leaf_value=-42.431303306394597 3.0568885967244208 4.1918231674965485 40.884013697063466 -89.182280678678538 97.413395768622905 49.651525109724922 -39.898328691984723
leaf_weight=290456 241404 408177 141150 374420 343298 212868 163283
leaf_count=290456 241404 408177 141150 374420 343298 212868 163283
internal_value=-3.25449e-07 -40.8625 53.8177 -68.7588 80.9429 24.8907 -8.40604
internal_weight=2.17506e+06 1.23634e+06 938720 664876 484448 454272 571460
internal_count=2175056 1236336 938720 664876 484448 454272 571460
is_linear=0
shrinkage=0.0914397


Tree=3
num_leaves=8
num_cat=0
split_feature=14 6 14 14 6 14 1
split_gain=4.74457e+11 1.12053e+11 6.56828e+10 4.57737e+10 3.70632e+10 3.63914e+10 1.5669e+10
threshold=7297.8529166666676 5.5000000000000009 8385.7800000000007 6793.1010416666677 1.0000000180025095e-35 6518.8047916666674 4.5000000000000009
decision_type=2 2 2 2 2 2 2
left_child=1 3 4 -1 -2 -3 -4
right_child=2 5 6 -5 -6 -7 -8
leaf_value=-83.804923309093567 19.509198421296663 -34.955064470687944 114.22341684299859 -31.603575061355325 63.677330671900222 6.4554489568130666 56.585916597486474
leaf_weight=363825 355309 297431 148973 228760 287299 439824 53635
leaf_count=363825 355309 297431 148973 228760 287299 439824 53635
internal_value=-2.44559e-07 -34.0473 53.569 -63.6532 39.256 -10.2508 98.9654
internal_weight=2.17506e+06 1.32984e+06 845216 592585 642608 737255 202608
internal_count=2175056 1329840 845216 592585 642608 737255 202608
is_linear=0
shrinkage=0.0914397


Tree=4
num_leaves=8
num_cat=0
split_feature=14 6 14 1 1 14 1
split_gain=3.96806e+11 9.3444e+10 7.48452e+10 3.37577e+10 3.13018e+10 3.06662e+10 2.07947e+10
threshold=7088.1866666666674 74.500000000000014 7804.2181250000012 4.5000000000000009 1.5000000000000002 6240.9650000000011 4.5000000000000009
decision_type=2 2 2 2 2 2 2
left_child=1 5 4 -4 -2 -1 -3
right_child=2 6 3 -5 -6 -7 -8
leaf_value=-95.321983053944138 52.616054710053646 2.601121945388488 82.539894418302964 28.425464769730155 3.7927005376466689 -48.813607543056463 -37.105887020272306
leaf_weight=159771 154954 385290 351669 132779 376742 459353 154498
leaf_count=159771 154954 385290 351669 132779 376742 459353 154498
internal_value=-1.58206e-08 -36.5713 41.7096 67.708 18.0215 -60.8155 -8.76381
internal_weight=2.17506e+06 1.15891e+06 1.01614e+06 484448 531696 619124 539788
internal_count=2175056 1158912 1016144 484448 531696 619124 539788
is_linear=0
shrinkage=0.0914397


Tree=5
num_leaves=8
num_cat=0
split_feature=14 6 14 5 1 0 6
split_gain=3.29271e+11 8.16837e+10 4.28655e+10 3.9798e+10 3.33462e+10 3.06744e+10 1.38869e+10
threshold=7385.8514583333354 3.5000000000000004 8429.716666666669 1.0500000000000003 4.5000000000000009 5.5000000000000009 1.0000000180025095e-35
decision_type=2 2 2 2 2 2 2
left_child=1 3 5 -1 -3 -2 -4
right_child=2 4 6 -5 -6 -7 -8
leaf_value=-20.47552659349623 -0.42440576904745664 5.3546852432783982 65.569062978397724 -68.668738421866379 -36.332167732760446 47.719247581274217 116.54454862588744
leaf_weight=224389 147498 551680 111291 396318 226237 442982 74661
leaf_count=224389 147498 551680 111291 396318 226237 442982 74661
internal_value=-1.11255e-08 -26.508 47.7502 -51.2466 -6.76886 35.6933 86.0361
internal_weight=2.17506e+06 1.39862e+06 776432 620707 777917 590480 185952
internal_count=2175056 1398624 776432 620707 777917 590480 185952
is_linear=0
shrinkage=0.0914397


Tree=6
num_leaves=8
num_cat=0
split_feature=14 6 14 1 0 14 0
split_gain=2.83044e+11 6.39765e+10 5.74799e+10 3.33729e+10 2.28475e+10 2.23613e+10 1.85473e+10
threshold=7022.3768750000017 87.500000000000014 7984.2627083333346 2.5000000000000004 6.5000000000000009 6228.8404166666678 15.500000000000002
decision_type=2 2 2 2 2 2 2
left_child=1 5 3 -2 -4 -1 -3
right_child=2 6 4 -5 -6 -7 -8
leaf_value=-82.191744637797143 40.572946051087641 -0.22802102361558876 26.965073502028034 0.10961557079560647 76.213631726251634 -42.164426085730085 -46.080058380984347
leaf_weight=158702 301253 410320 111134 392445 270400 440874 89928
leaf_count=158702 301253 410320 111134 392445 270400 440874 89928
internal_value=-1.02692e-07 -32.6149 33.3608 17.6817 61.8684 -52.7593 -8.4707
internal_weight=2.17506e+06 1.09982e+06 1.07523e+06 693698 381534 599576 500248
internal_count=2175056 1099824 1075232 693698 381534 599576 500248
is_linear=0
shrinkage=0.0914397


Tree=7
num_leaves=8
num_cat=0
split_feature=14 6 14 1 0 5 1
split_gain=2.33648e+11 5.36086e+10 4.9404e+10 3.54462e+10 1.79777e+10 1.73803e+10 1.44887e+10
threshold=7022.3768750000017 25.500000000000004 8251.7547916666681 1.5000000000000002 15.500000000000002 -0.34999999999999992 4.5000000000000009
decision_type=2 2 2 2 2 2 2
left_child=1 5 3 -2 -3 -1 -4
right_child=2 4 6 -5 -6 -7 -8
leaf_value=-14.299534676516851 49.807958113314321 -2.1553192705335498 78.812296895262193 7.5261169090520639 -40.838136230489006 -58.794515806707572 29.689998391854303
leaf_weight=88658 230510 455769 185540 590354 128854 426543 68828
leaf_count=88658 230510 455769 185540 590354 128854 426543 68828
internal_value=9.47754e-08 -29.6326 30.3103 19.3994 -10.6812 -51.1376 65.5206
internal_weight=2.17506e+06 1.09982e+06 1.07523e+06 820864 584623 515201 254368
internal_count=2175056 1099824 1075232 820864 584623 515201 254368
is_linear=0
shrinkage=0.0914397


Tree=8
num_leaves=8
num_cat=0
split_feature=14 0 0 6 1 14 14
split_gain=1.94583e+11 5.44713e+10 5.04566e+10 3.27748e+10 3.88052e+10 1.56685e+10 1.41802e+10
threshold=7453.1991666666672 5.5000000000000009 19.500000000000004 1.0000000180025095e-35 4.5000000000000009 6278.3777083333343 8544.4060416666671
decision_type=2 2 2 2 2 2 2
left_child=1 5 -3 6 -5 -1 -2
right_child=3 2 -4 4 -6 -7 -8
leaf_value=-85.215705681288171 12.801498937642286 1.4122037931935119 -45.974178937116612 80.634727769924012 7.9013029615244479 -39.77290925106356 53.649530515599622
leaf_weight=81996 322906 845460 241560 227747 83937 280344 91106
leaf_count=81996 322906 845460 241560 227747 83937 280344 91106
internal_value=-1.67338e-07 -19.3527 -9.1181 38.6512 61.0475 -50.0564 21.7904
internal_weight=2.17506e+06 1.44936e+06 1.08702e+06 725696 311684 362340 414012
internal_count=2175056 1449360 1087020 725696 311684 362340 414012
is_linear=0
shrinkage=0.0914397


Tree=9
num_leaves=8
num_cat=0
split_feature=14 0 0 6 14 14 5
split_gain=1.69925e+11 4.16323e+10 5.12976e+10 3.56064e+10 1.76272e+10 1.02943e+10 9.22947e+09
threshold=6934.5560416666667 5.5000000000000009 19.500000000000004 195.50000000000003 5873.6497916666667 6228.8404166666678 -5.1499999999999995
decision_type=2 2 2 2 2 2 2
left_child=3 6 -3 4 -1 -5 -2
right_child=1 2 -4 5 -6 -7 -8
leaf_value=-85.827242098090963 15.497933991860595 45.762451888454827 -7.6265810692439322 -29.011370879893484 -35.433561122565465 4.3811708833639003 -18.424953099363851
leaf_weight=64599 105286 676965 193481 107970 571273 270782 184700
leaf_count=64599 105286 676965 193481 107970 571273 270782 184700
internal_value=3.51232e-08 23.8985 33.8952 -27.3329 -40.5531 -5.13797 -6.10848
internal_weight=2.17506e+06 1.16043e+06 870446 1.01462e+06 635872 378752 289986
internal_count=2175056 1160432 870446 1014624 635872 378752 289986
is_linear=0
shrinkage=0.0914397


Tree=10
num_leaves=8
num_cat=0
split_feature=14 14 6 1 6 1 14
split_gain=1.41523e+11 4.26218e+10 2.78624e+10 2.62236e+10 2.9806e+10 1.44991e+10 5.1803e+09
threshold=7490.249791666668 6400.2031250000009 5.5000000000000009 4.5000000000000009 1.0000000180025095e-35 2.5000000000000004 8478.2016666666677
decision_type=2 2 2 2 2 2 2
left_child=1 5 -3 4 -2 -1 -5
right_child=3 2 -4 6 -6 -7 -8
leaf_value=-23.544092008918991 25.460693171050963 -22.076229768670729 7.7370032693284561 -3.8812702379062127 70.028025588131229 -57.415518119103474 31.833696589832702
leaf_weight=209988 292465 492615 560121 142885 219740 212700 44542
leaf_count=209988 292465 492615 560121 142885 219740 212700 44542
internal_value=-1.05472e-07 -16.0616 -6.21374 33.8716 44.5804 -40.5885 4.60639
internal_weight=2.17506e+06 1.47542e+06 1.05274e+06 699632 512205 422688 187427
internal_count=2175056 1475424 1052736 699632 512205 422688 187427
is_linear=0
shrinkage=0.0914397


Tree=11
num_leaves=8
num_cat=0
split_feature=14 14 6 1 1 2 1
split_gain=1.209e+11 3.56881e+10 2.73362e+10 2.10272e+10 1.88127e+10 1.55308e+10 6.60428e+09
threshold=6906.5475000000015 7760.8606250000003 229.50000000000003 1.5000000000000002 4.5000000000000009 9.5000000000000018 3.5000000000000004
decision_type=2 2 2 2 2 2 2
left_child=2 3 5 -2 -3 -1 -4
right_child=1 4 6 -5 -6 -7 -8
leaf_value=-40.900473546223296 31.281316379615884 48.780343894784416 7.8500180559020825 -4.3333231190071952 9.5045605592833535 -1.9967960328195791 -17.855294201172622
leaf_weight=542105 194531 369257 201292 482173 140871 101932 142895
leaf_count=542105 194531 369257 201292 482173 140871 101932 142895
internal_value=-1.42928e-07 19.6718 -23.6254 5.90476 37.9344 -34.7432 -2.82197
internal_weight=2.17506e+06 1.18683e+06 988224 676704 510128 644037 344187
internal_count=2175056 1186832 988224 676704 510128 644037 344187
is_linear=0
shrinkage=0.0914397


Tree=12
num_leaves=8
num_cat=0
split_feature=14 2 2 0 0 1 14
split_gain=1.00815e+11 3.50319e+10 2.88605e+10 2.19232e+10 2.38802e+10 1.71395e+10 7.27452e+09
threshold=6811.0260416666688 2.5000000000000004 10.500000000000002 6.5000000000000009 14.500000000000002 4.5000000000000009 5846.8745833333342
decision_type=2 2 2 2 2 2 2
left_child=3 5 -3 6 -5 -2 -1
right_child=1 2 -4 4 -6 -7 -8
leaf_value=-90.681942474347309 50.900533906095163 -5.9623139841423782 28.162125456854245 4.3409639296420011 -31.582244157246183 8.7989828462903965 -41.10655812969479
leaf_weight=27762 282615 580011 322417 292256 328788 113245 227962
leaf_count=27762 282615 580011 322417 292256 328788 113245 227962
internal_value=3.69553e-08 16.1778 6.22957 -23.9555 -14.6772 38.8564 -46.4886
internal_weight=2.17506e+06 1.29829e+06 902428 876768 621044 395860 255724
internal_count=2175056 1298288 902428 876768 621044 395860 255724
is_linear=0
shrinkage=0.0914397


Tree=13
num_leaves=8
num_cat=0
split_feature=14 0 0 0 1 15 15
split_gain=8.33821e+10 3.43767e+10 4.54936e+10 1.78299e+10 1.91093e+10 9.14797e+09 5.42777e+09
threshold=6799.1887500000012 6.5000000000000009 19.500000000000004 5.5000000000000009 3.5000000000000004 427.5389142795587 594.89930676519236
decision_type=2 2 2 2 2 2 2
left_child=3 5 -3 6 -5 -2 -1
right_child=1 2 -4 4 -6 -7 -8
leaf_value=-27.324525812823925 18.445421771028204 35.177685516890001 -12.459488350129607 -1.2300596696177051 -33.148501417557959 -15.953060943801093 -56.917524320932309
leaf_weight=87084 82320 712255 219209 376285 268907 301016 127980
leaf_count=87084 82320 712255 219209 376285 268907 301016 127980
internal_value=4.656e-08 14.4817 23.9668 -22.1336 -14.5332 -8.56611 -44.9347
internal_weight=2.17506e+06 1.3148e+06 931464 860256 645192 383336 215064
internal_count=2175056 1314800 931464 860256 645192 383336 215064
is_linear=0
shrinkage=0.0914397


Tree=14
num_leaves=8
num_cat=0
split_feature=14 1 0 14 0 0 15
split_gain=7.57387e+10 2.94276e+10 2.30327e+10 2.10321e+10 1.47319e+10 1.93694e+10 3.97098e+09
threshold=7653.3166666666675 2.5000000000000004 5.5000000000000009 6201.5456250000016 6.5000000000000009 19.500000000000004 462.49000911992306
decision_type=2 2 2 2 2 2 2
left_child=1 2 -1 -3 6 -6 -2
right_child=4 3 -4 -5 5 -7 -8
leaf_value=-24.486545831372101 30.28667365325818 -54.833370768545294 13.185035537140813 -15.455469825035093 48.78777244217514 1.8922213184297227 -2.387923189309316
leaf_weight=182279 41174 133591 531072 750690 312843 96313 127094
leaf_count=182279 41174 133591 531072 750690 312843 96313 127094
internal_value=1.15096e-08 -10.2581 3.55901 -21.4044 28.3824 37.7488 5.60732
internal_weight=2.17506e+06 1.59763e+06 713351 884281 577424 409156 168268
internal_count=2175056 1597632 713351 884281 577424 409156 168268
is_linear=0
shrinkage=0.0914397


Tree=15
num_leaves=8
num_cat=0
split_feature=10 14 14 1 6 1 0
split_gain=6.28921e+10 2.13091e+10 2.09524e+10 1.7334e+10 1.4866e+10 6.62225e+09 4.38328e+09
threshold=7372.085 6201.5456250000016 8544.4060416666671 2.5000000000000004 1.5000000000000002 2.5000000000000004 6.5000000000000009
decision_type=2 2 2 2 2 2 2
left_child=1 5 3 -2 -3 -1 -4
right_child=2 4 6 -5 -6 -7 -8
leaf_value=-21.715598877168571 28.221251731336864 -19.012295906480855 25.649525074930992 -0.1899972585201076 3.1101320267602559 -50.350235042417829 59.984196830001103
leaf_weight=139018 324130 459059 43890 402532 568519 131318 106590
leaf_count=139018 324130 459059 43890 402532 568519 131318 106590
internal_value=-6.61858e-08 -12.7823 18.9141 12.4829 -6.77282 -35.6251 49.9699
internal_weight=2.17506e+06 1.29791e+06 877142 726662 1.02758e+06 270336 150480
internal_count=2175056 1297914 877142 726662 1027578 270336 150480
is_linear=0
shrinkage=0.0914397


Tree=16
num_leaves=8
num_cat=0
split_feature=5 6 0 0 2 0 15
split_gain=5.71918e+10 3.27462e+10 2.88438e+10 3.55471e+10 1.06649e+10 8.15849e+09 6.55154e+09
threshold=1.8500000000000003 229.50000000000003 5.5000000000000009 19.500000000000004 9.5000000000000018 14.500000000000002 433.80682938430829
decision_type=2 2 2 2 2 2 2
left_child=2 4 6 -4 -2 -3 -1
right_child=1 5 3 -5 -6 -7 -8
leaf_value=14.802975357296317 -33.614914903833871 9.757676449431397 37.619583174877548 -7.0760056350521268 -3.4454541951266964 -20.670051734544057 -15.109373707468507
leaf_weight=81873 520804 378401 532641 206445 120669 91493 242730
leaf_count=81873 520804 378401 532641 206445 120669 91493 242730
internal_value=-1.43075e-08 -14.5059 15.1561 25.135 -27.9397 3.8331 -7.56473
internal_weight=2.17506e+06 1.11137e+06 1.06369e+06 739086 641473 469894 324603
internal_count=2175056 1111367 1063689 739086 641473 469894 324603
is_linear=0
shrinkage=0.0914397


Tree=17
num_leaves=8
num_cat=0
split_feature=5 0 0 0 1 14 15
split_gain=4.99288e+10 2.77296e+10 3.68082e+10 1.51824e+10 1.93278e+10 6.15949e+09 3.14439e+09
threshold=-2.0499999999999994 6.5000000000000009 14.500000000000002 5.5000000000000009 4.5000000000000009 5873.6497916666667 492.6525992084533
decision_type=2 2 2 2 2 2 2
left_child=3 5 -3 6 -5 -2 -1
right_child=1 2 -4 4 -6 -7 -8
leaf_value=16.037784452754583 -69.968339891600081 14.648246598168331 -18.001253527619131 44.351294346450558 1.0812142582121047 -26.382845760646671 -7.4768056676780885
leaf_weight=76097 29262 580214 574651 297943 121516 368635 126738
leaf_count=76097 29262 580214 574651 297943 121516 368635 126738
internal_value=-4.04669e-08 -8.77042 -1.59787 21.8841 31.8161 -29.5882 1.34509
internal_weight=2.17506e+06 1.55276e+06 1.15486e+06 622294 419459 397897 202835
internal_count=2175056 1552762 1154865 622294 419459 397897 202835
is_linear=0
shrinkage=0.0914397


Tree=18
num_leaves=8
num_cat=0
split_feature=2 2 6 1 6 1 5
split_gain=4.57595e+10 3.64194e+10 2.41381e+10 1.21531e+10 8.82489e+09 8.05294e+09 2.29463e+09
threshold=2.5000000000000004 10.500000000000002 1.0000000180025095e-35 3.5000000000000004 1.0000000180025095e-35 2.5000000000000004 -5.9499999999999993
decision_type=2 2 2 2 2 2 2
left_child=3 2 -2 4 -1 -3 -5
right_child=1 5 -4 6 -6 -7 -8
leaf_value=26.522742965418743 -27.083381114645587 36.092127446771315 -2.8856162919746229 24.186415306982195 62.992038101841182 8.085387226139872 1.852325046026932
leaf_weight=132098 582355 150823 844569 58680 95649 199241 111641
leaf_count=132098 582355 150823 844569 58680 95649 199241 111641
internal_value=5.62917e-08 -6.27735 -12.7612 28.0223 41.8391 20.1519 9.547
internal_weight=2.17506e+06 1.77699e+06 1.42692e+06 398068 227747 350064 170321
internal_count=2175056 1776988 1426924 398068 227747 350064 170321
is_linear=0
shrinkage=0.0914397


Tree=19
num_leaves=8
num_cat=0
split_feature=5 1 6 6 14 14 14
split_gain=3.82279e+10 2.10813e+10 1.99304e+10 1.81332e+10 1.68777e+10 9.64665e+09 3.96651e+09
threshold=3.8500000000000001 2.5000000000000004 327.50000000000006 1.0000000180025095e-35 8544.4060416666671 5873.6497916666667 5942.5870833333347
decision_type=2 2 2 2 2 2 2
left_child=1 3 5 -1 -3 -2 -4
right_child=2 4 6 -5 -6 -7 -8
leaf_value=10.341581291995379 -58.770144159461765 -5.6567359241855755 -25.052063075868471 44.648222251821792 34.230662549607466 -20.419282823764519 6.5952969299797299
leaf_weight=320236 61352 609995 37067 215517 103789 516650 310450
leaf_count=320236 61352 609995 37067 215517 103789 516650 310450
internal_value=-4.53015e-08 10.433 -14.0855 24.1421 0.14316 -24.49 3.21971
internal_weight=2.17506e+06 1.24954e+06 925519 535753 713784 578002 347517
internal_count=2175056 1249537 925519 535753 713784 578002 347517
is_linear=0
shrinkage=0.0914397


Tree=20
num_leaves=8
num_cat=0
split_feature=2 2 6 1 0 14 5
split_gain=3.42452e+10 2.72841e+10 1.84989e+10 9.22459e+09 8.45132e+09 5.9681e+09 1.55468e+09
threshold=2.5000000000000004 10.500000000000002 1.0000000180025095e-35 4.5000000000000009 20.500000000000004 8663.8191666666698 -5.0499999999999989
decision_type=2 2 2 2 2 2 2
left_child=3 2 -2 4 -1 -3 -5
right_child=1 5 -4 6 -6 -7 -8
leaf_value=38.998330155851846 -23.580568461202667 12.993983685026375 -2.3971178733088894 15.215875695151439 -8.6000799062751678 49.469235934743153 -6.5966145169081054
leaf_weight=248892 582355 307344 844569 45798 35658 42720 67720
leaf_count=248892 582355 307344 844569 45798 35658 42720 67720
internal_value=-1.41097e-08 -5.43045 -11.0425 24.2417 33.0336 17.4452 2.20347
internal_weight=2.17506e+06 1.77699e+06 1.42692e+06 398068 284550 350064 113518
internal_count=2175056 1776988 1426924 398068 284550 350064 113518
is_linear=0
shrinkage=0.0914397


Tree=21
num_leaves=8
num_cat=0
split_feature=10 0 0 1 0 14 5
split_gain=2.97316e+10 1.39131e+10 2.12341e+10 1.14961e+10 9.26518e+09 6.70915e+09 4.42473e+09
threshold=7051.3350000000009 6.5000000000000009 20.500000000000004 3.5000000000000004 5.5000000000000009 5942.5870833333347 -6.2499999999999991
decision_type=2 2 2 2 2 2 2
left_child=3 6 -3 4 -1 -5 -2
right_child=1 2 -4 5 -6 -7 -8
leaf_value=-22.273082821000468 11.865313134572913 23.46097364196245 -15.350003431060969 -54.508431534529656 4.1380680082967629 -18.346077907239234 -11.929366764626021
leaf_weight=150001 89168 667783 143131 47983 427769 404672 244549
leaf_count=150001 89168 667783 143131 47983 427769 404672 244549
internal_value=-1.95264e-08 10.1434 16.6106 -11.2677 -2.71881 -22.1794 -5.57151
internal_weight=2.17506e+06 1.14463e+06 810914 1.03042e+06 577770 452655 333717
internal_count=2175056 1144631 810914 1030425 577770 452655 333717
is_linear=0
shrinkage=0.0914397


Tree=22
num_leaves=8
num_cat=0
split_feature=5 1 0 1 6 14 6
split_gain=2.77663e+10 1.48931e+10 1.78846e+10 1.1868e+10 9.92566e+09 7.6396e+09 6.16935e+09
threshold=-0.74999999999999989 4.5000000000000009 5.5000000000000009 2.5000000000000004 1.0000000180025095e-35 8663.8191666666698 315.50000000000006
decision_type=2 2 2 2 2 2 2
left_child=3 2 -2 4 -1 -5 -3
right_child=1 6 -4 5 -6 -7 -8
leaf_value=15.947653180421792 -25.178714327260614 -30.347816081453146 4.5798702005510386 -1.2193298921432492 49.732928959854064 31.175634142581536 -5.8224608433605409
leaf_weight=218960 214274 272185 796708 365854 108851 73015 125209
leaf_count=218960 214274 272185 796708 365854 108851 73015 125209
internal_value=-1.22897e-08 -7.62266 -1.72735 14.0027 27.1662 4.17025 -22.6205
internal_weight=2.17506e+06 1.40838e+06 1.01098e+06 766680 327811 438869 397394
internal_count=2175056 1408376 1010982 766680 327811 438869 397394
is_linear=0
shrinkage=0.0914397


Tree=23
num_leaves=8
num_cat=0
split_feature=14 1 0 14 1 5 5
split_gain=2.4031e+10 1.55898e+10 1.99967e+10 7.56325e+09 6.85571e+09 3.84107e+09 1.81142e+09
threshold=6655.5345833333349 4.5000000000000009 5.5000000000000009 5846.8745833333342 1.5000000000000002 -6.1499999999999995 7.0500000000000007
decision_type=2 2 2 2 2 2 2
left_child=3 2 -2 6 -5 -3 -1
right_child=1 5 -4 4 -6 -7 -8
leaf_value=-12.334838753707368 -9.5377289202407454 10.046989053242079 19.18986517224759 3.5863319392982778 -17.689047150961695 -12.687461372495275 -44.488752854596882
leaf_weight=18086 268718 75784 823326 190945 376031 345068 77098
leaf_count=18086 268718 75784 823326 190945 376031 345068 77098
internal_value=-4.96603e-08 6.35861 12.1209 -14.5281 -10.524 -8.59361 -38.3792
internal_weight=2.17506e+06 1.5129e+06 1.09204e+06 662160 566976 420852 95184
internal_count=2175056 1512896 1092044 662160 566976 420852 95184
is_linear=0
shrinkage=0.0914397


Tree=24
num_leaves=8
num_cat=0
split_feature=2 2 6 1 0 1 7
split_gain=2.22869e+10 1.78624e+10 1.20614e+10 6.36225e+09 5.21789e+09 4.78197e+09 1.3407e+09
threshold=2.5000000000000004 10.500000000000002 146.50000000000003 3.5000000000000004 20.500000000000004 2.5000000000000004 8.4500000000000011
decision_type=2 2 2 2 2 2 2
left_child=3 2 -2 4 -1 -3 -5
right_child=1 5 -4 6 -6 -7 -8
leaf_value=34.792648373996322 -15.792770303444684 26.411831339865735 1.3641633371300863 8.9673559636218094 -7.0092986784616569 4.8299715686576024 -17.49808059846546
leaf_weight=199202 855465 150823 571459 152439 28545 199241 17882
leaf_count=199202 855465 150823 571459 152439 28545 199241 17882
internal_value=-8.54364e-09 -4.38087 -8.92171 19.5564 29.5533 14.1284 6.18875
internal_weight=2.17506e+06 1.77699e+06 1.42692e+06 398068 227747 350064 170321
internal_count=2175056 1776988 1426924 398068 227747 350064 170321
is_linear=0
shrinkage=0.0914397


Tree=25
num_leaves=8
num_cat=0
split_feature=5 0 0 0 0 15 15
split_gain=1.98429e+10 1.34351e+10 1.93926e+10 7.06519e+09 1.10918e+10 1.86691e+09 1.67963e+09
threshold=-3.2499999999999996 20.500000000000004 7.5000000000000009 6.5000000000000009 19.500000000000004 573.46392954005717 452.47245295338297
decision_type=2 2 2 2 2 2 2
left_child=3 2 -2 5 -5 -1 -3
right_child=1 6 -4 4 -6 -7 -8
leaf_value=10.71405222220748 -16.344368913883702 -8.5449324565228775 5.7252779699784577 36.933984881550955 -0.014979721728634729 -7.2750145326584716 -31.21989050333374
leaf_weight=103501 505319 32880 975662 204195 101796 90339 161364
leaf_count=103501 505319 32880 975662 204195 101796 90339 161364
internal_value=-1.95305e-08 -4.77065 -1.80501 15.9892 24.6419 2.33026 -27.3817
internal_weight=2.17506e+06 1.67522e+06 1.48098e+06 499831 305991 193840 194244
internal_count=2175056 1675225 1480981 499831 305991 193840 194244
is_linear=0
shrinkage=0.0914397


Tree=26
num_leaves=8
num_cat=0
split_feature=5 1 14 6 0 14 4
split_gain=1.81108e+10 1.19994e+10 1.11381e+10 9.98198e+09 7.54496e+09 5.8583e+09 2.80199e+09
threshold=4.2500000000000009 1.5000000000000002 8583.6602083333346 375.50000000000006 20.500000000000004 5922.815833333334 1.0000000180025095e-35
decision_type=2 2 2 2 2 2 2
left_child=1 4 -3 5 -1 -2 -5
right_child=3 2 -4 6 -6 -7 -8
leaf_value=26.265655820578363 -41.345659643728695 -2.6799641535041161 26.575507841530452 4.1070322410267135 -11.13777131892898 -13.57683279350886 -95.082133549341251
leaf_weight=314994 72518 789247 126209 304985 52626 512077 2400
leaf_count=314994 72518 789247 126209 304985 52626 512077 2400
internal_value=-3.63489e-09 6.95696 1.35333 -10.0073 20.9112 -17.0215 3.33258
internal_weight=2.17506e+06 1.28308e+06 915456 891980 367620 584595 307385
internal_count=2175056 1283076 915456 891980 367620 584595 307385
is_linear=0
shrinkage=0.0914397


Tree=27
num_leaves=8
num_cat=0
split_feature=13 0 0 14 0 15 1
split_gain=1.59511e+10 8.83399e+09 1.25281e+10 6.23336e+09 4.09581e+09 2.57244e+09 2.39746e+09
threshold=6851.2900000000009 20.500000000000004 6.5000000000000009 5979.9491666666672 21.500000000000004 452.47245295338297 2.5000000000000004
decision_type=2 2 2 2 2 2 2
left_child=3 2 -2 6 -5 -3 -1
right_child=1 5 -4 4 -6 -7 -8
leaf_value=-17.341251627013083 -4.3151872266047553 6.7871308417146858 15.988193677184933 -4.4459127857048033 -28.94815084450579 -19.989165230888005 -43.222498961947473
leaf_weight=67332 381096 39588 762577 684508 62228 123859 53868
leaf_count=67332 381096 39588 762577 684508 62228 123859 53868
internal_value=-1.40758e-08 6.38088 9.22268 -9.60967 -6.48777 -13.5038 -28.8443
internal_weight=2.17506e+06 1.30712e+06 1.14367e+06 867936 746736 163447 121200
internal_count=2175056 1307120 1143673 867936 746736 163447 121200
is_linear=0
shrinkage=0.0914397


Tree=28
num_leaves=8
num_cat=0
split_feature=3 0 0 15 15 6 14
split_gain=1.44995e+10 1.78468e+10 2.39641e+10 5.49072e+09 4.50539e+09 3.17599e+09 2.41738e+09
threshold=1.0000000180025095e-35 5.5000000000000009 20.500000000000004 578.59068759652712 555.211745822289 428.50000000000006 5760.4568750000008
decision_type=2 2 2 2 2 2 2
left_child=1 4 -3 6 -1 -5 -2
right_child=3 2 -4 5 -6 -7 -8
leaf_value=-0.61252348137217738 -50.830455314802073 16.224834584748965 -18.936910929854488 -23.844443429973737 -20.578908724234189 -0.41937028917287644 -1.0006296044079288
leaf_weight=162022 8388 972369 194479 276882 226721 58643 275552
leaf_count=162022 8388 972369 194479 276882 226721 58643 275552
internal_value=-1.39471e-08 4.71125 10.3644 -11.8308 -12.2572 -19.7502 -2.47268
internal_weight=2.17506e+06 1.55559e+06 1.16685e+06 619465 388743 335525 283940
internal_count=2175056 1555591 1166848 619465 388743 335525 283940
is_linear=0
shrinkage=0.0914397


Tree=29
num_leaves=8
num_cat=0
split_feature=5 1 0 1 0 15 14
split_gain=1.44918e+10 9.16421e+09 1.03071e+10 4.6425e+09 4.22071e+09 2.95313e+09 2.49885e+09
threshold=-3.4499999999999997 4.5000000000000009 5.5000000000000009 2.5000000000000004 4.5000000000000009 584.01243042502063 8914.7666666666682
decision_type=2 2 2 2 2 2 2
left_child=3 2 -2 4 -1 -3 -5
right_child=1 5 -4 6 -6 -7 -8
leaf_value=2.9722327190635891 -15.325808550528583 -6.6319197977828859 4.8101880855943193 3.6517174761165245 32.035477122695006 -21.065168466804899 38.405297109586172
leaf_weight=57322 274701 212912 939430 250638 154091 267381 18581
leaf_count=57322 274701 212912 939430 250638 154091 267381 18581
internal_value=-1.82017e-08 -3.97517 0.254355 14.0141 24.1553 -14.667 6.05035
internal_weight=2.17506e+06 1.69442e+06 1.21413e+06 480632 211413 480293 269219
internal_count=2175056 1694424 1214131 480632 211413 480293 269219
is_linear=0
shrinkage=0.0914397


Tree=30
num_leaves=8
num_cat=0
split_feature=5 1 14 6 0 14 4
split_gain=1.32648e+10 8.32378e+09 8.11388e+09 6.63525e+09 5.08631e+09 4.29584e+09 1.97619e+09
threshold=4.2500000000000009 1.5000000000000002 8544.4060416666671 444.50000000000006 20.500000000000004 5809.2379166666678 1.0000000180025095e-35
decision_type=2 2 2 2 2 2 2
left_child=1 4 -3 5 -1 -2 -5
right_child=3 2 -4 6 -6 -7 -8
leaf_value=21.972360502472622 -37.469851479318635 -2.2685982840867274 22.130565730327966 4.5907433261440191 -8.7379687369138974 -11.210916564121758 -82.290525620154952
leaf_weight=314994 57250 782059 133397 254460 52626 578062 2208
leaf_count=314994 57250 782059 133397 254460 52626 578062 2208
internal_value=-1.34424e-08 5.95389 1.28676 -8.56442 17.5761 -13.5772 3.84334
internal_weight=2.17506e+06 1.28308e+06 915456 891980 367620 635312 256668
internal_count=2175056 1283076 915456 891980 367620 635312 256668
is_linear=0
shrinkage=0.0914397


Tree=31
num_leaves=8
num_cat=0
split_feature=2 2 6 14 1 0 7
split_gain=1.16241e+10 9.67266e+09 6.82305e+09 3.65175e+09 3.58401e+09 3.54062e+09 9.0362e+08
threshold=2.5000000000000004 9.5000000000000018 511.50000000000006 8283.5877083333362 3.5000000000000004 5.5000000000000009 8.4500000000000011
decision_type=2 2 2 2 2 2 2
left_child=4 2 -2 -3 5 -1 -6
right_child=1 3 -4 -5 6 -7 -8
leaf_value=1.8400630291994222 -10.827811337171301 3.8924095538366479 6.4045696581002582 24.648269565578495 6.3715998296697967 28.196104319225533 -15.35569168810845
leaf_weight=56767 1011191 444298 237173 84326 152439 170980 17882
leaf_count=56767 1011191 444298 237173 84326 152439 170980 17882
internal_value=-5.90305e-09 -3.16385 -7.55388 7.20338 14.1235 21.6267 4.09045
internal_weight=2.17506e+06 1.77699e+06 1.24836e+06 528624 398068 227747 170321
internal_count=2175056 1776988 1248364 528624 398068 227747 170321
is_linear=0
shrinkage=0.0914397


Tree=32
num_leaves=8
num_cat=0
split_feature=5 0 0 6 10 15 4
split_gain=9.95731e+09 7.4964e+09 1.32276e+10 5.28038e+09 3.37494e+09 2.2934e+09 1.57034e+09
threshold=5.9500000000000011 20.500000000000004 6.5000000000000009 428.50000000000006 5227.9250000000011 427.5389142795587 1.0000000180025095e-35
decision_type=2 2 2 2 2 2 2
left_child=1 2 -1 4 -2 -3 -5
right_child=3 5 -4 6 -6 -7 -8
leaf_value=-4.6193904424520476 -39.323659927666249 6.3605419581222575 14.841347395188221 3.1859318330796103 -11.647177350164654 -17.176375751211264 -79.836257649236799
leaf_weight=481700 39990 44550 741680 242400 467619 155197 1920
leaf_count=481700 39990 44550 741680 242400 467619 155197 1920
internal_value=-3.42722e-09 4.49715 7.17878 -8.51146 -13.8276 -11.9269 2.5335
internal_weight=2.17506e+06 1.42313e+06 1.22338e+06 751929 507609 199747 244320
internal_count=2175056 1423127 1223380 751929 507609 199747 244320
is_linear=0
shrinkage=0.0914397


Tree=33
num_leaves=8
num_cat=0
split_feature=5 3 0 1 0 6 14
split_gain=9.04087e+09 6.93369e+09 8.85501e+09 3.30097e+09 2.92375e+09 2.22008e+09 1.67753e+09
threshold=-3.5499999999999994 1.0000000180025095e-35 21.500000000000004 2.5000000000000004 4.5000000000000009 428.50000000000006 8914.7666666666682
decision_type=2 2 2 2 2 2 2
left_child=3 2 -2 4 -1 -3 -5
right_child=1 5 -4 6 -6 -7 -8
leaf_value=2.0496010894582812 2.8165176745998326 -15.381285715048941 -26.371036895106755 2.410989175833921 26.398075999236703 0.4655505206183439 31.049392480011491
leaf_weight=56602 1125514 391269 94181 246092 151883 91136 18379
leaf_count=56602 1125514 391269 94181 246092 151883 91136 18379
internal_value=4.82936e-09 -3.10758 0.562747 11.1837 19.7877 -12.3875 4.40117
internal_weight=2.17506e+06 1.7021e+06 1.2197e+06 472956 208485 482405 264471
internal_count=2175056 1702100 1219695 472956 208485 482405 264471
is_linear=0
shrinkage=0.0914397


Tree=34
num_leaves=8
num_cat=0
split_feature=14 15 0 1 2 1 8
split_gain=8.26605e+09 6.76097e+09 6.3933e+09 4.42467e+09 3.12399e+09 2.1682e+09 7.77093e+08
threshold=6278.3777083333343 424.43896686723548 20.500000000000004 1.5000000000000002 6.5000000000000009 1.5000000000000002 97.500000000000014
decision_type=2 2 2 2 2 2 2
left_child=4 3 -3 -2 6 -6 -1
right_child=1 2 -4 -5 5 -7 -8
leaf_value=-5.2728484936005335 24.483490884767431 2.0005391104007031 -16.003263966195185 3.6101890542907347 -7.1270469224904991 -24.703535759718132 13.42895968086053
leaf_weight=42211 169551 1318939 188485 170097 92708 159886 33179
leaf_count=42211 169551 1318939 188485 170097 92708 159886 33179
internal_value=-1.58399e-09 2.37538 -0.250617 14.0301 -13.3772 -18.2525 2.95778
internal_weight=2.17506e+06 1.84707e+06 1.50742e+06 339648 327984 252594 75390
internal_count=2175056 1847072 1507424 339648 327984 252594 75390
is_linear=0
shrinkage=0.0914397


Tree=35
num_leaves=8
num_cat=0
split_feature=10 15 1 0 1 0 9
split_gain=7.77178e+09 6.45666e+09 3.98617e+09 3.97942e+09 3.05543e+09 4.05623e+09 7.96761e+08
threshold=7973.1500000000005 486.5122422357876 1.5000000000000002 7.5000000000000009 4.5000000000000009 5.5000000000000009 11.500000000000002
decision_type=2 2 2 2 2 2 2
left_child=1 2 -1 -3 5 -2 -6
right_child=4 3 -4 -5 6 -7 -8
leaf_value=15.115725216014098 -2.9678734979256802 -13.527843860015965 -1.6809742253164257 -2.5883544972473489 16.256453554955328 20.378081938496614 -6.2327512522594395
leaf_weight=225082 81475 417022 248627 834202 15435 263376 89837
leaf_count=225082 81475 417022 248627 834202 15435 263376 89837
internal_value=-6.61577e-09 -2.79215 6.29995 -6.23439 10.6999 14.8623 -2.93538
internal_weight=2.17506e+06 1.72493e+06 473709 1.25122e+06 450123 344851 105272
internal_count=2175056 1724933 473709 1251224 450123 344851 105272
is_linear=0
shrinkage=0.0914397


Tree=36
num_leaves=8
num_cat=0
split_feature=10 14 1 14 1 2 0
split_gain=7.12855e+09 5.80273e+09 5.8804e+09 1.48695e+09 1.3071e+09 1.28893e+09 1.18932e+09
threshold=5703.2050000000008 8716.6789583333357 1.5000000000000002 5183.4552083333338 4.5000000000000009 8.5000000000000018 8.5000000000000018
decision_type=2 2 2 2 2 2 2
left_child=3 2 -2 5 -3 -1 -5
right_child=1 4 -4 6 -6 -7 -8
leaf_value=-76.0611388316768 8.4351636985581191 29.420370418392981 -2.7985868686558701 -24.825530554733515 5.8789098852012849 28.036974541712709 -9.6168002340928194
leaf_weight=5808 550309 73126 1334172 68781 27002 1200 114658
leaf_count=5808 550309 73126 1334172 68781 27002 1200 114658
internal_value=-1.43504e-08 1.62162 0.48191 -16.8986 23.0718 -58.2361 -15.3194
internal_weight=2.17506e+06 1.98461e+06 1.88448e+06 190447 100128 7008 183439
internal_count=2175056 1984609 1884481 190447 100128 7008 183439
is_linear=0
shrinkage=0.0914397


Tree=37
num_leaves=8
num_cat=0
split_feature=2 2 0 14 1 0 5
split_gain=6.55607e+09 5.84762e+09 5.57e+09 2.45957e+09 1.95568e+09 2.42855e+09 7.20039e+08
threshold=2.5000000000000004 9.5000000000000018 15.500000000000002 8816.4520833333354 3.5000000000000004 19.500000000000004 -7.5499999999999989
decision_type=2 2 2 2 2 2 2
left_child=4 2 -2 -3 5 -1 -6
right_child=1 3 -4 -5 6 -7 -8
leaf_value=20.378711556061994 -1.4715061114513057 4.2823123761715705 -14.429314653791689 33.424055672883 13.819283377930665 -4.931701787940705 -0.13170889215350751
leaf_weight=189691 832371 503184 415993 25440 40620 38056 129701
leaf_count=189691 832371 503184 415993 25440 40620 38056 129701
internal_value=-5.0254e-09 -2.37606 -5.78944 5.68476 10.6068 16.1494 3.19548
internal_weight=2.17506e+06 1.77699e+06 1.24836e+06 528624 398068 227747 170321
internal_count=2175056 1776988 1248364 528624 398068 227747 170321
is_linear=0
shrinkage=0.0914397


Tree=38
num_leaves=8
num_cat=0
split_feature=10 0 0 15 14 2 0
split_gain=5.79092e+09 5.33108e+09 7.76372e+09 1.53641e+09 7.96915e+08 9.32612e+08 7.87263e+08
threshold=5374.7450000000008 21.500000000000004 7.5000000000000009 472.60612511493127 5183.4552083333338 8.5000000000000018 8.5000000000000018
decision_type=2 2 2 2 2 2 2
left_child=4 2 -2 -3 5 -1 -6
right_child=1 3 -4 -5 6 -7 -8
leaf_value=-68.967428880331767 -5.3111668379201156 0.47012240460177179 6.822360517627466 -19.346585640762857 -30.778377457322591 25.166020850045868 -13.09648545837844
leaf_weight=5280 692797 43768 1212808 129508 33681 1056 56158
leaf_count=5280 692797 43768 1212808 129508 33681 1056 56158
internal_value=-4.08872e-10 1.01482 2.41113 -14.3411 -21.936 -53.2785 -19.7255
internal_weight=2.17506e+06 2.07888e+06 1.9056e+06 173276 96175 6336 89839
internal_count=2175056 2078881 1905605 173276 96175 6336 89839
is_linear=0
shrinkage=0.0914397


Tree=39
num_leaves=8
num_cat=0
split_feature=1 0 0 15 15 6 6
split_gain=5.65718e+09 9.43284e+09 1.70974e+10 3.03215e+09 2.38674e+09 2.19763e+09 1.8345e+09
threshold=4.5000000000000009 5.5000000000000009 13.500000000000002 578.59068759652712 629.39120063425969 1.0000000180025095e-35 324.50000000000006
decision_type=2 2 2 2 2 2 2
left_child=1 4 -3 5 -1 -2 -5
right_child=3 2 -4 6 -6 -7 -8
leaf_value=-3.2293270486327379 7.6145681016653493 19.42950477639851 -2.8459446191204396 -17.088572809314133 -17.721449402727448 -8.4744215929023454 -1.287490919473276
leaf_weight=223393 141869 518518 648330 254546 165350 142071 80979
leaf_count=223393 141869 518518 648330 254546 165350 142071 80979
internal_value=-1.36995e-09 2.9428 7.05271 -7.3899 -9.39348 -0.43565 -13.275
internal_weight=2.17506e+06 1.55559e+06 1.16685e+06 619465 388743 283940 335525
internal_count=2175056 1555591 1166848 619465 388743 283940 335525
is_linear=0
shrinkage=0.0914397


Tree=40
num_leaves=8
num_cat=0
split_feature=5 14 0 0 0 4 14
split_gain=5.72349e+09 4.02897e+09 3.90641e+09 1.81244e+09 2.8974e+09 1.18628e+09 7.3891e+08
threshold=-4.5499999999999989 5846.8745833333342 13.500000000000002 6.5000000000000009 19.500000000000004 1.0000000180025095e-35 6804.4722916666678
decision_type=2 2 2 2 2 2 2
left_child=3 5 -3 6 -5 -2 -1
right_child=1 2 -4 4 -6 -7 -8
leaf_value=30.985482383566513 -19.390200737064941 2.5960064741907591 -6.2788669099580083 22.830624692339477 1.1310982994947927 -112.8711940951673 0.98817789436732728
leaf_weight=7212 93380 987284 715019 149505 78444 1149 143063
leaf_count=7212 93380 987284 715019 149505 78444 1149 143063
internal_value=-7.99191e-09 -2.15204 -1.13171 10.2237 15.3632 -20.5265 2.42781
internal_weight=2.17506e+06 1.79683e+06 1.7023e+06 378224 227949 94529 150275
internal_count=2175056 1796832 1702303 378224 227949 94529 150275
is_linear=0
shrinkage=0.0914397


Tree=41
num_leaves=8
num_cat=0
split_feature=13 1 14 10 5 8 0
split_gain=4.89918e+09 3.67621e+09 4.01281e+09 1.95812e+09 1.56596e+09 1.32959e+09 8.11855e+08
threshold=6668.3350000000009 1.0000000180025095e-35 8742.0554166666698 5332.0700000000006 7.1500000000000012 98.500000000000014 8.5000000000000018
decision_type=2 2 2 2 2 2 2
left_child=3 4 -3 6 -2 -5 -1
right_child=1 2 -4 5 -6 -7 -8
leaf_value=-31.752030246310706 18.740726393236585 -0.15456569642970625 19.82204772732748 -7.5862295899478474 -3.2077311227770604 1.0986835122606278 -12.576678137879924
leaf_weight=29538 156654 1173512 90565 413726 32885 228946 49230
leaf_count=29538 156654 1173512 90565 413726 32885 228946 49230
internal_value=2.40649e-09 3.05729 1.27666 -6.16007 14.9327 -4.49231 -19.7674
internal_weight=2.17506e+06 1.45362e+06 1.26408e+06 721440 189539 642672 78768
internal_count=2175056 1453616 1264077 721440 189539 642672 78768
is_linear=0
shrinkage=0.0914397


Tree=42
num_leaves=8
num_cat=0
split_feature=1 0 0 14 9 1 15
split_gain=4.65779e+09 6.62488e+09 8.32283e+09 2.6351e+09 1.73295e+09 1.41409e+09 6.14264e+08
threshold=3.5000000000000004 21.500000000000004 5.5000000000000009 6228.8404166666678 22.500000000000004 5.5000000000000009 433.80682938430829
decision_type=2 2 2 2 2 2 2
left_child=1 2 -1 5 -5 -2 -3
right_child=3 6 -4 4 -6 -7 -8
leaf_value=-7.0882214286139451 -26.863236471378364 -3.6238901900696963 10.449921936644294 1.688354066099649 -6.8143588228773346 -6.8251995361906195 -21.79620764876152
leaf_weight=311014 63915 19049 830042 360758 450941 54603 84734
leaf_count=311014 63915 19049 830042 360758 450941 54603 84734
internal_value=-6.21388e-09 3.65784 5.66961 -4.89502 -3.03535 -17.6314 -18.4607
internal_weight=2.17506e+06 1.24484e+06 1.14106e+06 930217 811699 118518 103783
internal_count=2175056 1244839 1141056 930217 811699 118518 103783
is_linear=0
shrinkage=0.0914397


Tree=43
num_leaves=8
num_cat=0
split_feature=5 8 6 0 1 0 0
split_gain=4.3375e+09 3.65736e+09 2.82151e+09 2.26047e+09 1.40679e+09 1.10657e+09 8.03484e+08
threshold=-4.7499999999999991 98.500000000000014 630.50000000000011 19.500000000000004 2.5000000000000004 19.500000000000004 8.5000000000000018
decision_type=2 2 2 2 2 2 2
left_child=4 2 -2 -3 5 -1 -6
right_child=1 3 -4 -5 6 -7 -8
leaf_value=19.508581469820946 -6.7862666720143547 5.6608347075337271 7.484081870583017 -8.1323908560837594 -1.7810766225502201 0.79943967428713014 9.7886383230178424
leaf_weight=125914 977348 586531 131424 119600 99156 33456 101627
leaf_count=125914 977348 586531 131424 119600 99156 33456 101627
internal_value=2.7853e-09 -1.81901 -5.09479 3.32463 9.16648 15.581 4.07497
internal_weight=2.17506e+06 1.8149e+06 1.10877e+06 706131 360153 159370 200783
internal_count=2175056 1814903 1108772 706131 360153 159370 200783
is_linear=0
shrinkage=0.0914397


Tree=44
num_leaves=8
num_cat=0
split_feature=14 15 0 1 14 0 1
split_gain=4.06162e+09 4.11134e+09 3.05015e+09 2.56476e+09 1.32613e+09 9.82749e+08 5.9495e+08
threshold=8307.1410416666677 472.60612511493127 7.5000000000000009 1.5000000000000002 8962.9737500000028 7.5000000000000009 4.5000000000000009
decision_type=2 2 2 2 2 2 2
left_child=1 3 -3 -1 5 -2 -6
right_child=4 2 -4 -5 6 -7 -8
leaf_value=12.564396742256767 -0.44675638537359702 -9.7212197922848471 -0.8379415757459735 -0.64215068980885148 36.445016895479114 13.278394950183982 8.82120311808076
leaf_weight=242643 65420 484692 969847 249257 23244 130893 9060
leaf_count=242643 65420 484692 969847 249257 23244 130893 9060
internal_value=-1.04884e-09 -1.3542 -3.79809 5.87234 11.5296 8.70458 28.6976
internal_weight=2.17506e+06 1.94644e+06 1.45454e+06 491900 228617 196313 32304
internal_count=2175056 1946439 1454539 491900 228617 196313 32304
is_linear=0
shrinkage=0.0914397


Tree=45
num_leaves=8
num_cat=0
split_feature=5 0 0 14 0 15 14
split_gain=3.74803e+09 3.36888e+09 6.76557e+09 2.62641e+09 2.36855e+09 1.67885e+09 1.23546e+09
threshold=6.3500000000000005 6.5000000000000009 13.500000000000002 5979.9491666666672 15.500000000000002 587.6166218542993 5183.4552083333338
decision_type=2 2 2 2 2 2 2
left_child=1 5 -3 6 -5 -1 -2
right_child=3 2 -4 4 -6 -7 -8
leaf_value=1.6462573519036805 -56.718845102996916 15.633486140455306 -0.15922840455603141 0.82852158061599035 -11.547851344493687 -9.045865903837452 -15.801412851417187
leaf_weight=255399 6547 364402 600682 417033 187383 236477 107133
leaf_count=255399 6547 364402 600682 417033 187383 236477 107133
internal_value=3.18694e-11 2.66482 5.80388 -5.40672 -3.00844 -3.49415 -18.1579
internal_weight=2.17506e+06 1.45696e+06 965084 718096 604416 491876 113680
internal_count=2175056 1456960 965084 718096 604416 491876 113680
is_linear=0
shrinkage=0.0914397


Tree=46
num_leaves=8
num_cat=0
split_feature=1 0 0 6 0 1 15
split_gain=3.55032e+09 6.32183e+09 9.78289e+09 2.76545e+09 7.10558e+09 1.91663e+09 1.46034e+09
threshold=4.5000000000000009 4.5000000000000009 13.500000000000002 1.0000000180025095e-35 8.5000000000000018 5.5000000000000009 718.66975491682535
decision_type=2 2 2 2 2 2 2
left_child=1 6 -3 5 -5 -2 -1
right_child=3 2 -4 4 -6 -7 -8
leaf_value=-5.4472061146029631 -6.7968190735603482 13.912475837597494 -2.4091236728705963 -36.460844379448758 -4.318661152331285 8.0190079080059267 -19.540932386389049
leaf_weight=241491 145930 583308 648330 74421 253022 146092 82462
leaf_count=241491 145930 583308 648330 74421 253022 146092 82462
internal_value=4.69296e-10 2.33128 5.32084 -5.85427 -11.6239 0.615204 -9.03475
internal_weight=2.17506e+06 1.55559e+06 1.23164e+06 619465 327443 292022 323953
internal_count=2175056 1555591 1231638 619465 327443 292022 323953
is_linear=0
shrinkage=0.0914397


Tree=47
num_leaves=8
num_cat=0
split_feature=8 2 4 0 0 8 15
split_gain=3.5492e+09 3.45456e+09 2.01951e+09 2.00107e+09 2.87013e+09 8.0413e+08 5.18701e+08
threshold=99.500000000000014 1.5000000000000002 1.0000000180025095e-35 19.500000000000004 7.5000000000000009 8.5000000000000018 575.10018712128215
decision_type=2 2 2 2 2 2 2
left_child=1 5 -3 4 -2 -1 -5
right_child=3 2 -4 6 -6 -7 -8
leaf_value=22.403822867560237 0.023322890189337146 -3.7481712931900262 -41.969104343684229 1.0381659264506611 12.529040358551505 6.7010265576341279 -10.441590962215923
leaf_weight=41228 267492 1281732 11664 60862 359899 80524 71655
leaf_count=41228 267492 1281732 11664 60862 359899 80524 71655
internal_value=-5.77188e-09 -2.70673 -4.09285 5.04064 7.19715 12.0184 -5.1692
internal_weight=2.17506e+06 1.41515e+06 1.2934e+06 759908 627391 121752 132517
internal_count=2175056 1415148 1293396 759908 627391 121752 132517
is_linear=0
shrinkage=0.0914397


Tree=48
num_leaves=8
num_cat=0
split_feature=5 0 0 6 0 0 2
split_gain=3.03734e+09 2.94985e+09 6.96402e+09 2.48408e+09 1.96098e+09 4.30179e+09 8.56202e+08
threshold=-0.94999999999999984 14.500000000000002 8.5000000000000018 27.500000000000004 7.5000000000000009 19.500000000000004 1.5000000000000002
decision_type=2 2 2 2 2 2 2
left_child=4 2 -2 -3 6 -6 -1
right_child=1 3 -4 -5 5 -7 -8
leaf_value=8.9604631726666533 -7.0045153017665385 -2.5054975314449011 9.067063511256034 -15.218355960815696 15.393030425533789 -3.7842608623728728 -3.1010539804605441
leaf_weight=61057 470214 302041 433038 223689 281589 149845 253583
leaf_count=61057 470214 302041 433038 223689 281589 149845 253583
internal_value=-5.40302e-09 -2.46902 0.700537 -7.9146 4.72899 8.7324 -0.760474
internal_weight=2.17506e+06 1.42898e+06 903252 525730 746074 431434 314640
internal_count=2175056 1428982 903252 525730 746074 431434 314640
is_linear=0
shrinkage=0.0914397


Tree=49
num_leaves=8
num_cat=0
split_feature=1 0 0 14 9 1 5
split_gain=3.0055e+09 4.59327e+09 4.78052e+09 1.68438e+09 1.43952e+09 1.05773e+09 4.42846e+08
threshold=3.5000000000000004 21.500000000000004 5.5000000000000009 6151.916666666667 21.500000000000004 5.5000000000000009 -6.8499999999999988
decision_type=2 2 2 2 2 2 2
left_child=1 2 -1 5 -5 -2 -3
right_child=3 6 -4 4 -6 -7 -8
leaf_value=-5.0555276203766217 -24.971428704362516 0.26650964390767401 8.2363319496123832 1.7899154327760736 -5.8867181556446591 -5.6133276475259555 -17.745035651472332
leaf_weight=311014 48270 13056 830042 355212 480557 46178 90727
leaf_count=311014 48270 13056 830042 355212 480557 46178 90727
internal_value=-3.00031e-09 2.93828 4.61341 -3.93208 -2.62406 -15.5068 -15.4792
internal_weight=2.17506e+06 1.24484e+06 1.14106e+06 930217 835769 94448 103783
internal_count=2175056 1244839 1141056 930217 835769 94448 103783
is_linear=0
shrinkage=0.0914397


Tree=50
num_leaves=8
num_cat=0
split_feature=8 2 2 0 0 1 6
split_gain=2.89267e+09 2.50362e+09 1.83945e+09 1.4727e+09 2.11858e+09 7.56624e+08 5.70878e+08
threshold=99.500000000000014 2.5000000000000004 8.5000000000000018 18.500000000000004 7.5000000000000009 1.5000000000000002 6.5000000000000009
decision_type=2 2 2 2 2 2 2
left_child=1 5 -3 4 -2 -1 -5
right_child=3 2 -4 6 -6 -7 -8
leaf_value=13.825821841622249 0.64628730528428824 -6.9532417998859275 0.57209606607429342 -2.0113966401138557 11.623345816022566 2.6774439963603718 -30.414678351692309
leaf_weight=72273 267492 742548 428197 159891 326381 172130 6144
leaf_count=72273 267492 742548 428197 159891 326381 172130 6144
internal_value=-2.34324e-09 -2.44359 -4.20087 4.55061 6.67906 5.97416 -3.06244
internal_weight=2.17506e+06 1.41515e+06 1.17074e+06 759908 593873 244403 166035
internal_count=2175056 1415148 1170745 759908 593873 244403 166035
is_linear=0
shrinkage=0.0914397


Tree=51
num_leaves=8
num_cat=0
split_feature=5 4 3 1 14 14 15
split_gain=2.56037e+09 2.4944e+09 2.57703e+09 2.35824e+09 1.35162e+09 7.26286e+08 3.80134e+08
threshold=-4.7499999999999991 1.0000000180025095e-35 1.0000000180025095e-35 3.5000000000000004 6799.1887500000012 8962.9737500000028 868.14918527907173
decision_type=2 2 2 2 2 2 2
left_child=4 2 -2 -3 6 -6 -1
right_child=1 3 -4 -5 5 -7 -8
leaf_value=29.412135612557517 1.1121404517878537 -61.159523766350226 -6.5763110746037077 8.219771828402969 4.9371976571484586 23.916506748056559 76.684230857845677
leaf_weight=12496 1289064 11136 508223 6480 328281 17771 1605
leaf_count=12496 1289064 11136 508223 6480 328281 17771 1605
internal_value=1.61308e-09 -1.39755 -1.06194 -35.6385 7.04262 5.91185 34.7927
internal_weight=2.17506e+06 1.8149e+06 1.79729e+06 17616 360153 346052 14101
internal_count=2175056 1814903 1797287 17616 360153 346052 14101
is_linear=0
shrinkage=0.0914397


Tree=52
num_leaves=8
num_cat=0
split_feature=10 0 1 15 14 9 14
split_gain=2.49989e+09 2.2586e+09 3.38138e+09 8.34418e+08 7.15067e+08 6.73214e+08 4.37576e+08
threshold=5332.0700000000006 20.500000000000004 4.5000000000000009 495.10531482739026 7078.138750000001 18.500000000000004 5183.4552083333338
decision_type=2 2 2 2 2 2 2
left_child=4 2 -2 -3 6 -6 -1
right_child=1 3 -4 -5 5 -7 -8
leaf_value=-38.007840982279497 4.2437855988395192 0.72543882131804671 -4.4889242443628801 -10.643648966245912 -253.2033129397085 -43.628378005758755 -12.693755850901418
leaf_weight=6144 1309456 76254 517154 184753 199 360 80736
leaf_count=6144 1309456 76254 517154 184753 199 360 80736
internal_value=-8.57845e-10 0.634435 1.77136 -7.32213 -15.1472 -118.236 -14.4839
internal_weight=2.17506e+06 2.08762e+06 1.82661e+06 261007 87439 559 86880
internal_count=2175056 2087617 1826610 261007 87439 559 86880
is_linear=0
shrinkage=0.0914397


Tree=53
num_leaves=8
num_cat=0
split_feature=8 2 6 0 0 8 15
split_gain=2.38354e+09 2.05931e+09 1.56821e+09 1.30671e+09 2.09852e+09 6.7705e+08 4.30199e+08
threshold=95.500000000000014 1.5000000000000002 630.50000000000011 19.500000000000004 7.5000000000000009 15.500000000000002 587.6166218542993
decision_type=2 2 2 2 2 2 2
left_child=1 5 -3 4 -2 -1 -5
right_child=3 2 -4 6 -6 -7 -8
leaf_value=17.779097152388328 -0.56242966957228624 -5.0767527769701761 5.727762404033518 0.77035610769849749 8.936049383983601 2.821730726067933 -8.5344980992967532
leaf_weight=47132 336275 982723 126816 81365 461220 54635 84890
leaf_count=47132 336275 982723 126816 81365 461220 54635 84890
internal_value=1.74323e-09 -2.70001 -3.84184 3.39356 4.93088 9.74903 -3.98071
internal_weight=2.17506e+06 1.21131e+06 1.10954e+06 963750 797495 101767 166255
internal_count=2175056 1211306 1109539 963750 797495 101767 166255
is_linear=0
shrinkage=0.0914397


Tree=54
num_leaves=8
num_cat=0
split_feature=15 14 4 1 6 12 1
split_gain=2.18663e+09 2.30446e+09 1.91613e+09 1.44837e+09 1.21407e+09 1.01993e+09 7.39871e+08
threshold=415.11901068960037 8544.4060416666671 1.0000000180025095e-35 1.5000000000000002 1.0000000180025095e-35 6552.5250000000005 4.5000000000000009
decision_type=2 2 2 2 2 2 2
left_child=3 2 -2 5 -5 -1 -3
right_child=1 6 -4 4 -6 -7 -8
leaf_value=-1.3509307498119054 -1.9151209262706901 14.260559067907495 -36.024159678515005 7.3831822766964468 -8.0580186519659023 15.707722499895119 -1.3143987044032732
leaf_weight=36718 1672771 99538 13885 96515 76178 145165 34286
leaf_count=36718 1672771 99538 13885 96515 76178 145165 34286
internal_value=2.03161e-09 -1.27953 -2.19592 6.5694 0.57179 12.264 10.2702
internal_weight=2.17506e+06 1.82048e+06 1.68666e+06 354576 172693 181883 133824
internal_count=2175056 1820480 1686656 354576 172693 181883 133824
is_linear=0
shrinkage=0.0914397


Tree=55
num_leaves=8
num_cat=0
split_feature=14 1 14 5 15 0 2
split_gain=2.05929e+09 1.92552e+09 2.00389e+09 1.7151e+09 1.297e+09 1.13824e+09 4.92368e+08
threshold=6070.267083333335 1.0000000180025095e-35 8816.4520833333354 8.0500000000000025 898.88435407653583 8.5000000000000018 9.5000000000000018
decision_type=2 2 2 2 2 2 2
left_child=3 4 -3 6 -2 -5 -1
right_child=1 2 -4 5 -6 -7 -8
leaf_value=-1.4287476524770177 9.3455932819487941 -0.86662270831470867 15.40226395170626 -28.968260130703296 -26.339276886384734 -9.7513079992217051 17.746791607138299
leaf_weight=52676 254453 1656998 65818 36962 8811 85120 14218
leaf_count=52676 254453 1656998 65818 36962 8811 85120 14218
internal_value=-1.40193e-09 0.867887 -0.245091 -9.12123 8.15128 -15.5695 2.64692
internal_weight=2.17506e+06 1.98608e+06 1.72282e+06 188976 263264 122082 66894
internal_count=2175056 1986080 1722816 188976 263264 122082 66894
is_linear=0
shrinkage=0.0914397


Tree=56
num_leaves=8
num_cat=0
split_feature=8 15 6 4 6 0 1
split_gain=1.95273e+09 1.66494e+09 1.4814e+09 1.0637e+09 1.22105e+09 1.08698e+09 8.78048e+08
threshold=99.500000000000014 395.77982006637262 630.50000000000011 1.0000000180025095e-35 4.5000000000000009 18.500000000000004 1.5000000000000002
decision_type=2 2 2 2 2 2 2
left_child=1 6 -3 5 -5 -2 -1
right_child=3 2 -4 4 -6 -7 -8
leaf_value=11.918555658555292 5.9174351050122205 -4.3034359351445408 6.1111818289425655 7.3633379786969284 -66.989440006297556 -2.4877040547372204 -0.70890576824781348
leaf_weight=99495 587825 1102560 127392 3600 3792 164691 85701
leaf_count=99495 587825 1102560 127392 3600 3792 164691 85701
internal_value=-2.18498e-09 -2.0077 -3.22474 3.73887 -30.7787 4.07794 6.07509
internal_weight=2.17506e+06 1.41515e+06 1.22995e+06 759908 7392 752516 185196
internal_count=2175056 1415148 1229952 759908 7392 752516 185196
is_linear=0
shrinkage=0.0914397


Tree=57
num_leaves=8
num_cat=0
split_feature=10 8 1 1 0 4 6
split_gain=1.80687e+09 1.55548e+09 1.21199e+09 9.60115e+08 1.47819e+09 8.46968e+08 5.37319e+08
threshold=8307.3350000000009 95.500000000000014 1.0000000180025095e-35 4.5000000000000009 19.500000000000004 1.0000000180025095e-35 1.0000000180025095e-35
decision_type=2 2 2 2 2 2 2
left_child=1 2 -1 4 -2 -3 -5
right_child=3 5 -4 6 -6 -7 -8
leaf_value=3.9384748516265815 13.048037445149047 2.2666425912038868 -4.6474728767460558 4.0318258204988586 -6.1808157048957231 -25.695762157990149 -12.988701853720388
leaf_weight=162187 183782 813743 901824 36584 40858 9159 26919
leaf_count=162187 183782 813743 901824 36584 40858 9159 26919
internal_value=-9.4632e-10 -1.02989 -3.33872 6.74428 9.55065 1.95542 -3.1832
internal_weight=2.17506e+06 1.88691e+06 1.06401e+06 288143 224640 822902 63503
internal_count=2175056 1886913 1064011 288143 224640 822902 63503
is_linear=0
shrinkage=0.0914397


Tree=58
num_leaves=8
num_cat=0
split_feature=0 0 6 1 15 6 5
split_gain=1.84236e+09 6.50479e+09 4.37532e+09 2.86852e+09 2.14774e+09 1.04717e+09 7.80291e+08
threshold=7.5000000000000009 13.500000000000002 15.500000000000002 4.5000000000000009 749.30531982042669 78.500000000000014 8.4500000000000011
decision_type=2 2 2 2 2 2 2
left_child=4 3 -3 -2 5 -1 -6
right_child=1 2 -4 -5 6 -7 -8
leaf_value=0.042890031380419011 13.978745757315924 2.5246571880605653 -10.35437994252497 -0.73811273377925923 -9.5435785468227152 -13.845358997774056 -24.489202111118232
leaf_weight=520181 388928 527361 379100 154819 115884 49733 39050
leaf_count=520181 388928 527361 379100 154819 115884 49733 39050
internal_value=-3.08029e-10 1.88146 -2.86161 9.78847 -3.76425 -1.16905 -13.3105
internal_weight=2.17506e+06 1.45021e+06 906461 543747 724848 569914 154934
internal_count=2175056 1450208 906461 543747 724848 569914 154934
is_linear=0
shrinkage=0.0914397


Tree=59
num_leaves=8
num_cat=0
split_feature=0 0 0 15 1 2 14
split_gain=1.66896e+09 2.41626e+09 5.03968e+09 1.76586e+09 1.03753e+09 4.48238e+08 2.88995e+08
threshold=21.500000000000004 8.5000000000000018 12.500000000000002 749.30531982042669 4.5000000000000009 9.5000000000000018 8962.9737500000028
decision_type=2 2 2 2 2 2 2
left_child=1 3 -3 -1 6 -6 -2
right_child=4 2 -4 -5 5 -7 -8
leaf_value=-0.84409136906311721 -13.331608569639757 12.3831157099835 -0.57430669641121279 -11.223754208917354 -2.2781291278328122 17.558789343251284 20.161799644826672
leaf_weight=641153 127459 362496 815816 174299 39045 12597 2191
leaf_count=641153 127459 362496 815816 174299 39045 12597 2191
internal_value=-1.81027e-09 0.763792 3.41192 -3.0627 -8.39982 2.56068 -12.7656
internal_weight=2.17506e+06 1.99376e+06 1.17831e+06 815452 181292 51642 129650
internal_count=2175056 1993764 1178312 815452 181292 51642 129650
is_linear=0
shrinkage=0.0914397


Tree=60
num_leaves=8
num_cat=0
split_feature=5 4 1 1 14 2 7
split_gain=1.69029e+09 1.47905e+09 1.86986e+09 1.6685e+09 9.61639e+08 5.15642e+08 1.38906e+08
threshold=-6.1499999999999995 1.0000000180025095e-35 3.5000000000000004 3.5000000000000004 6786.9314583333344 2.5000000000000004 6.8500000000000005
decision_type=2 2 2 2 2 2 2
left_child=4 3 -3 -2 6 -6 -1
right_child=1 2 -4 -5 5 -7 -8
leaf_value=45.066001780374854 1.6579075279760225 -49.267141053132178 10.891365255009735 -3.8187169663991893 10.223496028101309 1.8876863214669219 9.8133618369748223
leaf_weight=6182 1089555 11520 6912 811585 123225 124976 1101
leaf_count=6182 1089555 11520 6912 811585 123225 124976 1101
internal_value=-1.22176e-09 -0.929951 -26.7077 -0.68003 6.98716 6.02619 39.7367
internal_weight=2.17506e+06 1.91957e+06 18432 1.90114e+06 255484 248201 7283
internal_count=2175056 1919572 18432 1901140 255484 248201 7283
is_linear=0
shrinkage=0.0914397


Tree=61
num_leaves=8
num_cat=0
split_feature=10 14 0 14 1 9 1
split_gain=1.60738e+09 1.40723e+09 1.3534e+09 6.21795e+08 1.09166e+09 3.91698e+08 3.3253e+08
threshold=5332.0700000000006 8914.7666666666682 20.500000000000004 7267.5633333333344 3.5000000000000004 4.5000000000000009 4.5000000000000009
decision_type=2 2 2 2 2 2 2
left_child=3 2 -2 5 -5 -1 -3
right_child=1 6 -4 4 -6 -7 -8
leaf_value=-31.986116947159008 1.0629347642316829 22.335518111739574 -6.0458249333809411 -361.4441848858952 -23.030783351828202 -9.7961911602709542 3.6253575242983973
leaf_weight=7256 1791036 29832 255925 117 250 79816 10824
leaf_count=7256 1791036 29832 255925 117 250 79816 10824
internal_value=2.1981e-09 0.508729 0.174149 -12.146 -130.917 -11.6454 17.3542
internal_weight=2.17506e+06 2.08762e+06 2.04696e+06 87439 367 87072 40656
internal_count=2175056 2087617 2046961 87439 367 87072 40656
is_linear=0
shrinkage=0.0914397


Tree=62
num_leaves=8
num_cat=0
split_feature=14 1 14 5 2 14 11
split_gain=1.48032e+09 1.38409e+09 1.29781e+09 9.21801e+08 8.64858e+08 6.32652e+08 4.41452e+08
threshold=5809.2379166666678 1.0000000180025095e-35 8816.4520833333354 1.6500000000000001 8.5000000000000018 5183.4552083333338 5029.8350000000009
decision_type=2 2 2 2 2 2 2
left_child=4 3 -3 -2 5 -1 -6
right_child=1 2 -4 -5 6 -7 -8
leaf_value=-45.100481565294331 11.50653357953605 -0.93061818243421823 12.150690814700189 1.139594752922175 18.362834170591508 -14.70423470498757 -6.2482273829633748
leaf_weight=6432 145183 1735315 65818 141716 8832 52104 19656
leaf_count=6432 145183 1735315 65818 141716 8832 52104 19656
internal_value=1.34824e-09 0.486999 -0.452594 6.3857 -11.6849 -18.0442 1.38182
internal_weight=2.17506e+06 2.08803e+06 1.80113e+06 286899 87024 58536 28488
internal_count=2175056 2088032 1801133 286899 87024 58536 28488
is_linear=0
shrinkage=0.0914397


Tree=63
num_leaves=8
num_cat=0
split_feature=0 0 6 1 15 1 5
split_gain=1.37471e+09 4.4577e+09 3.82658e+09 2.2056e+09 1.38514e+09 9.45631e+08 6.01361e+08
threshold=7.5000000000000009 13.500000000000002 15.500000000000002 4.5000000000000009 749.30531982042669 5.5000000000000009 8.4500000000000011
decision_type=2 2 2 2 2 2 2
left_child=4 3 -3 -2 5 -1 -6
right_child=1 2 -4 -5 6 -7 -8
leaf_value=-2.6939549127040565 11.84517045589695 2.7359774459699828 -9.3083790502443033 -1.0595881429294312 -7.6110218823187736 7.9209021894504827 -20.731614857212826
leaf_weight=487956 388928 527361 379100 154819 115884 81958 39050
leaf_count=487956 388928 527361 379100 154819 115884 81958 39050
internal_value=2.67686e-10 1.62523 -2.30121 8.17085 -3.2516 -1.16746 -10.918
internal_weight=2.17506e+06 1.45021e+06 906461 543747 724848 569914 154934
internal_count=2175056 1450208 906461 543747 724848 569914 154934
is_linear=0
shrinkage=0.0914397


Tree=64
num_leaves=8
num_cat=0
split_feature=8 14 15 2 0 0 6
split_gain=1.342e+09 1.21208e+09 9.30623e+08 8.69995e+08 7.41441e+08 1.1534e+09 4.62109e+08
threshold=99.500000000000014 6434.0366666666678 393.05766823332993 6.5000000000000009 18.500000000000004 6.5000000000000009 4.5000000000000009
decision_type=2 2 2 2 2 2 2
left_child=1 3 -3 -1 5 -2 -6
right_child=4 2 -4 -5 6 -7 -8
leaf_value=1.3302560542652826 -0.32391995634815712 6.3590235038200627 -1.3053052601058786 -9.5519379627519942 -1.3041749223017005 7.9011844677875311 -25.617518025605214
leaf_weight=83612 237648 154031 946008 231497 159219 356225 6816
leaf_count=83612 237648 154031 946008 231497 159219 356225 6816
internal_value=-2.34679e-09 -1.66439 -0.232121 -6.66442 3.09954 4.60977 -2.30228
internal_weight=2.17506e+06 1.41515e+06 1.10004e+06 315109 759908 593873 166035
internal_count=2175056 1415148 1100039 315109 759908 593873 166035
is_linear=0
shrinkage=0.0914397


Tree=65
num_leaves=8
num_cat=0
split_feature=0 0 0 5 1 2 15
split_gain=1.24386e+09 1.81323e+09 3.44713e+09 1.22453e+09 9.23612e+08 3.63523e+08 2.27254e+08
threshold=21.500000000000004 8.5000000000000018 12.500000000000002 9.2500000000000018 4.5000000000000009 9.5000000000000018 571.75315192514233
decision_type=2 2 2 2 2 2 2
left_child=1 3 -3 -1 6 -6 -2
right_child=4 2 -4 -5 5 -7 -8
leaf_value=-1.2126164372539681 -6.7433375166564389 10.372935825196352 -0.34339008385056946 -11.357819194761165 -1.267921731405008 16.596367468153311 -14.537903860579183
leaf_weight=699484 52681 362496 815816 115968 39045 12597 76969
leaf_count=699484 52681 362496 815816 115968 39045 12597 76969
internal_value=-5.04242e-10 0.659384 2.95338 -2.6554 -7.25159 3.0897 -11.3707
internal_weight=2.17506e+06 1.99376e+06 1.17831e+06 815452 181292 51642 129650
internal_count=2175056 1993764 1178312 815452 181292 51642 129650
is_linear=0
shrinkage=0.0914397


Tree=66
num_leaves=8
num_cat=0
split_feature=5 0 1 1 14 0 1
split_gain=1.21564e+09 1.14669e+09 1.55788e+09 6.06342e+08 5.79392e+08 3.4637e+08 1.45672e+08
threshold=-6.7499999999999991 21.500000000000004 4.5000000000000009 4.5000000000000009 6786.9314583333344 16.500000000000004 1.0000000180025095e-35
decision_type=2 2 2 2 2 2 2
left_child=4 2 -2 -3 6 -6 -1
right_child=1 3 -4 -5 5 -7 -8
leaf_value=6.4829578309959119 1.6239452144687658 -11.771440575661819 -4.3484771713150865 0.80397005795040832 3.1374560609254858 11.018720376975919 43.46257432101222
leaf_weight=1120 1292501 112802 508981 44787 140809 69706 4350
leaf_count=1120 1292501 112802 508981 44787 140809 69706 4350
internal_value=2.68041e-09 -0.717777 -0.0634708 -8.19749 6.51053 5.74711 35.8909
internal_weight=2.17506e+06 1.95907e+06 1.80148e+06 157589 215985 210515 5470
internal_count=2175056 1959071 1801482 157589 215985 210515 5470
is_linear=0
shrinkage=0.0914397


Tree=67
num_leaves=8
num_cat=0
split_feature=4 6 8 1 14 0 0
split_gain=1.21966e+09 2.11881e+09 1.14347e+09 1.01998e+09 9.49097e+08 7.1881e+08 2.72266e+08
threshold=1.0000000180025095e-35 12.500000000000002 95.500000000000014 4.5000000000000009 6467.3112500000016 18.500000000000004 5.5000000000000009
decision_type=2 2 2 2 2 2 2
left_child=2 6 4 -3 -1 -4 -2
right_child=1 3 5 -5 -6 -7 -8
leaf_value=-6.2341002124025566 21.21853163281175 -66.104620400328074 3.9041769902487431 -3.6168919986294923 -0.20971054995794453 -2.1928297861426977 -6.6159433607648488
leaf_weight=287788 5376 8208 747777 2976 910174 206277 6480
leaf_count=287788 5376 8208 747777 2976 910174 206277 6480
internal_value=1.68417e-09 -20.9267 0.224046 -49.477 -1.65696 2.58594 6.00536
internal_weight=2.17506e+06 23040 2.15202e+06 11184 1.19796e+06 954054 11856
internal_count=2175056 23040 2152016 11184 1197962 954054 11856
is_linear=0
shrinkage=0.0914397


Tree=68
num_leaves=8
num_cat=0
split_feature=13 10 1 1 0 0 13
split_gain=1.10418e+09 9.52144e+08 9.68028e+08 4.54352e+08 4.46066e+08 4.49157e+08 3.5431e+08
threshold=5719.4500000000007 9138.5850000000009 1.0000000180025095e-35 4.5000000000000009 8.5000000000000018 14.500000000000002 5225.5900000000011
decision_type=2 2 2 2 2 2 2
left_child=4 2 -2 -3 6 -6 -1
right_child=1 3 -4 -5 5 -7 -8
leaf_value=-20.707607303540581 5.3011304864881632 14.147046560351619 -0.59223763067673862 -3.9475925832599299 3.6089717370002554 -7.6756601524387014 -7.4584357031642883
leaf_weight=26154 271887 61221 1631024 14316 49152 73728 47574
leaf_count=26154 271887 61221 1631024 14316 49152 73728 47574
internal_value=1.30164e-09 0.649467 0.249804 10.7177 -6.53553 -3.16181 -12.1584
internal_weight=2.17506e+06 1.97845e+06 1.90291e+06 75537 196608 122880 73728
internal_count=2175056 1978448 1902911 75537 196608 122880 73728
is_linear=0
shrinkage=0.0914397


Tree=69
num_leaves=8
num_cat=0
split_feature=4 6 0 0 15 1 0
split_gain=1.00282e+09 1.75005e+09 1.11129e+09 3.07906e+09 9.5131e+08 8.4539e+08 2.25959e+08
threshold=1.0000000180025095e-35 12.500000000000002 7.5000000000000009 13.500000000000002 749.30531982042669 4.5000000000000009 5.5000000000000009
decision_type=2 2 2 2 2 2 2
left_child=2 6 4 -4 -1 -3 -2
right_child=1 5 3 -5 -6 -7 -8
leaf_value=-0.99950823597466798 19.360093249310548 -60.060389519762182 7.1413157124266577 -1.6084908881030879 -9.1231052138580946 -3.1715988784424325 -5.9971114638301692
leaf_weight=563870 5376 8208 537987 896861 153298 2976 6480
leaf_count=563870 5376 8208 537987 896861 153298 2976 6480
internal_value=5.86387e-10 -18.9755 0.203156 1.67219 -2.73596 -44.9226 5.50089
internal_weight=2.17506e+06 23040 2.15202e+06 1.43485e+06 717168 11184 11856
internal_count=2175056 23040 2152016 1434848 717168 11184 11856
is_linear=0
shrinkage=0.0914397


Tree=70
num_leaves=8
num_cat=0
split_feature=5 2 1 14 14 2 4
split_gain=9.73988e+08 9.80558e+08 2.01616e+09 1.29918e+09 7.26231e+08 4.22338e+08 1.7998e+08
threshold=-6.1499999999999995 8.5000000000000018 3.5000000000000004 5726.3429166666674 6941.387083333334 2.5000000000000004 1.0000000180025095e-35
decision_type=2 2 2 2 2 2 2
left_child=4 3 -3 -2 6 -6 -1
right_child=1 2 -4 -5 5 -7 -8
leaf_value=24.719789602112431 -17.427006137042593 6.7556511255709681 -3.7964970344765234 -1.5869118912825768 7.9978263901688678 0.38341187323436154 74.467020792147139
leaf_weight=11194 44841 357415 262649 1254667 123063 120584 643
leaf_count=11194 44841 357415 262649 1254667 123063 120584 643
internal_value=-5.06838e-10 -0.705921 2.28593 -2.13349 5.30392 4.22936 27.4221
internal_weight=2.17506e+06 1.91957e+06 620064 1.29951e+06 255484 243647 11837
internal_count=2175056 1919572 620064 1299508 255484 243647 11837
is_linear=0
shrinkage=0.0914397


Tree=71
num_leaves=8
num_cat=0
split_feature=8 2 5 14 2 5 8
split_gain=9.48066e+08 7.96861e+08 7.21391e+08 5.76351e+08 1.21487e+09 7.43888e+08 4.82871e+08
threshold=99.500000000000014 1.5000000000000002 -10.249999999999998 7229.3027083333345 10.500000000000002 -2.8499999999999992 8.5000000000000018
decision_type=2 2 2 2 2 2 2
left_child=1 6 -3 4 -2 -5 -1
right_child=3 2 -4 5 -6 -7 -8
leaf_value=13.721064519985175 3.7188153402314583 11.791321059976523 -2.4012331693704838 4.2524966524254095 24.715007787333974 -4.0121799490499948 1.5527734530989814
leaf_weight=41228 370701 30672 1262724 176281 24569 188357 80524
leaf_count=41228 370701 30672 1262724 176281 24569 188357 80524
internal_value=2.20042e-11 -1.39894 -2.06467 2.60519 5.02389 -0.0166955 5.67323
internal_weight=2.17506e+06 1.41515e+06 1.2934e+06 759908 395270 364638 121752
internal_count=2175056 1415148 1293396 759908 395270 364638 121752
is_linear=0
shrinkage=0.0914397


Tree=72
num_leaves=8
num_cat=0
split_feature=10 14 0 14 9 2 1
split_gain=8.92848e+08 8.28437e+08 8.15986e+08 5.59294e+08 8.04946e+08 2.43187e+08 2.25652e+08
threshold=5111.1450000000013 8962.9737500000028 8.5000000000000018 6847.2177083333345 19.500000000000004 6.5000000000000009 4.5000000000000009
decision_type=2 2 2 2 2 2 2
left_child=3 2 -2 5 -5 -1 -3
right_child=1 6 -4 4 -6 -7 -8
leaf_value=5.6377194854961949 -2.2661573348830735 19.593849131855141 1.4657957031046998 -225.1899572378378 -16.368041619717079 -13.123488669684757 2.5815576589168545
leaf_weight=6624 783679 23244 1306626 249 406 45168 9060
leaf_count=6624 783679 23244 1306626 249 406 45168 9060
internal_value=-1.23148e-09 0.291215 0.0666443 -11.7859 -95.7523 -10.724 14.8226
internal_weight=2.17506e+06 2.12261e+06 2.0903e+06 52447 655 51792 32304
internal_count=2175056 2122609 2090305 52447 655 51792 32304
is_linear=0
shrinkage=0.0914397


Tree=73
num_leaves=8
num_cat=0
split_feature=0 0 6 6 1 0 7
split_gain=8.70483e+08 1.41174e+09 3.53632e+09 9.83006e+08 5.00249e+08 4.09593e+08 3.57398e+08
threshold=20.500000000000004 8.5000000000000018 1.0000000180025095e-35 261.50000000000006 4.5000000000000009 22.500000000000004 3.2500000000000004
decision_type=2 2 2 2 2 2 2
left_child=1 3 -3 -1 5 -2 -6
right_child=4 2 -4 -5 6 -7 -8
leaf_value=-1.3429439074502474 -4.3471360374387018 13.854107830953804 0.37794564476404313 -14.157835465210184 -6.8066574522951218 -13.249083608034811 6.0902378914069528
leaf_weight=761884 129655 199350 888315 53568 28320 64824 49140
leaf_count=761884 129655 199350 888315 53568 28320 64824 49140
internal_value=3.46583e-09 0.691485 2.84789 -2.18477 -4.83924 -7.31435 1.37503
internal_weight=2.17506e+06 1.90312e+06 1.08766e+06 815452 271939 194479 77460
internal_count=2175056 1903117 1087665 815452 271939 194479 77460
is_linear=0
shrinkage=0.0914397


Tree=74
num_leaves=8
num_cat=0
split_feature=4 6 1 0 9 1 1
split_gain=8.46051e+08 1.41173e+09 9.1434e+08 2.09855e+09 1.07874e+09 7.03145e+08 2.34946e+08
threshold=1.0000000180025095e-35 12.500000000000002 3.5000000000000004 4.5000000000000009 25.500000000000004 4.5000000000000009 4.5000000000000009
decision_type=2 2 2 2 2 2 2
left_child=2 6 3 -1 -4 -3 -2
right_child=1 5 4 -5 -6 -7 -8
leaf_value=-5.5458984777924742 -4.5199762658598557 -54.539428454052562 1.0117728651761062 3.7527908014828029 -5.2522579084596925 -2.6569656622104025 22.813656161705527
leaf_weight=256286 7920 8208 479290 974729 441711 2976 3936
leaf_count=256286 7920 8208 479290 974729 441711 2976 3936
internal_value=-3.92133e-09 -17.4293 0.186602 1.81689 -1.99245 -40.7338 4.55435
internal_weight=2.17506e+06 23040 2.15202e+06 1.23102e+06 921001 11184 11856
internal_count=2175056 23040 2152016 1231015 921001 11184 11856
is_linear=0
shrinkage=0.0914397


Tree=75
num_leaves=8
num_cat=0
split_feature=0 0 6 6 14 5 2
split_gain=8.50832e+08 1.23206e+09 6.16641e+09 8.46572e+08 4.86595e+08 5.78521e+08 4.35229e+08
threshold=19.500000000000004 8.5000000000000018 3.5000000000000004 261.50000000000006 7022.3768750000017 -10.249999999999998 3.5000000000000004
decision_type=2 2 2 2 2 2 2
left_child=1 3 -3 -1 6 -6 -2
right_child=4 2 -4 -5 5 -7 -8
leaf_value=-1.0460215477025352 19.759790459703719 21.231957482237608 0.13402182364289011 -12.938400074135972 10.885736898576381 -8.9036304246211753 -1.6995183890556349
leaf_weight=761884 8276 133781 863238 53568 13345 165936 175028
leaf_count=761884 8276 133781 863238 53568 13345 165936 175028
internal_value=4.24999e-10 0.808892 2.96496 -1.82725 -4.04345 -7.43058 -0.730651
internal_weight=2.17506e+06 1.81247e+06 997019 815452 362585 179281 183304
internal_count=2175056 1812471 997019 815452 362585 179281 183304
is_linear=0
shrinkage=0.0914397


Tree=76
num_leaves=8
num_cat=0
split_feature=0 6 0 0 0 6 15
split_gain=8.69005e+08 3.02775e+09 7.13658e+09 2.80487e+09 1.63811e+09 1.15961e+09 7.98612e+08
threshold=13.500000000000002 11.500000000000002 18.500000000000004 8.5000000000000018 17.500000000000004 336.50000000000006 764.54058466089873
decision_type=2 2 2 2 2 2 2
left_child=3 2 -2 6 -3 -5 -1
right_child=1 4 -4 5 -6 -7 -8
leaf_value=-0.27466895785089368 26.508963039721774 -5.6148871427493363 -2.3677626395811955 13.392993102410031 -21.594783682435466 3.793726692386358 -7.5703634721828026
leaf_weight=660593 85803 325379 431055 166121 64224 287022 154859
leaf_count=660593 85803 325379 431055 166121 64224 287022 154859
internal_value=1.0604e-09 -2.16221 2.42603 1.54498 -8.24909 7.31279 -1.66016
internal_weight=2.17506e+06 906461 516858 1.2686e+06 389603 453143 815452
internal_count=2175056 906461 516858 1268595 389603 453143 815452
is_linear=0
shrinkage=0.0914397


Tree=77
num_leaves=8
num_cat=0
split_feature=0 6 0 0 0 6 13
split_gain=7.17348e+08 2.57413e+09 4.90896e+09 2.31537e+09 1.46535e+09 9.57235e+08 7.74991e+08
threshold=13.500000000000002 34.500000000000007 18.500000000000004 8.5000000000000018 17.500000000000004 336.50000000000006 5279.9250000000002
decision_type=2 2 2 2 2 2 2
left_child=3 2 -2 6 -3 -5 -1
right_child=1 4 -4 5 -6 -7 -8
leaf_value=-16.09508632802763 18.313788034774348 -5.8795466255403328 -2.5869418684767802 12.168342080658634 -23.625687735102513 3.4468295357630678 -0.96359245760175216
leaf_weight=29358 119338 300628 441807 166121 44688 287022 786094
leaf_count=29358 119338 300628 441807 166121 44688 287022 786094
internal_value=9.05371e-10 -1.9645 1.85799 1.40371 -8.17611 6.64411 -1.50836
internal_weight=2.17506e+06 906461 561145 1.2686e+06 345316 453143 815452
internal_count=2175056 906461 561145 1268595 345316 453143 815452
is_linear=0
shrinkage=0.0914397


Tree=78
num_leaves=8
num_cat=0
split_feature=4 6 1 0 0 1 0
split_gain=7.05845e+08 1.16397e+09 7.89856e+08 2.56287e+09 2.54376e+09 6.13834e+08 2.00315e+08
threshold=1.0000000180025095e-35 2.5000000000000004 4.5000000000000009 4.5000000000000009 4.5000000000000009 4.5000000000000009 5.5000000000000009
decision_type=2 2 2 2 2 2 2
left_child=2 6 4 -4 -1 -3 -2
right_child=1 5 3 -5 -6 -7 -8
leaf_value=-5.9720526365953095 17.740905393517494 -49.471849818167335 8.9211198257269437 -5.6413280972564381 3.1817452290814114 -2.2004457679856002 -6.4587370399460804
leaf_weight=320593 5280 8352 127648 484905 1218870 3168 6240
leaf_count=320593 5280 8352 127648 484905 1218870 3168 6240
internal_value=-7.1956e-10 -15.9197 0.17044 -2.60671 1.27547 -36.4722 4.63277
internal_weight=2.17506e+06 23040 2.15202e+06 612553 1.53946e+06 11520 11520
internal_count=2175056 23040 2152016 612553 1539463 11520 11520
is_linear=0
shrinkage=0.0914397


Tree=79
num_leaves=8
num_cat=0
split_feature=12 14 2 10 1 0 14
split_gain=6.58163e+08 1.44312e+09 1.29632e+09 1.28476e+09 1.16549e+09 7.81656e+08 3.69538e+08
threshold=8351.8800000000028 7219.0735416666676 10.500000000000002 8723.0650000000005 1.5000000000000002 6.5000000000000009 8914.7666666666682
decision_type=2 2 2 2 2 2 2
left_child=1 2 -1 -3 5 -2 -6
right_child=4 3 -4 -5 6 -7 -8
leaf_value=0.54570153741706984 1.979695459669464 -5.3984032622891744 13.936695062555698 8.1443377824053673 -0.26842187057851763 23.866317942228232 11.899093005440376
leaf_weight=1182283 21802 593513 63701 64983 188851 36460 23463
leaf_count=1182283 21802 593513 63701 64983 188851 36460 23463
internal_value=1.25805e-09 -0.599546 1.23032 -4.06195 4.21997 15.6762 1.07622
internal_weight=2.17506e+06 1.90448e+06 1.24598e+06 658496 270576 58262 212314
internal_count=2175056 1904480 1245984 658496 270576 58262 212314
is_linear=0
shrinkage=0.0914397


Tree=80
num_leaves=8
num_cat=0
split_feature=8 14 5 13 1 2 14
split_gain=6.6315e+08 7.66549e+08 9.13861e+08 6.419e+08 5.54969e+08 1.24051e+09 6.25956e+08
threshold=95.500000000000014 7229.3027083333345 -0.6499999999999998 6656.5650000000014 1.0000000180025095e-35 8.5000000000000018 6434.0366666666678
decision_type=2 2 2 2 2 2 2
left_child=4 2 -2 -3 5 -1 -6
right_child=1 3 -4 -5 6 -7 -8
leaf_value=-1.6492951528025852 13.766987746203945 -11.769418707543464 2.6505557672815434 0.14357537696420236 -6.5530189114925657 15.388729785734053 -1.0575821701314021
leaf_weight=120644 71945 41658 439918 410229 219735 50764 820163
leaf_count=120644 71945 41658 439918 410229 219735 50764 820163
internal_value=1.25946e-09 1.78999 4.21303 -0.954645 -1.42417 3.39667 -2.21879
internal_weight=2.17506e+06 963750 511863 451887 1.21131e+06 171408 1.0399e+06
internal_count=2175056 963750 511863 451887 1211306 171408 1039898
is_linear=0
shrinkage=0.0914397


Tree=81
num_leaves=8
num_cat=0
split_feature=5 14 14 2 1 1 15
split_gain=6.32674e+08 7.74675e+08 1.41957e+09 1.14542e+09 3.88919e+08 3.83364e+08 1.79788e+08
threshold=-8.9499999999999975 7229.3027083333345 8049.8022916666678 3.5000000000000004 2.5000000000000004 3.5000000000000004 224.7043717029365
decision_type=2 2 2 2 2 2 2
left_child=4 3 -3 -2 6 -6 -1
right_child=1 2 -4 -5 5 -7 -8
leaf_value=-12.168291894765405 10.901131990943504 -5.4838083150795018 2.4770130455961392 0.29210578575377988 -10.971137037465807 6.2113347778240522 15.314539648817087
leaf_weight=2098 91752 510790 295718 1172123 13872 49953 38750
leaf_count=2098 91752 510790 295718 1172123 13872 49953 38750
internal_value=-2.26402e-09 -0.350656 -2.56486 1.06228 6.93581 2.47682 13.903
internal_weight=2.17506e+06 2.07038e+06 806508 1.26388e+06 104673 63825 40848
internal_count=2175056 2070383 806508 1263875 104673 63825 40848
is_linear=0
shrinkage=0.0914397


Tree=82
num_leaves=8
num_cat=0
split_feature=10 0 6 0 14 9 15
split_gain=6.26747e+08 6.28437e+08 2.17918e+09 1.78722e+09 4.73824e+08 6.77452e+08 2.242e+08
threshold=5111.1450000000013 13.500000000000002 4.5000000000000009 8.5000000000000018 6847.2177083333345 17.500000000000004 393.05766823332993
decision_type=2 2 2 2 2 2 2
left_child=4 3 -3 -2 6 -6 -1
right_child=1 2 -4 -5 5 -7 -8
leaf_value=-37.735874012153218 -1.0159142425579799 2.456473088068313 -6.6734270357547691 6.234600677335945 -217.47658868569079 -20.799614937079397 -7.6421474071277942
leaf_weight=2160 795793 489889 394712 442215 221 434 49632
leaf_count=2160 795793 489889 394712 442215 221 434 49632
internal_value=5.72393e-10 0.243989 -1.61732 1.57396 -9.87461 -87.1593 -8.89721
internal_weight=2.17506e+06 2.12261e+06 884601 1.23801e+06 52447 655 51792
internal_count=2175056 2122609 884601 1238008 52447 655 51792
is_linear=0
shrinkage=0.0914397


Tree=83
num_leaves=8
num_cat=0
split_feature=0 6 0 6 6 0 14
split_gain=6.43272e+08 1.03994e+09 7.56324e+08 5.25526e+09 6.80028e+08 6.66579e+08 4.27456e+08
threshold=18.500000000000004 4.5000000000000009 8.5000000000000018 1.5000000000000002 261.50000000000006 19.500000000000004 6924.1602083333337
decision_type=2 2 2 2 2 2 2
left_child=2 5 4 -4 -1 -2 -3
right_child=1 6 3 -5 -6 -7 -8
leaf_value=-0.51348163822889714 6.6325434630496884 -15.811496586774657 27.784888889950299 0.6977478609249449 -11.172084032055425 -3.4891043959667556 -48.654173957670508
leaf_weight=761884 64006 22762 64474 841899 53568 362585 3878
leaf_count=761884 64006 22762 64474 841899 53568 362585 3878
internal_value=-7.65812e-10 -3.06501 0.806793 2.62457 -1.21366 -1.97045 -20.5924
internal_weight=2.17506e+06 453231 1.72182e+06 906373 815452 426591 26640
internal_count=2175056 453231 1721825 906373 815452 426591 26640
is_linear=0
shrinkage=0.0914397


Tree=84
num_leaves=8
num_cat=0
split_feature=0 6 0 0 6 0 1
split_gain=5.74867e+08 2.3484e+09 3.49219e+09 1.23891e+09 9.13698e+08 8.12264e+08 6.62416e+08
threshold=14.500000000000002 34.500000000000007 18.500000000000004 8.5000000000000018 251.50000000000003 17.500000000000004 2.5000000000000004
decision_type=2 2 2 2 2 2 2
left_child=3 2 -2 6 -5 -3 -1
right_child=1 5 -4 4 -6 -7 -8
leaf_value=1.9050201070501041 15.323486872034273 -6.8113880533912141 -2.3471033434969066 10.849522353903522 2.3083703902488706 -20.383749410538336 -3.3609047685220825
leaf_weight=349696 118618 210702 441807 141588 402201 44688 465756
leaf_count=349696 118618 210702 441807 141588 402201 44688 465756
internal_value=-7.79257e-12 -1.91883 1.393 1.15168 4.53226 -9.18627 -1.10268
internal_weight=2.17506e+06 815815 560425 1.35924e+06 543789 255390 815452
internal_count=2175056 815815 560425 1359241 543789 255390 815452
is_linear=0
shrinkage=0.0914397


Tree=85
num_leaves=8
num_cat=0
split_feature=14 12 5 2 2 1 15
split_gain=5.91941e+08 1.23018e+09 1.01843e+09 9.69148e+08 9.57418e+08 6.79084e+08 3.774e+08
threshold=7219.0735416666676 7850.1150000000007 -3.4499999999999997 11.500000000000002 10.500000000000002 1.5000000000000002 840.8428557859736
decision_type=2 2 2 2 2 2 2
left_child=2 3 6 -2 -4 -3 -1
right_child=1 5 4 -5 -6 -7 -8
leaf_value=10.198247173915181 -3.4644869071676094 8.4516575027380334 0.12602623764692331 -16.054510719825029 12.979831151418647 -0.20903753257045762 34.948196066020479
leaf_weight=60944 412885 97020 1145189 58346 50592 344453 5627
leaf_count=60944 412885 97020 1145189 58346 50592 344453 5627
internal_value=1.34315e-10 -1.77404 1.28267 -5.02333 0.669855 1.69427 12.2903
internal_weight=2.17506e+06 912704 1.26235e+06 471231 1.19578e+06 441473 66571
internal_count=2175056 912704 1262352 471231 1195781 441473 66571
is_linear=0
shrinkage=0.0914397


Tree=86
num_leaves=8
num_cat=0
split_feature=4 6 1 0 0 1 1
split_gain=5.64592e+08 9.52715e+08 5.67754e+08 2.25867e+09 1.99166e+09 5.06809e+08 1.90236e+08
threshold=1.0000000180025095e-35 2.5000000000000004 4.5000000000000009 4.5000000000000009 4.5000000000000009 4.5000000000000009 4.5000000000000009
decision_type=2 2 2 2 2 2 2
left_child=2 6 4 -4 -1 -3 -2
right_child=1 5 3 -5 -6 -7 -8
leaf_value=-5.3236660015961084 -3.7974011225488025 -44.644194064892282 8.6199672475465974 -5.0509341434373436 2.7760751095475986 -1.6910102203587194 21.290343246366461
leaf_weight=320593 7776 8352 127648 484905 1218870 3168 3744
leaf_count=320593 7776 8352 127648 484905 1218870 3168 3744
internal_value=-1.15247e-09 -14.238 0.152435 -2.2021 1.0893 -32.8321 4.35612
internal_weight=2.17506e+06 23040 2.15202e+06 612553 1.53946e+06 11520 11520
internal_count=2175056 23040 2152016 612553 1539463 11520 11520
is_linear=0
shrinkage=0.0914397


Tree=87
num_leaves=8
num_cat=0
split_feature=14 14 13 14 15 1 1
split_gain=5.27862e+08 6.14915e+08 9.03324e+08 8.78745e+08 7.26863e+07 5.24765e+07 3.57096e+07
threshold=9089.7204166666688 7219.0735416666676 6830.7350000000015 6555.1210416666672 529.2457088002119 4.5000000000000009 1.5000000000000002
decision_type=2 2 2 2 2 2 2
left_child=1 3 -3 -1 5 -2 -6
right_child=4 2 -4 -5 6 -7 -8
leaf_value=-1.5559980558908 24.536139144763219 -9.7050978313792999 -0.86722514992212874 3.3068108974330697 32.6549780600254 7.8498377801994215 6.5368566708578895
leaf_weight=552720 8074 110256 786368 709632 475 1958 5573
leaf_count=552720 8074 110256 786368 709632 475 1958 5573
internal_value=-5.70839e-10 -0.122936 -1.954 1.17763 16.506 21.2794 8.58813
internal_weight=2.17506e+06 2.15898e+06 896624 1.26235e+06 16080 10032 6048
internal_count=2175056 2158976 896624 1262352 16080 10032 6048
is_linear=0
shrinkage=0.0914397


Tree=88
num_leaves=8
num_cat=0
split_feature=5 14 14 8 14 10 1
split_gain=5.36599e+08 7.58556e+08 8.95239e+08 8.20687e+08 3.7172e+08 2.55088e+08 1.22247e+08
threshold=-6.7499999999999991 7229.3027083333345 8583.6602083333346 48.500000000000007 6786.9314583333344 5576.045000000001 1.0000000180025095e-35
decision_type=2 2 2 2 2 2 2
left_child=4 3 -3 -2 6 -6 -1
right_child=1 2 -4 -5 5 -7 -8
leaf_value=0.91871840021656193 -2.5122099257091799 -4.1283674493289855 5.5317462075039145 2.4945903593275123 -184.7993955958257 3.7677755098029677 34.794845973756757
leaf_weight=1120 404466 615491 92233 846881 60 210455 4350
leaf_count=1120 404466 615491 92233 846881 60 210455 4350
internal_value=-3.55787e-09 -0.476882 -2.86943 0.87627 4.32551 3.71403 27.8586
internal_weight=2.17506e+06 1.95907e+06 707724 1.25135e+06 215985 210515 5470
internal_count=2175056 1959071 707724 1251347 215985 210515 5470
is_linear=0
shrinkage=0.0914397


Tree=89
num_leaves=8
num_cat=0
split_feature=13 14 14 2 2 5 14
split_gain=5.12226e+08 5.64299e+08 9.0804e+08 8.46185e+08 2.5695e+08 2.78139e+08 2.75256e+08
threshold=5719.4500000000007 7219.0735416666676 8049.8022916666678 9.5000000000000018 6.5000000000000009 -2.0499999999999994 6240.9650000000011
decision_type=2 2 2 2 2 2 2
left_child=4 3 -3 -2 6 -6 -1
right_child=1 2 -4 -5 5 -7 -8
leaf_value=12.911538217903493 0.75096419163445316 -3.5253194293194317 2.4324980918086343 7.8019906624859923 -31.686561584430677 -5.7386097530052957 -2.747225470694254
leaf_weight=12624 904945 557656 346984 168863 3539 143848 36597
leaf_count=12624 904945 557656 346984 168863 3539 143848 36597
internal_value=-1.57982e-09 0.442352 -1.24014 1.85978 -4.45135 -6.36166 1.26887
internal_weight=2.17506e+06 1.97845e+06 904640 1.07381e+06 196608 147387 49221
internal_count=2175056 1978448 904640 1073808 196608 147387 49221
is_linear=0
shrinkage=0.0914397


Tree=90
num_leaves=8
num_cat=0
split_feature=0 6 0 0 3 0 6
split_gain=5.0133e+08 1.58541e+09 4.09496e+09 1.3516e+09 1.12237e+09 8.87968e+08 6.34377e+08
threshold=13.500000000000002 4.5000000000000009 18.500000000000004 9.5000000000000018 1.0000000180025095e-35 17.500000000000004 336.50000000000006
decision_type=2 2 2 2 2 2 2
left_child=3 2 -2 4 -1 -3 -5
right_child=1 5 -4 6 -6 -7 -8
leaf_value=1.3167492556130347 21.720783798934953 -3.8942715478127243 -1.6327458452434107 11.393157145227063 -5.8135164690460783 -15.063133381912666 3.2325242906747809
leaf_weight=647886 73612 333826 426591 118140 258123 72432 244446
leaf_count=647886 73612 333826 426591 118140 258123 72432 244446
internal_value=-9.75571e-10 -1.64228 1.80406 1.17348 -0.714672 -5.88558 5.89147
internal_weight=2.17506e+06 906461 500203 1.2686e+06 906009 406258 362586
internal_count=2175056 906461 500203 1268595 906009 406258 362586
is_linear=0
shrinkage=0.0914397


Tree=91
num_leaves=8
num_cat=0
split_feature=1 0 1 0 0 9 9
split_gain=5.09791e+08 1.82555e+09 1.69205e+09 1.58798e+09 1.48471e+09 9.79251e+08 2.14822e+08
threshold=5.5000000000000009 4.5000000000000009 4.5000000000000009 9.5000000000000018 4.5000000000000009 28.500000000000004 18.500000000000004
decision_type=2 2 2 2 2 2 2
left_child=2 6 4 -4 -1 -3 -2
right_child=1 5 3 -5 -6 -7 -8
leaf_value=-4.849875295984198 23.919608017404823 4.7075288434363021 -14.484268668914675 -1.2046536930243337 2.1071130817181505 -7.0157844694964204 13.025676108262946
leaf_weight=323953 24274 143380 129155 180532 1231638 101925 40199
leaf_count=323953 24274 143380 129155 180532 1231638 101925 40199
internal_value=8.95374e-10 3.43512 -0.570492 -6.74292 0.658315 -0.163545 17.1272
internal_weight=2.17506e+06 309778 1.86528e+06 309687 1.55559e+06 245305 64473
internal_count=2175056 309778 1865278 309687 1555591 245305 64473
is_linear=0
shrinkage=0.0914397


Tree=92
num_leaves=8
num_cat=0
split_feature=0 0 6 0 1 0 2
split_gain=4.95689e+08 1.43951e+09 1.09435e+09 3.37997e+09 8.84131e+08 8.70625e+08 4.67072e+08
threshold=12.500000000000002 9.5000000000000018 4.5000000000000009 18.500000000000004 4.5000000000000009 17.500000000000004 6.5000000000000009
decision_type=2 2 2 2 2 2 2
left_child=1 4 3 -2 -1 -4 -3
right_child=2 6 5 -5 -6 -7 -8
leaf_value=1.3217545919550144 19.613540884849765 10.793900091152684 -2.9586099138579267 -1.603457632954234 -5.006684222722793 -13.805283408204263 3.2120146985361271
leaf_weight=647886 73612 139615 424473 426591 258123 72432 132324
leaf_count=647886 73612 139615 424473 426591 258123 72432 132324
internal_value=3.97591e-10 1.27002 -1.50036 1.51893 -0.481225 -4.53969 7.1046
internal_weight=2.17506e+06 1.17795e+06 997108 500203 906009 496905 271939
internal_count=2175056 1177948 997108 500203 906009 496905 271939
is_linear=0
shrinkage=0.0914397


Tree=93
num_leaves=8
num_cat=0
split_feature=5 14 2 12 1 1 9
split_gain=4.7021e+08 6.00862e+08 7.77598e+08 7.76967e+08 2.49035e+08 3.29984e+08 1.49849e+08
threshold=-8.9499999999999975 7229.3027083333345 3.5000000000000004 7850.1150000000007 2.5000000000000004 3.5000000000000004 23.500000000000004
decision_type=2 2 2 2 2 2 2
left_child=4 2 -2 -3 6 -6 -1
right_child=1 3 -4 -5 5 -7 -8
leaf_value=5.7804377894665508 9.0486764313749877 -4.9329574152081328 0.30749610001012084 0.75254813010741717 -10.065374842959187 5.876013908502963 16.866642814440759
leaf_weight=19573 91752 426254 1172123 380254 13872 49953 21275
leaf_count=19573 91752 426254 1172123 380254 13872 49953 21275
internal_value=-2.09291e-09 -0.3023 0.942069 -2.25234 5.97934 2.41124 11.5545
internal_weight=2.17506e+06 2.07038e+06 1.26388e+06 806508 104673 63825 40848
internal_count=2175056 2070383 1263875 806508 104673 63825 40848
is_linear=0
shrinkage=0.0914397


Tree=94
num_leaves=8
num_cat=0
split_feature=4 6 5 0 1 1 0
split_gain=4.62773e+08 7.8187e+08 5.01909e+08 4.89684e+08 7.98194e+08 6.63978e+08 1.87245e+08
threshold=1.0000000180025095e-35 2.5000000000000004 14.65 21.500000000000004 4.5000000000000009 4.5000000000000009 5.5000000000000009
decision_type=2 2 2 2 2 2 2
left_child=3 6 -3 5 -5 -1 -2
right_child=1 2 -4 4 -6 -7 -8
leaf_value=1.6121433647545353 16.627502040874251 -21.327694539177699 -73.064764561976062 -8.2843777926563842 5.2325138461518188 -2.1055903082143024 -6.7692886838148034
leaf_weight=1411157 5280 9648 1872 128306 51066 561487 6240
leaf_count=1411157 5280 9648 1872 128306 51066 561487 6240
internal_value=-1.37632e-09 -12.8904 -29.735 0.138007 -4.43621 0.55394 3.95424
internal_weight=2.17506e+06 23040 11520 2.15202e+06 179372 1.97264e+06 11520
internal_count=2175056 23040 11520 2152016 179372 1972644 11520
is_linear=0
shrinkage=0.0914397


Tree=95
num_leaves=8
num_cat=0
split_feature=1 0 0 3 0 0 9
split_gain=4.96253e+08 1.62308e+09 1.23208e+09 1.22354e+09 1.3138e+09 1.24371e+09 2.18738e+08
threshold=5.5000000000000009 5.5000000000000009 9.5000000000000018 1.0000000180025095e-35 4.5000000000000009 10.500000000000002 17.500000000000004
decision_type=2 2 2 2 2 2 2
left_child=3 6 -3 4 -1 -5 -2
right_child=1 2 -4 5 -6 -7 -8
leaf_value=-4.6993951983760436 21.404676589635024 -12.892739363202509 3.1268688148484349 -12.106491112160745 1.8449189970903814 -0.47731473338727431 11.248426227221621
leaf_weight=323953 27518 51598 180810 142054 1231638 167633 49852
leaf_count=323953 27518 51598 180810 142054 1231638 167633 49852
internal_value=6.03823e-10 3.3892 -0.42972 -0.562865 0.482061 -5.81164 14.8607
internal_weight=2.17506e+06 309778 232408 1.86528e+06 1.55559e+06 309687 77370
internal_count=2175056 309778 232408 1865278 1555591 309687 77370
is_linear=0
shrinkage=0.0914397


Tree=96
num_leaves=8
num_cat=0
split_feature=0 6 0 0 6 6 2
split_gain=4.78841e+08 1.65467e+09 1.97725e+09 6.40546e+08 1.05549e+09 7.49467e+08 5.8074e+08
threshold=14.500000000000002 60.500000000000007 18.500000000000004 7.5000000000000009 251.50000000000003 78.500000000000014 4.5000000000000009
decision_type=2 2 2 2 2 2 2
left_child=3 2 -2 5 -5 -1 -3
right_child=1 6 -4 4 -6 -7 -8
leaf_value=0.14758740038319568 10.118162652634584 -15.468247051537864 -2.2103443496995134 8.762893106846068 0.68430297527767181 -9.8726006881883208 -5.3545290817630224
leaf_weight=655872 143440 68691 450015 195424 438969 68976 153669
leaf_count=655872 143440 68691 450015 195424 438969 68976 153669
internal_value=1.99712e-09 -1.75125 0.769496 1.0511 3.1729 -0.805926 -8.47884
internal_weight=2.17506e+06 815815 593455 1.35924e+06 634393 724848 222360
internal_count=2175056 815815 593455 1359241 634393 724848 222360
is_linear=0
shrinkage=0.0914397


Tree=97
num_leaves=8
num_cat=0
split_feature=14 14 12 5 2 14 11
split_gain=4.4813e+08 5.51096e+08 7.03528e+08 6.85951e+08 3.98551e+08 4.18789e+08 3.59526e+08
threshold=5809.2379166666678 7088.1866666666674 7704.3950000000013 -3.4499999999999997 8.5000000000000018 5183.4552083333338 5029.8350000000009
decision_type=2 2 2 2 2 2 2
left_child=4 3 -3 -2 5 -1 -6
right_child=1 2 -4 -5 6 -7 -8
leaf_value=-32.759258481973383 12.246838439530293 -3.7440805926639582 1.0705367077020345 1.2063101055079131 17.765699539967336 -8.0286261369624139 -4.4445638652954607
leaf_weight=6432 49322 491400 524744 1022566 8832 52104 19656
leaf_count=6432 49322 491400 524744 1022566 8832 52104 19656
internal_value=-9.63354e-12 0.267949 -1.25778 1.71433 -6.42911 -10.7461 2.44118
internal_weight=2.17506e+06 2.08803e+06 1.01614e+06 1.07189e+06 87024 58536 28488
internal_count=2175056 2088032 1016144 1071888 87024 58536 28488
is_linear=0
shrinkage=0.0914397


Tree=98
num_leaves=8
num_cat=0
split_feature=0 0 6 0 0 1 6
split_gain=4.15092e+08 1.05069e+09 9.12567e+08 2.62665e+09 6.817e+08 5.99788e+08 4.43221e+08
threshold=12.500000000000002 9.5000000000000018 3.5000000000000004 19.500000000000004 15.500000000000002 4.5000000000000009 495.50000000000006
decision_type=2 2 2 2 2 2 2
left_child=1 5 3 -2 -4 -1 -3
right_child=2 6 4 -5 -6 -7 -8
leaf_value=1.1510509411419796 12.356178515106944 9.6686174136746175 -1.0324371947063586 -2.6349557309738705 -7.8052918964616369 -4.0613428666588307 2.2773209345841599
leaf_weight=647886 133781 142369 271939 362585 228803 258123 129570
leaf_count=647886 133781 142369 271939 362585 228803 258123 129570
internal_value=2.51977e-09 1.1622 -1.37298 1.40547 -4.12714 -0.333966 6.14691
internal_weight=2.17506e+06 1.17795e+06 997108 496366 500742 906009 271939
internal_count=2175056 1177948 997108 496366 500742 906009 271939
is_linear=0
shrinkage=0.0914397


Tree=99
num_leaves=8
num_cat=0
split_feature=1 0 0 1 0 6 9
split_gain=4.41998e+08 1.39212e+09 9.91582e+08 9.42709e+08 1.12105e+09 1.08384e+09 1.81517e+08
threshold=5.5000000000000009 5.5000000000000009 8.5000000000000018 4.5000000000000009 4.5000000000000009 444.50000000000006 19.500000000000004
decision_type=2 2 2 2 2 2 2
left_child=3 6 -3 4 -1 -5 -2
right_child=1 2 -4 5 -6 -7 -8
leaf_value=-4.4002978783472564 19.277471110932481 -13.7014623034427 2.3313178363332443 -7.3298279527660855 1.644917356873091 8.2148997706917104 10.226502202860571
leaf_weight=323953 30740 38697 193711 266029 1231638 43658 46630
leaf_count=323953 30740 38697 193711 266029 1231638 43658 46630
internal_value=4.82636e-10 3.19857 -0.338214 -0.531206 0.385997 -5.13842 13.8226
internal_weight=2.17506e+06 309778 232408 1.86528e+06 1.55559e+06 309687 77370
internal_count=2175056 309778 232408 1865278 1555591 309687 77370
is_linear=0
shrinkage=0.0914397


Tree=100
num_leaves=8
num_cat=0
split_feature=10 14 5 8 14 9 9
split_gain=4.06711e+08 4.17914e+08 7.2155e+08 6.53194e+08 4.09501e+08 8.11858e+08 2.69836e+08
threshold=4845.5700000000006 7219.0735416666676 6.4500000000000011 14.500000000000002 6774.8722916666675 19.500000000000004 6.5000000000000009
decision_type=2 2 2 2 2 2 2
left_child=4 3 -3 -2 6 -6 -1
right_child=1 2 -4 -5 5 -7 -8
leaf_value=-34.379775905186314 -3.5910633564429357 -0.86861705373810094 -15.18743918934547 2.1490547859136808 -220.93662168302646 -2.9476167028161768 -6.0114298767271279
leaf_weight=3204 197210 881896 30441 1039270 230 377 22428
leaf_count=3204 197210 881896 30441 1039270 230 377 22428
internal_value=-2.07507e-09 0.138171 -1.34638 1.23355 -11.3154 -85.5464 -9.55747
internal_weight=2.17506e+06 2.14882e+06 912337 1.23648e+06 26239 607 25632
internal_count=2175056 2148817 912337 1236480 26239 607 25632
is_linear=0
shrinkage=0.0914397


Tree=101
num_leaves=8
num_cat=0
split_feature=5 14 14 2 15 2 14
split_gain=4.07934e+08 4.76047e+08 6.76998e+08 5.89462e+08 2.14972e+08 3.52884e+08 1.43938e+08
threshold=-8.9499999999999975 7229.3027083333345 8768.1847916666684 3.5000000000000004 611.79363368977988 11.500000000000002 6786.9314583333344
decision_type=2 2 2 2 2 2 2
left_child=4 3 -3 -2 6 -6 -1
right_child=1 2 -4 -5 5 -7 -8
leaf_value=34.916534229626052 7.8841623449186704 -2.8268524111981668 6.6523769902323693 0.27354056251023645 3.6014028423990432 -21.972859894358301 7.9182657030507428
leaf_weight=1693 91752 737630 68878 1172123 30984 5280 66716
leaf_count=1693 91752 737630 68878 1172123 30984 5280 66716
internal_value=-4.5725e-10 -0.28157 -2.0173 0.82604 5.56932 -0.122183 8.58642
internal_weight=2.17506e+06 2.07038e+06 806508 1.26388e+06 104673 36264 68409
internal_count=2175056 2070383 806508 1263875 104673 36264 68409
is_linear=0
shrinkage=0.0914397


Tree=102
num_leaves=8
num_cat=0
split_feature=4 1 5 8 0 14 0
split_gain=3.84825e+08 6.70606e+08 7.57242e+08 3.96242e+08 3.97797e+08 3.5265e+08 9.20603e+07
threshold=1.0000000180025095e-35 4.5000000000000009 14.65 99.500000000000014 22.500000000000004 7088.1866666666674 3.5000000000000004
decision_type=2 2 2 2 2 2 2
left_child=3 2 -2 4 -1 -5 -3
right_child=1 6 -4 5 -6 -7 -8
leaf_value=-0.46505145394697922 -16.229295897893479 35.671658957233355 -90.383117127158471 3.9449250725955518 -8.2356621911221097 -0.02424369274086104 7.3554317323501488
leaf_weight=1342059 14880 1152 1248 349258 57441 403258 5760
