tree
version=v4
num_class=1
num_tree_per_iteration=1
label_index=0
max_feature_idx=15
objective=regression
feature_names=hour_of_day day_of_week month is_weekend is_swiss_holiday temperature solar_radiation wind_speed cloud_cover hours_ahead solar_mw_lag_1h solar_mw_lag_24h solar_mw_lag_48h solar_mw_lag_168h solar_mw_rolling_24h_mean solar_mw_rolling_24h_std
feature_infos=[0:23] [0:6] [1:12] [0:1] [0:1] [-20.199999999999999:25.399999999999999] [0:991] [0:20.800000000000001] [0:100] [1:48] [0:3948.3200000000002] [0:3948.3200000000002] [0:3948.3200000000002] [0:3948.3200000000002] [0:1265.3158333333333] [0:1420.8552518848298]
tree_sizes=920 937 937 938 941 940 941 940 940 939 943 941 942 940 940 942 942 939 944 940 943 937 940 936 939 940 940 943 942 938 942 938 939 947 940 942 934 935 948 935 943 943 940 936 932 938 947 938 935 937 941 930 936 945 928 942 935 936 936 951 931 939 940 930 950 944 929 951 938 938 935 946 939 938 942 940 943 940 939 939 935 948 944 947 950 939 938 937 947 943 939 941 939 933 935 939 934 938 950 926 945 948 933 944 934 934 933 931 923 953 936 945 935 941 926 944 938 942 933 951 926 953 923 949 950 921 951 949 930 946 931 937 948 933 953 944 940 951 932 921 941 920 955 939 930 954 920 931 952 929 947 931 940 930 960 936 931 952 937 937 954 931 931 941 923 929 953 932 923 935 954 920 952 940 953 934 957 927 924 953 936 944 937 936 932 921 935 944 936 935 942 923 944 939 958 948 931 923 947 932 942 940 923 937 945 949 935 927 946 944 935 952 931 945 937 940 939 938 958 938 927 944 955 954 931 948 938 940 935 926 944 942 959 939 948 936 944 950 928 951 945 943 947 944 960 920 947 922 944 947 958 934 950 944 924 953 949 931 947 946 949 948 923 950 953 949 934 948 917 952 956 944 955 930 949 948 955 952 928 913 946 949 948 944 953 944 955 954 952 950 954 953 935 917 950 954 950 955 947 951 953 952 954 956 955 944 932 950 929 947 949 955 947 958 958 955 957 950 906 951 951 949 951 920 953 926 952 951 952 952 952 954 955 937 956 957 948 949 960 954 934 940 958 956 946 922 931 934 950 944 939 954 955 952 929 934 949 945 942 946 952 957 955 933 953 957 953 954 952 949 946 951 915 951 957 951 943 950 941 927 947 938 951 934 952 940 951 936 939 954 928 934 919 937 941 951 919 938 943 954 955 955 941 957 956 950 950 949 941 947 919 951 949 954 946 945 928 928 916 943 945 936 941 955 946 953 951 946 953 948 956 951 919 945 951 951 957 945 950 925 931 951 955 942 920 950 947 916 951 931 953 946 960 921 954 947 954 947 946 926 920 951 941 953 939 948 953 950 922 953 949 956 956 945 956 916 945 920 936 950 955 926 931 955 952 949 950 927 945 944 956 951 957 933 956 950 958 939 954 946 933 919 944 917 941 948 923 931 955 921 945 952 936 951 935 950 919 953 959 932 949 925 951 954 949 947 939 947 945 956 956 957 939 936 941 951 955 942 947 939 918 945 929 955 953 937 935 951 931 936 933 941 942 953 956 946 947 923 944 922 960 957 954 938 956 938 959 942 952 930 958 955 957 961 948 958 955 937 961 943 920 954 933 955 952 949 944 936 935 950 952 951 956 953 948 946 951 944 952 951 923 954 953 922 960 939 951 933 948 920 954 961 932 937 939 939 954 955 931 956 933 957 923 961 937 957 949 922 938 953 922 948 944 961 934 959 947 929 948 938 949 913 959 946 960 956 942 933 915 951 930 926 942 959 951 941 960 937 949 947 960 939 935 959 923 930 956 947 951 946 934 958 948 937 930 941 954 947 938 945 935 920 951 959 945 936 926 955 960 951 952 955 935 940 946 956 953 938 911 936

Tree=0
num_leaves=8
num_cat=0
split_feature=6 6 6 15 0 15 6
split_gain=4.8224e+11 5.78289e+10 4.79616e+10 1.48601e+10 8.15551e+09 6.87108e+09 3.37047e+09
threshold=352.50000000000006 87.500000000000014 569.50000000000011 871.06410757588242 13.500000000000002 676.54227891790424 27.500000000000004
decision_type=2 2 2 2 2 2 2
left_child=1 6 5 -4 -3 -2 -1
right_child=2 4 3 -5 -6 -7 -8
leaf_value=346.54654095878999 369.90995018432881 361.65086685502905 387.1552336810966 404.56907221251407 354.0491411755026 380.05128193062933 350.68175046287422
leaf_weight=1181677 153454 240854 153298 45417 173663 69356 160007
leaf_count=1181677 153454 240854 153298 45417 173663 69356 160007
internal_value=355.901 349.737 381.585 391.135 358.466 373.067 347.04
internal_weight=2.17773e+06 1.7562e+06 421525 198715 414517 222810 1.34168e+06
internal_count=2177726 1756201 421525 198715 414517 222810 1341684
is_linear=0
shrinkage=1


Tree=1
num_leaves=8
num_cat=0
split_feature=6 6 6 15 0 15 6
split_gain=4.56796e+11 5.47777e+10 4.5431e+10 1.4076e+10 7.7252e+09 6.51905e+09 3.19263e+09
threshold=352.50000000000006 87.500000000000014 569.50000000000011 871.06410757588242 13.500000000000002 811.9719125583706 27.500000000000004
decision_type=2 2 2 2 2 2 2
left_child=1 6 5 -4 -3 -2 -1
right_child=2 4 3 -5 -6 -7 -8
leaf_value=-9.1045438474085518 14.508491907088677 5.5959066281581267 30.418310614736292 47.366518413998335 -1.8025561040199145 26.223707600957439 -5.0799059329398544
leaf_weight=1181677 181006 240854 153298 45417 173663 41804 160007
leaf_count=1181677 181006 240854 153298 45417 173663 41804 160007
internal_value=-3.12936e-08 -5.99971 24.9966 34.2919 2.4963 16.7065 -8.62457
internal_weight=2.17773e+06 1.7562e+06 421525 198715 414517 222810 1.34168e+06
internal_count=2177726 1756201 421525 198715 414517 222810 1341684
is_linear=0
shrinkage=0.0267391


Tree=2
num_leaves=8
num_cat=0
split_feature=6 6 6 15 0 15 6
split_gain=4.32694e+11 5.19333e+10 4.30339e+10 1.34234e+10 7.0262e+09 6.26191e+09 3.57673e+09
threshold=352.50000000000006 95.500000000000014 569.50000000000011 811.9719125583706 13.500000000000002 676.54227891790424 27.500000000000004
decision_type=2 2 2 2 2 2 2
left_child=1 6 5 -4 -3 -2 -1
right_child=2 4 3 -5 -6 -7 -8
leaf_value=-8.8610966752819973 13.246206377723665 5.6508971638600887 28.644251153614238 43.58435098686337 -1.5441365976473531 22.927556354752223 -4.7717647252242923
leaf_weight=1181677 153454 232118 135793 62922 166751 69356 175655
leaf_count=1181677 153454 232118 135793 62922 166751 69356 175655
internal_value=2.01607e-07 -5.83928 24.3282 33.375 2.64294 16.2598 -8.33189
internal_weight=2.17773e+06 1.7562e+06 421525 198715 398869 222810 1.35733e+06
internal_count=2177726 1756201 421525 198715 398869 222810 1357332
is_linear=0
shrinkage=0.0267391


Tree=3
num_leaves=8
num_cat=0
split_feature=6 6 6 15 0 15 6
split_gain=4.09863e+11 4.91931e+10 4.07633e+10 1.28005e+10 6.65547e+09 5.95091e+09 3.38801e+09
threshold=352.50000000000006 95.500000000000014 569.50000000000011 877.76349039668526 13.500000000000002 820.05100792862697 27.500000000000004
decision_type=2 2 2 2 2 2 2
left_child=1 6 5 -4 -3 -2 -1
right_child=2 4 3 -5 -6 -7 -8
leaf_value=-8.6241595653574468 13.783836200362909 5.4997975564171044 28.894902835406931 45.320034369621752 -1.5028479039217095 25.18030545355963 -4.6441722699998458
leaf_weight=1181677 182903 232118 155311 43404 166751 39907 175655
leaf_count=1181677 182903 232118 155311 43404 166751 39907 175655
internal_value=1.79682e-09 -5.68314 23.6777 32.4825 2.57227 15.825 -8.1091
internal_weight=2.17773e+06 1.7562e+06 421525 198715 398869 222810 1.35733e+06
internal_count=2177726 1756201 421525 198715 398869 222810 1357332
is_linear=0
shrinkage=0.0267391


Tree=4
num_leaves=8
num_cat=0
split_feature=6 6 6 15 0 15 6
split_gain=3.88492e+11 5.58059e+10 3.07514e+10 1.09308e+10 6.44523e+09 6.30316e+09 4.17119e+09
threshold=382.50000000000006 110.50000000000001 611.50000000000011 877.76349039668526 12.500000000000002 901.36448973806796 38.500000000000007
decision_type=2 2 2 2 2 2 2
left_child=1 6 5 -4 -3 -2 -1
right_child=2 4 3 -5 -6 -7 -8
leaf_value=-8.3332247249875611 16.096720566195636 6.6925839368106539 29.432826934288297 45.942030489632884 -0.028525607240786344 29.53912012811157 -3.838616265115887
leaf_weight=1217013 190810 211918 127607 36985 196695 28690 168008
leaf_count=1217013 190810 211918 127607 36985 196695 28690 168008
internal_value=2.05112e-07 -5.2262 24.4053 33.1426 3.45723 17.8537 -7.78801
internal_weight=2.17773e+06 1.79363e+06 384092 164592 408613 219500 1.38502e+06
internal_count=2177726 1793634 384092 164592 408613 219500 1385021
is_linear=0
shrinkage=0.0267391


Tree=5
num_leaves=8
num_cat=0
split_feature=6 6 6 15 0 15 6
split_gain=3.68177e+11 4.40944e+10 3.67583e+10 1.20508e+10 5.54821e+09 5.30593e+09 3.95525e+09
threshold=352.50000000000006 110.50000000000001 565.50000000000011 811.9719125583706 12.500000000000002 619.48409155404909 36.500000000000007
decision_type=2 2 2 2 2 2 2
left_child=1 6 5 -4 -3 -2 -1
right_child=2 4 3 -5 -6 -7 -8
leaf_value=-8.1220121817607502 11.451829432090664 5.9649180106883488 26.206633132824312 40.22049239522282 -0.57661036692833811 19.977903660561804 -3.8143285356294347
leaf_weight=1210677 131991 191483 139147 64075 179697 86312 174344
leaf_count=1210677 131991 191483 139147 64075 179697 86312 174344
internal_value=1.26747e-07 -5.38638 22.4413 30.6251 2.79801 14.8228 -7.57977
internal_weight=2.17773e+06 1.7562e+06 421525 203222 371180 218303 1.38502e+06
internal_count=2177726 1756201 421525 203222 371180 218303 1385021
is_linear=0
shrinkage=0.0267391


Tree=6
num_leaves=8
num_cat=0
split_feature=6 6 6 15 15 0 6
split_gain=3.49003e+11 4.99475e+10 2.79052e+10 8.30363e+09 7.04844e+09 5.86611e+09 3.74866e+09
threshold=382.50000000000006 110.50000000000001 642.50000000000011 928.88363608410793 919.78859453281314 14.500000000000002 34.500000000000007
decision_type=2 2 2 2 2 2 2
left_child=1 6 4 -4 -2 -3 -1
right_child=2 5 3 -5 -6 -7 -8
leaf_value=-7.9137525602337515 15.888113796266008 5.4246150166719254 29.490912240957943 46.288988797184707 29.809345968685431 -1.4836954819214543 -3.771203555198321
leaf_weight=1205594 211940 280671 116852 25660 29640 127942 179427
leaf_count=1205594 211940 280671 116852 25660 29640 127942 179427
internal_value=8.80753e-08 -4.95348 23.1318 32.5155 17.5961 3.26153 -7.37709
internal_weight=2.17773e+06 1.79363e+06 384092 142512 241580 408613 1.38502e+06
internal_count=2177726 1793634 384092 142512 241580 408613 1385021
is_linear=0
shrinkage=0.0267391


Tree=7
num_leaves=8
num_cat=0
split_feature=6 6 6 15 0 14 6
split_gain=3.31206e+11 4.04259e+10 3.28686e+10 1.27049e+10 6.11901e+09 4.94232e+09 1.19638e+09
threshold=324.50000000000006 527.50000000000011 66.500000000000014 774.13973216604688 14.500000000000002 210.63208333333333 16.500000000000004
decision_type=2 2 2 2 2 2 2
left_child=2 5 6 -3 -4 -2 -1
right_child=1 3 4 -5 -6 -7 -8
leaf_value=-7.8007030658788112 5.371024059374637 23.386450594902286 3.3631678898431812 36.387313411453746 -3.3451598966825489 14.39004835232527 -5.2641167846324439
leaf_weight=1141004 59822 156904 280291 81740 148843 158648 150474
leaf_count=1141004 59822 156904 280291 81740 148843 158648 150474
internal_value=1.75024e-07 20.2312 -5.37482 27.8395 1.03642 11.9204 -7.50516
internal_weight=2.17773e+06 457114 1.72061e+06 238644 429134 218470 1.29148e+06
internal_count=2177726 457114 1720612 238644 429134 218470 1291478
is_linear=0
shrinkage=0.0267391


Tree=8
num_leaves=8
num_cat=0
split_feature=6 6 6 15 0 14 6
split_gain=3.13846e+11 4.22614e+10 2.76835e+10 1.20835e+10 5.58796e+09 5.34235e+09 1.1395e+09
threshold=309.50000000000006 527.50000000000011 66.500000000000014 811.9719125583706 13.500000000000002 210.63208333333333 8.5000000000000018
decision_type=2 2 2 2 2 2 2
left_child=2 5 6 -3 -4 -2 -1
right_child=1 3 4 -5 -6 -7 -8
leaf_value=-7.6313670574089976 4.8584175505121623 23.149198061696904 3.4016507058375192 36.269754594932607 -2.9227843732829779 13.712367542577187 -5.3746484289637575
leaf_weight=1104405 68003 166874 232746 71770 174980 171875 187073
leaf_count=1104405 68003 166874 232746 71770 174980 171875 187073
internal_value=-2.31212e-08 19.1282 -5.3868 27.0951 0.687451 11.2024 -7.30448
internal_weight=2.17773e+06 478522 1.6992e+06 238644 407726 239878 1.29148e+06
internal_count=2177726 478522 1699204 238644 407726 239878 1291478
is_linear=0
shrinkage=0.0267391


Tree=9
num_leaves=8
num_cat=0
split_feature=6 6 6 15 15 14 6
split_gain=2.97509e+11 4.28988e+10 2.44705e+10 7.3563e+09 6.29484e+09 5.2771e+09 4.54042e+09
threshold=382.50000000000006 136.50000000000003 642.50000000000011 928.88363608410793 919.78859453281314 170.97812500000001 38.500000000000007
decision_type=2 2 2 2 2 2 2
left_child=1 6 4 -4 -2 -3 -1
right_child=2 5 3 -5 -6 -7 -8
leaf_value=-7.2804403151376311 14.559263985902366 -0.9541209240420313 27.297633316557601 43.10848146819643 27.715247016277473 5.9414968737270417 -3.0791558753221442
leaf_weight=1217013 211940 118090 116852 25660 29640 241871 216660
leaf_count=1217013 211940 118090 116852 25660 29640 241871 216660
internal_value=1.11468e-07 -4.57346 21.3572 30.1445 16.1734 3.6793 -6.64553
internal_weight=2.17773e+06 1.79363e+06 384092 142512 241580 359961 1.43367e+06
internal_count=2177726 1793634 384092 142512 241580 359961 1433673
is_linear=0
shrinkage=0.0267391


Tree=10
num_leaves=8
num_cat=0
split_feature=6 6 6 15 0 14 6
split_gain=2.82208e+11 3.81954e+10 2.47408e+10 1.10958e+10 5.31922e+09 4.88329e+09 1.03659e+09
threshold=309.50000000000006 527.50000000000011 66.500000000000014 737.69615335368542 14.500000000000002 210.63208333333333 7.5000000000000009
decision_type=2 2 2 2 2 2 2
left_child=2 5 6 -3 -4 -2 -1
right_child=1 3 4 -5 -6 -7 -8
leaf_value=-7.2372899592121334 4.5382772576851531 21.178275166997281 2.8793757907381696 33.044110097112835 -3.5203809308453979 13.003285847044426 -5.1067782539914459
leaf_weight=1099729 68003 147454 264691 91190 143035 171875 191749
leaf_count=1099729 68003 147454 264691 91190 143035 171875 191749
internal_value=-4.2453e-08 18.1385 -5.10808 25.7124 0.634267 10.6035 -6.92097
internal_weight=2.17773e+06 478522 1.6992e+06 238644 407726 239878 1.29148e+06
internal_count=2177726 478522 1699204 238644 407726 239878 1291478
is_linear=0
shrinkage=0.0267391


Tree=11
num_leaves=8
num_cat=0
split_feature=6 6 6 15 15 6 14
split_gain=2.67376e+11 3.87814e+10 2.23183e+10 6.6713e+09 5.92911e+09 5.29071e+09 4.6039e+09
threshold=382.50000000000006 158.50000000000003 647.50000000000011 928.88363608410793 919.78859453281314 38.500000000000007 159.73895833333336
decision_type=2 2 2 2 2 2 2
left_child=1 5 4 -4 -2 -1 -3
right_child=2 6 3 -5 -6 -7 -8
leaf_value=-6.8977398426884395 13.835406258511535 -0.69503564320369171 26.059208461255324 41.293133689388121 26.480486491409646 -2.6900189639204819 6.2858729385197094
leaf_weight=1217013 214938 97471 113830 25082 30242 259150 220000
leaf_count=1217013 214938 97471 113830 25082 30242 259150 220000
internal_value=1.17018e-07 -4.33567 20.2467 28.8099 15.3951 -6.15905 4.14257
internal_weight=2.17773e+06 1.79363e+06 384092 138912 245180 1.47616e+06 317471
internal_count=2177726 1793634 384092 138912 245180 1476163 317471
is_linear=0
shrinkage=0.0267391


Tree=12
num_leaves=8
num_cat=0
split_feature=6 6 6 15 0 14 6
split_gain=2.53667e+11 3.45648e+10 2.21475e+10 1.01328e+10 5.04801e+09 4.49024e+09 1.00516e+09
threshold=309.50000000000006 527.50000000000011 68.500000000000014 737.69615335368542 13.500000000000002 162.74520833333332 16.500000000000004
decision_type=2 2 2 2 2 2 2
left_child=2 5 6 -3 -4 -2 -1
right_child=1 3 4 -5 -6 -7 -8
leaf_value=-6.8194309107243765 3.0933334619530086 20.06887336530362 3.2290817388262703 31.408103799318667 -2.8178134261352485 11.958610916648775 -4.5266569366367655
leaf_weight=1141004 52214 147454 229914 91190 172964 187664 155322
leaf_count=1141004 52214 147454 229914 91190 172964 187664 155322
internal_value=7.94415e-08 17.1968 -4.84289 24.4018 0.633022 10.0289 -6.54472
internal_weight=2.17773e+06 478522 1.6992e+06 238644 402878 239878 1.29633e+06
internal_count=2177726 478522 1699204 238644 402878 239878 1296326
is_linear=0
shrinkage=0.0267391


Tree=13
num_leaves=8
num_cat=0
split_feature=6 6 6 15 0 0 6
split_gain=2.40327e+11 2.98347e+10 2.37991e+10 8.24761e+09 5.41108e+09 4.34143e+09 1.61594e+09
threshold=324.50000000000006 578.50000000000011 87.500000000000014 871.06410757588242 10.500000000000002 13.500000000000002 19.500000000000004
decision_type=2 2 2 2 2 2 2
left_child=2 4 6 -3 -2 -4 -1
right_child=1 3 5 -5 -6 -7 -8
leaf_value=-6.624452239094194 16.847822282387657 22.273022380939601 3.8025833952880799 35.506517495656119 8.7550882116244875 -1.986064897001161 -3.9520000376343276
leaf_weight=1153527 88509 147340 217659 43647 177618 161269 188157
leaf_count=1153527 88509 147340 217659 43647 177618 161269 188157
internal_value=2.63479e-08 17.2336 -4.57843 25.2973 11.4466 1.33898 -6.24967
internal_weight=2.17773e+06 457114 1.72061e+06 190987 266127 378928 1.34168e+06
internal_count=2177726 457114 1720612 190987 266127 378928 1341684
is_linear=0
shrinkage=0.0267391


Tree=14
num_leaves=8
num_cat=0
split_feature=6 6 6 15 15 6 14
split_gain=2.28168e+11 3.41033e+10 1.88327e+10 5.88099e+09 5.34727e+09 4.64347e+09 4.35354e+09
threshold=386.50000000000006 165.50000000000003 660.50000000000011 901.36448973806796 934.76080501367824 48.500000000000007 113.07104166666666
decision_type=2 2 2 2 2 2 2
left_child=1 5 3 -2 -4 -1 -3
right_child=2 6 4 -5 -6 -7 -8
leaf_value=-6.3160789715731633 12.955299448499622 -1.9478722151414098 24.648801190479311 24.961972385972572 38.986385067765916 -2.263979923178872 5.7299821091159719
leaf_weight=1245727 216321 67366 106440 33713 22536 241375 244248
leaf_count=1245727 216321 67366 106440 33713 22536 241375 244248
internal_value=-3.34234e-08 -3.97298 18.8551 14.5742 27.154 -5.65837 4.07015
internal_weight=2.17773e+06 1.79872e+06 379010 250034 128976 1.4871e+06 311614
internal_count=2177726 1798716 379010 250034 128976 1487102 311614
is_linear=0
shrinkage=0.0267391


Tree=15
num_leaves=8
num_cat=0
split_feature=6 6 6 15 15 6 14
split_gain=2.16132e+11 3.15135e+10 1.8425e+10 5.57522e+09 5.24828e+09 4.52329e+09 4.02686e+09
threshold=382.50000000000006 168.50000000000003 647.50000000000011 928.88363608410793 661.77873293126561 38.500000000000007 159.73895833333336
decision_type=2 2 2 2 2 2 2
left_child=1 5 4 -4 -2 -1 -3
right_child=2 6 3 -5 -6 -7 -8
leaf_value=-6.1924949183374647 10.838755953316159 -0.67316034180870166 23.469340605684518 37.39570052876342 18.971882418160785 -2.3929304418962922 6.0270812010075021
leaf_weight=1217013 156054 92392 113830 25082 89126 274553 209676
leaf_count=1217013 156054 92392 113830 25082 89126 274553 209676
internal_value=-8.55549e-08 -3.89812 18.2034 25.9839 13.7952 -5.49311 3.97771
internal_weight=2.17773e+06 1.79363e+06 384092 138912 245180 1.49157e+06 302068
internal_count=2177726 1793634 384092 138912 245180 1491566 302068
is_linear=0
shrinkage=0.0267391


Tree=16
num_leaves=8
num_cat=0
split_feature=6 6 6 15 0 0 6
split_gain=2.05022e+11 2.85473e+10 1.77673e+10 8.58841e+09 4.14726e+09 3.96782e+09 1.38981e+09
threshold=309.50000000000006 527.50000000000011 87.500000000000014 737.69615335368542 10.500000000000002 13.500000000000002 19.500000000000004
decision_type=2 2 2 2 2 2 2
left_child=2 4 6 -3 -2 -4 -1
right_child=1 3 5 -5 -6 -7 -8
leaf_value=-6.1128530868007402 13.969969841931459 18.019021134593508 3.3774835366967828 28.458429700535262 6.4856036854383525 -2.316358720752917 -3.6344331990858021
leaf_weight=1153527 78861 147454 204651 91190 161017 152869 188157
leaf_count=1153527 78861 147454 204651 91190 161017 152869 188157
internal_value=-4.67314e-10 15.4603 -4.35385 22.0081 8.94612 0.942901 -5.76528
internal_weight=2.17773e+06 478522 1.6992e+06 238644 239878 357520 1.34168e+06
internal_count=2177726 478522 1699204 238644 239878 357520 1341684
is_linear=0
shrinkage=0.0267391


Tree=17
num_leaves=8
num_cat=0
split_feature=6 6 6 15 14 6 15
split_gain=1.94606e+11 3.38711e+10 1.34251e+10 5.36144e+09 4.5865e+09 4.0062e+09 3.83214e+09
threshold=413.50000000000006 168.50000000000003 687.50000000000011 901.36448973806796 159.73895833333336 48.500000000000007 877.76349039668526
decision_type=2 2 2 2 2 2 2
left_child=1 5 3 -2 -3 -1 -4
right_child=2 4 6 -5 -6 -7 -8
leaf_value=-5.8254061387437437 13.209802933907662 -0.62586349993265833 23.281089100655201 24.804235478037548 6.161144574763405 -2.0903511423735792 34.878778165461505
leaf_weight=1245727 204022 101406 81516 33148 238912 245839 27156
leaf_count=1245727 204022 101406 81516 33148 238912 245839 27156
internal_value=3.75993e-08 -3.47306 18.3964 14.8303 4.13879 -5.2098 26.1792
internal_weight=2.17773e+06 1.83188e+06 345842 237170 340318 1.49157e+06 108672
internal_count=2177726 1831884 345842 237170 340318 1491566 108672
is_linear=0
shrinkage=0.0267391


Tree=18
num_leaves=8
num_cat=0
split_feature=6 6 6 15 0 0 6
split_gain=1.84345e+11 2.92364e+10 1.32351e+10 8.46708e+09 4.34562e+09 3.91321e+09 6.00552e+08
threshold=285.50000000000006 503.50000000000006 60.500000000000007 816.62925629384415 14.500000000000002 10.500000000000002 6.5000000000000009
decision_type=2 2 2 2 2 2 2
left_child=2 5 6 -3 -4 -2 -1
right_child=1 3 4 -5 -6 -7 -8
leaf_value=-5.8508590539774552 12.287796035767441 17.276640756360585 2.089706766297021 27.917423221157254 -3.786361585315726 5.1332249147453144 -4.1919571703107286
leaf_weight=1094621 81645 186563 252951 74944 139672 165365 181965
leaf_count=1094621 81645 186563 252951 74944 139672 165365 181965
internal_value=8.56675e-08 14.0949 -4.29396 20.3261 -0.000650189 7.49805 -5.6144
internal_weight=2.17773e+06 508517 1.66921e+06 261507 392623 247010 1.27659e+06
internal_count=2177726 508517 1669209 261507 392623 247010 1276586
is_linear=0
shrinkage=0.0267391


Tree=19
num_leaves=8
num_cat=0
split_feature=6 6 6 15 6 14 15
split_gain=1.74995e+11 3.05269e+10 1.23699e+10 4.92093e+09 4.26838e+09 4.18167e+09 3.54421e+09
threshold=413.50000000000006 186.50000000000003 687.50000000000011 928.88363608410793 48.500000000000007 162.74520833333332 950.66279671424843
decision_type=2 2 2 2 2 2 2
left_child=1 4 3 -2 -1 -3 -4
right_child=2 5 6 -5 -6 -7 -8
leaf_value=-5.5185745418158367 12.57180297480585 -0.3861745470063484 22.741866669099277 24.253007191864878 -1.8427387386159784 6.3848345346932973 35.642991487323364
leaf_weight=1245727 207731 93221 90362 29439 275882 217054 18310
leaf_count=1245727 207731 93221 90362 29439 275882 217054 18310
internal_value=-1.13295e-07 -3.29342 17.4448 14.0217 -4.85211 4.35051 24.9156
internal_weight=2.17773e+06 1.83188e+06 345842 237170 1.52161e+06 310275 108672
internal_count=2177726 1831884 345842 237170 1521609 310275 108672
is_linear=0
shrinkage=0.0267391


Tree=20
num_leaves=8
num_cat=0
split_feature=6 6 6 15 0 14 6
split_gain=1.65837e+11 2.88153e+10 9.91059e+09 8.0148e+09 4.02858e+09 3.99676e+09 5.57535e+08
threshold=266.50000000000006 499.50000000000006 60.500000000000007 698.54116472848136 13.500000000000002 173.12791666666666 5.5000000000000009
decision_type=2 2 2 2 2 2 2
left_child=2 5 6 -3 -4 -2 -1
right_child=1 3 4 -5 -6 -7 -8
leaf_value=-5.5504480129834048 1.3078959055489725 15.228547442059339 2.1046330316022348 24.640953806690096 -3.5508485282913957 8.720429239790926 -3.9694171766731001
leaf_weight=1089778 70500 153321 208833 111882 158331 198273 186808
leaf_count=1089778 70500 153321 208833 111882 158331 198273 186808
internal_value=2.6215e-08 12.9462 -4.20561 19.1994 -0.334163 6.7761 -5.31909
internal_weight=2.17773e+06 533976 1.64375e+06 265203 367164 268773 1.27659e+06
internal_count=2177726 533976 1643750 265203 367164 268773 1276586
is_linear=0
shrinkage=0.0267391


Tree=21
num_leaves=8
num_cat=0
split_feature=6 6 6 0 14 6 15
split_gain=1.57269e+11 2.74921e+10 1.14125e+10 4.7091e+09 3.87203e+09 3.77457e+09 3.27888e+09
threshold=413.50000000000006 186.50000000000003 687.50000000000011 13.500000000000002 80.142916666666679 38.500000000000007 698.54116472848136
decision_type=2 2 2 2 2 2 2
left_child=1 5 3 -2 -3 -1 -4
right_child=2 4 6 -5 -6 -7 -8
leaf_value=-5.2676113596859588 15.745473336652186 -3.1936488121865496 18.964454982121431 7.5615222009870822 5.3498647117855977 -1.93931609536606 28.255989551782438
leaf_weight=1217013 164845 44234 53128 72325 266041 304596 55544
leaf_count=1217013 164845 44234 53128 72325 266041 304596 55544
internal_value=-1.81467e-08 -3.12216 16.5377 13.2498 4.13187 -4.60135 23.7135
internal_weight=2.17773e+06 1.83188e+06 345842 237170 310275 1.52161e+06 108672
internal_count=2177726 1831884 345842 237170 310275 1521609 108672
is_linear=0
shrinkage=0.0267391


Tree=22
num_leaves=8
num_cat=0
split_feature=6 6 6 15 0 14 6
split_gain=1.49084e+11 2.12952e+10 1.28589e+10 6.26813e+09 3.98462e+09 3.05697e+09 1.42642e+09
threshold=309.50000000000006 553.50000000000011 110.50000000000001 928.88363608410793 10.500000000000002 113.07104166666666 19.500000000000004
decision_type=2 2 2 2 2 2 2
left_child=2 4 6 -3 -2 -4 -1
right_child=1 3 5 -5 -6 -7 -8
leaf_value=-5.2049640946208591 12.765331634294872 17.395685291219849 -3.5496436743019433 29.674233962162198 5.7797948118529039 2.6447832056252678 -2.905038636042125
leaf_weight=1153527 87261 179216 74742 35637 176408 239441 231494
leaf_count=1153527 87261 179216 74742 35637 176408 239441 231494
internal_value=-4.83917e-08 13.1835 -3.71268 19.4323 8.09165 1.17117 -4.82055
internal_weight=2.17773e+06 478522 1.6992e+06 214853 263669 314183 1.38502e+06
internal_count=2177726 478522 1699204 214853 263669 314183 1385021
is_linear=0
shrinkage=0.0267391


Tree=23
num_leaves=8
num_cat=0
split_feature=6 6 6 15 14 6 15
split_gain=1.41576e+11 2.467e+10 1.04336e+10 4.39861e+09 3.60769e+09 3.35596e+09 3.05181e+09
threshold=413.50000000000006 186.50000000000003 687.50000000000011 919.78859453281314 210.63208333333333 48.500000000000007 972.68056624161534
decision_type=2 2 2 2 2 2 2
left_child=1 5 3 -2 -3 -1 -4
right_child=2 4 6 -5 -6 -7 -8
leaf_value=-4.9544674700278337 11.140133837826543 0.125536734348732 20.682710526929931 21.971300621716448 6.1064195032441351 -1.6951040733672376 33.292838266798363
leaf_weight=1245727 206360 113980 92562 30810 196295 275882 16110
leaf_count=1245727 206360 113980 92562 30810 196295 275882 16110
internal_value=7.37315e-08 -2.9623 15.691 12.5472 3.90933 -4.36351 22.5521
internal_weight=2.17773e+06 1.83188e+06 345842 237170 310275 1.52161e+06 108672
internal_count=2177726 1831884 345842 237170 310275 1521609 108672
is_linear=0
shrinkage=0.0267391


Tree=24
num_leaves=8
num_cat=0
split_feature=6 6 6 15 0 0 6
split_gain=1.34174e+11 2.36e+10 7.89259e+09 6.97075e+09 3.83218e+09 3.49935e+09 4.73881e+08
threshold=266.50000000000006 499.50000000000006 60.500000000000007 676.54227891790424 13.500000000000002 9.5000000000000018 4.5000000000000009
decision_type=2 2 2 2 2 2 2
left_child=2 5 6 -3 -4 -2 -1
right_child=1 3 4 -5 -6 -7 -8
leaf_value=-4.9938043324390167 11.546681770489624 13.26146839236814 2.0506138496065152 21.952795064883677 -3.4652876112562168 4.3640680691918874 -3.5549314005110566
leaf_weight=1083831 63499 141852 208833 123351 158331 205274 192755
leaf_count=1083831 63499 141852 208833 123351 158331 205274 192755
internal_value=6.28004e-08 11.6449 -3.78287 17.304 -0.327991 6.061 -4.77655
internal_weight=2.17773e+06 533976 1.64375e+06 265203 367164 268773 1.27659e+06
internal_count=2177726 533976 1643750 265203 367164 268773 1276586
is_linear=0
shrinkage=0.0267391


Tree=25
num_leaves=8
num_cat=0
split_feature=6 6 6 0 0 15 6
split_gain=1.27319e+11 2.13111e+10 1.01687e+10 4.44149e+09 3.61006e+09 2.83425e+09 2.46343e+09
threshold=405.50000000000006 168.50000000000003 687.50000000000011 14.500000000000002 12.500000000000002 972.68056624161534 27.500000000000004
decision_type=2 2 2 2 2 2 2
left_child=1 6 3 -2 -3 -4 -1
right_child=2 4 5 -5 -6 -7 -8
leaf_value=-4.7718953698974174 13.312618033098142 5.9271980206066672 19.663284508446754 3.9117563545542526 0.33603046972966799 31.815622237297667 -2.0934340637861686
leaf_weight=1181677 202580 174545 92562 43680 156683 16110 309889
leaf_count=1181677 202580 174545 92562 43680 156683 16110 309889
internal_value=6.45693e-08 -2.85296 14.6517 11.6452 3.28237 21.4648 -4.21542
internal_weight=2.17773e+06 1.82279e+06 354932 246260 331228 108672 1.49157e+06
internal_count=2177726 1822794 354932 246260 331228 108672 1491566
is_linear=0
shrinkage=0.0267391


Tree=26
num_leaves=8
num_cat=0
split_feature=6 6 15 0 14 6 6
split_gain=1.20699e+11 2.35293e+10 8.3716e+09 7.15712e+09 3.71634e+09 2.87937e+09 2.38267e+09
threshold=437.50000000000006 189.50000000000003 676.54227891790424 13.500000000000002 173.12791666666666 48.500000000000007 729.50000000000011
decision_type=2 2 2 2 2 2 2
left_child=1 5 6 -4 -3 -1 -2
right_child=2 4 3 -5 -6 -7 -8
leaf_value=-4.5695468163348947 9.8463156186236827 -0.40521288759523061 23.675711493602773 10.077895238727447 5.735010436046716 -1.5694688964713719 17.73650633661963
leaf_weight=1245727 146354 101779 103056 37836 229143 280174 33657
leaf_count=1245727 146354 101779 103056 37836 229143 280174 33657
internal_value=-1.16569e-07 -2.61696 15.1424 20.0241 3.84651 -4.0187 11.3216
internal_weight=2.17773e+06 1.85682e+06 320903 140892 330922 1.5259e+06 180011
internal_count=2177726 1856823 320903 140892 330922 1525901 180011
is_linear=0
shrinkage=0.0267391


Tree=27
num_leaves=8
num_cat=0
split_feature=6 6 6 15 0 15 6
split_gain=1.14517e+11 2.02309e+10 6.64119e+09 6.10172e+09 3.55275e+09 3.38077e+09 4.21536e+08
threshold=266.50000000000006 503.50000000000006 60.500000000000007 816.62925629384415 13.500000000000002 658.3781472043496 2.5000000000000004
decision_type=2 2 2 2 2 2 2
left_child=2 5 6 -3 -4 -2 -1
right_child=1 3 4 -5 -6 -7 -8
leaf_value=-4.6238204152409228 3.740217342403005 13.48204355099481 1.9646126168455844 22.515062460578552 -3.3463855707366026 10.282083800373711 -3.3209024372554712
leaf_weight=1063469 192541 186563 208833 74944 158331 79928 213117
leaf_count=1063469 192541 186563 208833 74944 158331 79928 213117
internal_value=-6.96659e-08 10.7581 -3.49481 16.0708 -0.325633 5.65926 -4.40631
internal_weight=2.17773e+06 533976 1.64375e+06 261507 367164 272469 1.27659e+06
internal_count=2177726 533976 1643750 261507 367164 272469 1276586
is_linear=0
shrinkage=0.0267391


Tree=28
num_leaves=8
num_cat=0
split_feature=6 6 6 0 0 15 6
split_gain=1.08524e+11 1.62179e+10 1.02699e+10 4.43076e+09 3.25462e+09 2.86556e+09 1.88449e+09
threshold=386.50000000000006 158.50000000000003 678.50000000000011 14.500000000000002 12.500000000000002 737.69615335368542 21.500000000000004
decision_type=2 2 2 2 2 2 2
left_child=1 6 3 -2 -3 -4 -1
right_child=2 4 5 -5 -6 -7 -8
leaf_value=-4.4239998242141718 11.728265783983899 5.2764796470126969 15.826089284629596 2.7427451836422243 -0.099340978442424357 24.297900688834964 -2.0908684729252189
leaf_weight=1161623 215858 167459 63007 47952 155094 52193 314540
leaf_count=1161623 215858 167459 63007 47952 155094 52193 314540
internal_value=-2.33841e-08 -2.74001 13.0036 10.095 2.69161 19.6644 -3.92686
internal_weight=2.17773e+06 1.79872e+06 379010 263810 322553 115200 1.47616e+06
internal_count=2177726 1798716 379010 263810 322553 115200 1476163
is_linear=0
shrinkage=0.0267391


Tree=29
num_leaves=8
num_cat=0
split_feature=6 6 15 0 14 6 0
split_gain=1.03091e+11 2.00247e+10 7.44104e+09 6.53758e+09 3.48601e+09 2.4079e+09 2.20941e+09
threshold=437.50000000000006 189.50000000000003 676.54227891790424 13.500000000000002 80.142916666666679 32.500000000000007 13.500000000000002
decision_type=2 2 2 2 2 2 2
left_child=1 5 6 -4 -3 -1 -2
right_child=2 4 3 -5 -6 -7 -8
leaf_value=-4.2656210232228347 11.935396655830504 -3.371468590476959 22.08677527251351 9.0908113547685083 4.6332412827945655 -1.6748795967885795 4.7057479309404933
leaf_weight=1199647 141586 45024 103056 37836 285898 326254 38425
leaf_count=1199647 141586 45024 103056 37836 285898 326254 38425
internal_value=-6.02023e-08 -2.41856 13.9944 18.5968 3.54415 -3.71169 10.3922
internal_weight=2.17773e+06 1.85682e+06 320903 140892 330922 1.5259e+06 180011
internal_count=2177726 1856823 320903 140892 330922 1525901 180011
is_linear=0
shrinkage=0.0267391


Tree=30
num_leaves=8
num_cat=0
split_feature=6 6 6 15 14 0 6
split_gain=9.77384e+10 1.74636e+10 5.60795e+09 4.842e+09 4.04918e+09 3.19344e+09 4.02764e+08
threshold=266.50000000000006 553.50000000000011 64.500000000000014 950.66279671424843 210.63208333333333 13.500000000000002 2.5000000000000004
decision_type=2 2 2 2 2 2 2
left_child=2 4 6 -3 -2 -4 -1
right_child=1 3 5 -5 -6 -7 -8
leaf_value=-4.2678313791253135 1.1979437546141001 14.190219692817735 1.9427562941590464 25.64565457970653 7.8716943276490579 -3.1644732345903126 -3.0191348603398911
leaf_weight=1063469 90884 184058 202737 30795 228239 154047 223497
leaf_count=1063469 90884 184058 202737 30795 228239 154047 223497
internal_value=-1.26384e-08 9.9388 -3.22864 15.8321 5.97106 -0.262369 -4.05098
internal_weight=2.17773e+06 533976 1.64375e+06 214853 319123 356784 1.28697e+06
internal_count=2177726 533976 1643750 214853 319123 356784 1286966
is_linear=0
shrinkage=0.0267391


Tree=31
num_leaves=8
num_cat=0
split_feature=6 6 15 0 0 6 0
split_gain=9.27942e+10 1.79738e+10 6.85651e+09 6.14152e+09 3.39366e+09 2.13901e+09 2.08074e+09
threshold=437.50000000000006 189.50000000000003 676.54227891790424 13.500000000000002 12.500000000000002 21.500000000000004 13.500000000000002
decision_type=2 2 2 2 2 2 2
left_child=1 5 6 -4 -3 -1 -2
right_child=2 4 3 -5 -6 -7 -8
leaf_value=-4.0803508532611525 11.316891615632949 5.893824908819596 21.077668856730774 8.4815113566133427 0.46702622266411131 -1.7319807459036509 4.3009179222073683
leaf_weight=1161623 141586 176078 103056 37836 154844 364278 38425
leaf_count=1161623 141586 176078 103056 37836 154844 364278 38425
internal_value=5.61058e-08 -2.2946 13.2771 17.695 3.35453 -3.51972 9.81927
internal_weight=2.17773e+06 1.85682e+06 320903 140892 330922 1.5259e+06 180011
internal_count=2177726 1856823 320903 140892 330922 1525901 180011
is_linear=0
shrinkage=0.0267391


Tree=32
num_leaves=8
num_cat=0
split_feature=6 6 15 0 6 14 6
split_gain=8.78981e+10 1.70255e+10 6.50166e+09 4.29913e+09 3.57773e+09 3.2661e+09 2.04186e+09
threshold=437.50000000000006 189.50000000000003 824.33853397917244 13.500000000000002 729.50000000000011 210.63208333333333 52.500000000000007
decision_type=2 2 2 2 2 2 2
left_child=1 6 4 -4 -2 -3 -1
right_child=2 5 3 -5 -6 -7 -8
leaf_value=-3.8787898370626523 8.9987395860748371 -0.28936151830941204 23.274990639294199 9.5149558161444308 16.947079347606245 5.2502652437279096 -1.3144466060850852
leaf_weight=1256239 188212 118604 58656 22447 51588 212318 269662
leaf_count=1256239 188212 118604 58656 22447 51588 212318 269662
internal_value=-9.90986e-08 -2.23324 12.9221 19.4666 10.7087 3.26484 -3.42561
internal_weight=2.17773e+06 1.85682e+06 320903 81103 239800 330922 1.5259e+06
internal_count=2177726 1856823 320903 81103 239800 330922 1525901
is_linear=0
shrinkage=0.0267391


Tree=33
num_leaves=8
num_cat=0
split_feature=6 6 6 14 15 0 6
split_gain=8.33997e+10 1.53429e+10 4.55757e+09 4.29521e+09 4.07382e+09 2.97095e+09 3.53999e+08
threshold=262.50000000000006 578.50000000000011 64.500000000000014 297.04479166666675 983.94236895035567 13.500000000000002 2.5000000000000004
decision_type=2 2 2 2 2 2 2
left_child=2 3 6 -2 -3 -4 -1
right_child=1 4 5 -5 -6 -7 -8
leaf_value=-3.9408935654346533 2.0880875588087608 13.756918618668333 1.8428544837679415 8.1726786173961639 25.670679537855616 -3.1150119754185273 -2.7702291146376483
leaf_weight=1063469 136607 167603 199569 211182 23384 152415 223497
leaf_count=1063469 136607 167603 199569 211182 23384 152415 223497
internal_value=1.61395e-08 9.12653 -3.00019 5.78273 15.2156 -0.303985 -3.73759
internal_weight=2.17773e+06 538776 1.63895e+06 347789 190987 351984 1.28697e+06
internal_count=2177726 538776 1638950 347789 190987 351984 1286966
is_linear=0
shrinkage=0.0267391


Tree=34
num_leaves=8
num_cat=0
split_feature=6 6 0 15 0 6 0
split_gain=7.91786e+10 1.52542e+10 6.10666e+09 7.02188e+09 3.19062e+09 1.81611e+09 8.64556e+08
threshold=437.50000000000006 189.50000000000003 13.500000000000002 676.54227891790424 12.500000000000002 21.500000000000004 14.500000000000002
decision_type=2 2 2 2 2 2 2
left_child=1 5 3 -2 -3 -1 -4
right_child=2 4 6 -5 -6 -7 -8
leaf_value=-3.7648003082203489 10.458982627055033 5.5467960945447388 8.3945335673295443 19.633674656219796 0.28484264676375681 -1.6009297820461081 2.6960311757486868
leaf_weight=1161623 141586 176078 39637 103056 154844 364278 36624
leaf_count=1161623 141586 176078 39637 103056 154844 364278 36624
internal_value=-5.86184e-08 -2.11958 12.2644 14.3238 3.08464 -3.24822 5.65785
internal_weight=2.17773e+06 1.85682e+06 320903 244642 330922 1.5259e+06 76261
internal_count=2177726 1856823 320903 244642 330922 1525901 76261
is_linear=0
shrinkage=0.0267391


Tree=35
num_leaves=8
num_cat=0
split_feature=6 6 6 0 15 14 6
split_gain=7.50791e+10 1.09299e+10 7.2703e+09 3.81626e+09 3.41111e+09 2.6914e+09 7.58347e+08
threshold=324.50000000000006 611.50000000000011 119.50000000000001 11.500000000000002 983.94236895035567 113.07104166666666 6.5000000000000009
decision_type=2 2 2 2 2 2 2
left_child=2 3 6 -2 -3 -4 -1
right_child=1 4 5 -5 -6 -7 -8
leaf_value=-3.7170510201763869 9.9585173007607288 13.683769276521801 -3.3573763770838547 3.8095830402022464 25.288686672549371 2.4467692742855216 -2.2141306723995395
leaf_weight=1094621 129461 143875 74586 163061 20717 243937 307468
leaf_count=1094621 129461 143875 74586 163061 20717 243937 307468
internal_value=-4.47672e-08 9.63237 -2.55903 6.53091 15.1445 1.08766 -3.38747
internal_weight=2.17773e+06 457114 1.72061e+06 292522 164592 318523 1.40209e+06
internal_count=2177726 457114 1720612 292522 164592 318523 1402089
is_linear=0
shrinkage=0.0267391


Tree=36
num_leaves=8
num_cat=0
split_feature=6 6 15 6 0 14 6
split_gain=7.13708e+10 1.36561e+10 5.68842e+09 3.73146e+09 3.09711e+09 3.02121e+09 1.62053e+09
threshold=437.50000000000006 189.50000000000003 877.76349039668526 729.50000000000011 13.500000000000002 75.692708333333329 52.500000000000007
decision_type=2 2 2 2 2 2 2
left_child=1 6 3 -2 -4 -3 -1
right_child=2 5 4 -5 -6 -7 -8
leaf_value=-3.4839722685384253 8.1978407361515924 -3.735187263752084 22.773252509320404 15.858663772445967 9.2920040728709736 3.8937547319656467 -1.1994710031879723
leaf_weight=1256239 201565 42598 43755 58697 16886 288324 269662
leaf_count=1256239 201565 42598 43755 58697 16886 288324 269662
internal_value=2.00729e-08 -2.01236 11.644 9.92559 19.0193 2.91172 -3.08025
internal_weight=2.17773e+06 1.85682e+06 320903 260262 60641 330922 1.5259e+06
internal_count=2177726 1856823 320903 260262 60641 330922 1525901
is_linear=0
shrinkage=0.0267391


Tree=37
num_leaves=8
num_cat=0
split_feature=6 6 0 15 0 6 0
split_gain=6.7605e+10 1.29362e+10 5.50102e+09 6.28081e+09 3.08568e+09 1.50283e+09 7.83163e+08
threshold=437.50000000000006 186.50000000000003 13.500000000000002 661.77873293126561 14.500000000000002 21.500000000000004 14.500000000000002
decision_type=2 2 2 2 2 2 2
left_child=1 5 3 -2 -3 -1 -4
right_child=2 4 6 -5 -6 -7 -8
leaf_value=-3.4739025074803034 9.4482842527237416 4.3721170377359986 7.6669500828109616 18.068717956033236 -1.380555036337717 -1.4965828746211556 2.2433179840751452
leaf_weight=1161623 135693 243401 39637 108949 91813 359986 36624
leaf_count=1161623 135693 243401 39637 108949 91813 359986 36624
internal_value=-9.62571e-08 -1.95855 11.3327 13.2873 2.7965 -3.0061 5.06228
internal_weight=2.17773e+06 1.85682e+06 320903 244642 335214 1.52161e+06 76261
internal_count=2177726 1856823 320903 244642 335214 1521609 76261
is_linear=0
shrinkage=0.0267391


Tree=38
num_leaves=8
num_cat=0
split_feature=6 6 14 6 15 0 6
split_gain=6.40822e+10 1.20574e+10 4.31801e+09 3.44015e+09 3.05929e+09 2.23383e+09 4.23239e+08
threshold=262.50000000000006 611.50000000000011 297.04479166666675 87.500000000000014 950.66279671424843 13.500000000000002 2.5000000000000004
decision_type=2 2 2 2 2 2 2
left_child=3 2 -2 6 -3 -5 -1
right_child=1 4 -4 5 -6 -7 -8
leaf_value=-3.4494131644876989 1.6538065383386722 12.486004171956649 7.5810604167219697 1.9930256546145289 22.631249959873745 -2.6866500346085656 -2.2779958566566125
leaf_weight=1063469 141030 139522 233154 168930 25070 128336 278215
leaf_count=1063469 141030 139522 233154 168930 25070 128336 278215
internal_value=-3.38958e-08 8.00004 5.34708 -2.62987 14.0313 -0.027289 -3.20651
internal_weight=2.17773e+06 538776 374184 1.63895e+06 164592 297266 1.34168e+06
internal_count=2177726 538776 374184 1638950 164592 297266 1341684
is_linear=0
shrinkage=0.0267391


Tree=39
num_leaves=8
num_cat=0
split_feature=6 6 0 15 14 6 0
split_gain=6.09297e+10 1.15676e+10 5.17343e+09 5.80396e+09 2.84547e+09 1.37802e+09 7.28165e+08
threshold=437.50000000000006 189.50000000000003 13.500000000000002 737.69615335368542 75.692708333333329 52.500000000000007 14.500000000000002
decision_type=2 2 2 2 2 2 2
left_child=1 5 3 -2 -3 -1 -4
right_child=2 4 6 -5 -6 -7 -8
leaf_value=-3.2144797521713051 9.7495311928740573 -3.7781049995368847 7.1893662885263003 18.493888699033352 3.625629065333261 -1.1078397633514758 1.9596385600104458
leaf_weight=1256239 163378 42598 39637 81264 288324 269662 36624
leaf_count=1256239 163378 42598 39637 81264 288324 269662 36624
internal_value=1.60157e-08 -1.85935 10.7586 12.6542 2.67258 -2.84219 4.67781
internal_weight=2.17773e+06 1.85682e+06 320903 244642 330922 1.5259e+06 76261
internal_count=2177726 1856823 320903 244642 330922 1525901 76261
is_linear=0
shrinkage=0.0267391


Tree=40
num_leaves=8
num_cat=0
split_feature=6 6 15 0 0 0 6
split_gain=5.77265e+10 1.19616e+10 4.44081e+09 3.71486e+09 3.15641e+09 1.52238e+09 1.31395e+09
threshold=458.50000000000006 189.50000000000003 676.54227891790424 13.500000000000002 12.500000000000002 12.500000000000002 19.500000000000004
decision_type=2 2 2 2 2 2 2
left_child=1 6 5 -4 -3 -2 -1
right_child=2 4 3 -5 -6 -7 -8
leaf_value=-3.2119986488491188 9.9178508310208482 5.0890241424827067 17.090845020425864 6.9506231794526849 0.0095248819882753997 4.6135975552951551 -1.385181161845247
leaf_weight=1153527 103954 186510 100232 34799 164711 61619 372374
leaf_count=1153527 103954 186510 100232 34799 164711 61619 372374
internal_value=-1.03611e-08 -1.74214 10.8788 14.4776 2.70691 7.94384 -2.76619
internal_weight=2.17773e+06 1.87712e+06 300604 135031 351221 165573 1.5259e+06
internal_count=2177726 1877122 300604 135031 351221 165573 1525901
is_linear=0
shrinkage=0.0267391


Tree=41
num_leaves=8
num_cat=0
split_feature=6 6 6 0 15 14 6
split_gain=5.47418e+10 8.8619e+09 4.55035e+09 3.38533e+09 2.78718e+09 2.24427e+09 5.54097e+08
threshold=309.50000000000006 611.50000000000011 119.50000000000001 14.500000000000002 983.94236895035567 170.97812500000001 6.5000000000000009
decision_type=2 2 2 2 2 2 2
left_child=2 3 6 -2 -3 -4 -1
right_child=1 4 5 -5 -6 -7 -8
leaf_value=-3.1684328257821686 6.8071081180896211 11.693729505267365 -2.5041371039752565 0.048316931208295173 22.183756670340006 2.4126293555052438 -1.8837530118129471
leaf_weight=1094621 246432 143875 100100 67498 20717 197015 307468
leaf_count=1094621 246432 143875 100100 67498 20717 197015 307468
internal_value=-2.17521e-08 7.9887 -2.24974 5.3539 13.0141 0.756138 -2.88671
internal_weight=2.17773e+06 478522 1.6992e+06 313930 164592 297115 1.40209e+06
internal_count=2177726 478522 1699204 313930 164592 297115 1402089
is_linear=0
shrinkage=0.0267391


Tree=42
num_leaves=8
num_cat=0
split_feature=6 6 0 15 0 6 0
split_gain=5.20606e+10 8.78955e+09 5.23222e+09 5.82301e+09 2.86705e+09 8.24246e+08 7.18628e+08
threshold=413.50000000000006 155.50000000000003 13.500000000000002 661.77873293126561 14.500000000000002 8.5000000000000018 14.500000000000002
decision_type=2 2 2 2 2 2 2
left_child=1 5 3 -2 -3 -1 -4
right_child=2 4 6 -5 -6 -7 -8
leaf_value=-3.077503457883497 7.8897598693635818 3.4662064405879085 6.2276863033890111 15.948586324919262 -1.8009592608596157 -1.6153542236682545 1.3088844463313696
leaf_weight=1104405 147522 256324 42181 113371 103813 367342 42768
leaf_count=1104405 147522 256324 42181 113371 103813 367342 42768
internal_value=-2.30991e-11 -1.79634 9.51501 11.3917 1.94789 -2.71256 3.75129
internal_weight=2.17773e+06 1.83188e+06 345842 260893 360137 1.47175e+06 84949
internal_count=2177726 1831884 345842 260893 360137 1471747 84949
is_linear=0
shrinkage=0.0267391


Tree=43
num_leaves=8
num_cat=0
split_feature=6 6 15 15 6 0 6
split_gain=4.94318e+10 1.01758e+10 4.09466e+09 2.88334e+09 2.6798e+09 2.04744e+09 1.35808e+09
threshold=458.50000000000006 209.50000000000003 877.76349039668526 731.50513842582222 729.50000000000011 13.500000000000002 52.500000000000007
decision_type=2 2 2 2 2 2 2
left_child=1 6 4 -3 -2 -4 -1
right_child=2 3 5 -5 -6 -7 -8
leaf_value=-2.8887699406424918 6.9473516261039459 1.4398448445168264 19.485935478508864 7.7063059023204339 13.510489760293572 8.2027517909590539 -0.89401456232096843
leaf_weight=1256239 183655 251692 42487 66334 58697 15765 302857
leaf_count=1256239 183655 251692 42487 66334 58697 15765 302857
internal_value=-4.70312e-08 -1.61213 10.0669 2.74691 8.53693 16.4323 -2.50129
internal_weight=2.17773e+06 1.87712e+06 300604 318026 242352 58252 1.5591e+06
internal_count=2177726 1877122 300604 318026 242352 58252 1559096
is_linear=0
shrinkage=0.0267391


Tree=44
num_leaves=8
num_cat=0
split_feature=6 6 15 0 15 0 6
split_gain=4.68236e+10 9.63892e+09 3.89629e+09 2.9231e+09 2.75118e+09 1.45312e+09 1.28642e+09
threshold=458.50000000000006 209.50000000000003 950.66279671424843 12.500000000000002 855.1696416728779 14.500000000000002 52.500000000000007
decision_type=2 2 2 2 2 2 2
left_child=1 6 3 -2 -3 -4 -1
right_child=2 4 5 -5 -6 -7 -8
leaf_value=-2.8115269257184314 10.823958522332491 1.7452175666961536 19.716838335143187 4.9917715482805889 9.3367428509908201 5.2053230332744382 -0.87010944322072792
leaf_weight=1256239 161911 279140 33899 99020 38886 5774 302857
leaf_count=1256239 161911 279140 33899 99020 38886 5774 302857
internal_value=-4.14536e-08 -1.56902 9.79774 8.61072 2.67346 17.6048 -2.4344
internal_weight=2.17773e+06 1.87712e+06 300604 260931 318026 39673 1.5591e+06
internal_count=2177726 1877122 300604 260931 318026 39673 1559096
is_linear=0
shrinkage=0.0267391


Tree=45
num_leaves=8
num_cat=0
split_feature=6 6 15 14 6 0 6
split_gain=4.43563e+10 9.28383e+09 3.7641e+09 2.60472e+09 2.4854e+09 1.84777e+09 1.39264e+09
threshold=462.50000000000006 223.50000000000003 877.76349039668526 307.16395833333337 729.50000000000011 13.500000000000002 60.500000000000007
decision_type=2 2 2 2 2 2 2
left_child=1 6 4 -3 -2 -4 -1
right_child=2 3 5 -5 -6 -7 -8
leaf_value=-2.7209104362073999 6.5705970983207553 0.17923297263853058 18.623171549989152 5.1825854990942002 12.903468961751541 7.8135498576755671 -0.71147314282168583
leaf_weight=1276586 180755 141513 42260 156847 58697 15436 305632
leaf_count=1276586 180755 141513 42260 156847 58697 15436 305632
internal_value=1.61594e-08 -1.51692 9.60023 2.80948 8.12298 15.7312 -2.33275
internal_weight=2.17773e+06 1.88058e+06 297148 298360 239452 57696 1.58222e+06
internal_count=2177726 1880578 297148 298360 239452 57696 1582218
is_linear=0
shrinkage=0.0267391


Tree=46
num_leaves=8
num_cat=0
split_feature=6 6 14 15 6 0 6
split_gain=4.20235e+10 8.90046e+09 3.71146e+09 2.60591e+09 1.65658e+09 2.38048e+09 1.91834e+08
threshold=241.50000000000003 592.50000000000011 297.04479166666675 1027.45658024624 60.500000000000007 14.500000000000002 1.0000000180025095e-35
decision_type=2 2 2 2 2 2 2
left_child=4 2 -2 -3 6 -6 -1
right_child=1 3 -4 -5 5 -7 -8
leaf_value=-2.8096345391960211 0.75252445117408784 10.11517545549728 6.0858170606864572 21.065777125832124 1.2072285585291453 -3.48818528443286 -1.9828034038020521
leaf_weight=1027271 154624 162678 235201 17178 209067 122392 249315
leaf_count=1027271 154624 162678 235201 17178 209067 122392 249315
internal_value=-9.9822e-10 6.24057 3.97037 11.1611 -2.21084 -0.526564 -2.64816
internal_weight=2.17773e+06 569681 389825 179856 1.60804e+06 331459 1.27659e+06
internal_count=2177726 569681 389825 179856 1608045 331459 1276586
is_linear=0
shrinkage=0.0267391


Tree=47
num_leaves=8
num_cat=0
split_feature=6 6 0 15 0 6 0
split_gain=3.99689e+10 8.27803e+09 3.64e+09 3.18389e+09 2.48959e+09 1.24562e+09 8.83111e+08
threshold=462.50000000000006 223.50000000000003 12.500000000000002 661.77873293126561 12.500000000000002 52.500000000000007 14.500000000000002
decision_type=2 2 2 2 2 2 2
left_child=1 5 3 -2 -3 -1 -4
right_child=2 4 6 -5 -6 -7 -8
leaf_value=-2.5924973937386837 8.1531807073908027 4.9229261437304066 6.7710177033620456 15.205853762896449 0.025917217429909094 -0.73750721093911731 1.4413571996680734
leaf_weight=1256239 98363 159596 82813 85588 138764 325979 30384
leaf_count=1256239 98363 159596 82813 85588 138764 325979 30384
internal_value=-3.99179e-08 -1.43995 9.11308 11.4346 2.64538 -2.21032 5.34045
internal_weight=2.17773e+06 1.88058e+06 297148 183951 298360 1.58222e+06 113197
internal_count=2177726 1880578 297148 183951 298360 1582218 113197
is_linear=0
shrinkage=0.0267391


Tree=48
num_leaves=8
num_cat=0
split_feature=6 6 0 15 0 0 0
split_gain=3.78686e+10 7.10196e+09 3.87755e+09 3.42681e+09 2.98428e+09 1.06162e+09 7.21645e+08
threshold=437.50000000000006 155.50000000000003 12.500000000000002 661.77873293126561 15.500000000000002 14.500000000000002 14.500000000000002
decision_type=2 2 2 2 2 2 2
left_child=1 6 3 -2 -3 -4 -1
right_child=2 4 5 -5 -6 -7 -8
leaf_value=-1.7703348668228271 7.6031947814071339 2.909873306636797 6.3882541467713212 14.705684852384065 -3.0814982150326182 0.97389684351747574 -2.9592754722791628
leaf_weight=801593 106928 311626 88360 88991 73450 36624 670154
leaf_count=801593 106928 311626 88360 88991 73450 36624 670154
internal_value=-2.2914e-08 -1.46584 8.4817 10.8293 1.76707 4.80169 -2.31171
internal_weight=2.17773e+06 1.85682e+06 320903 195919 385076 124984 1.47175e+06
internal_count=2177726 1856823 320903 195919 385076 124984 1471747
is_linear=0
shrinkage=0.0267391


Tree=49
num_leaves=8
num_cat=0
split_feature=6 6 15 0 14 6 0
split_gain=3.59151e+10 7.46156e+09 3.36098e+09 2.50583e+09 2.45802e+09 1.13913e+09 1.13159e+09
threshold=462.50000000000006 223.50000000000003 950.66279671424843 12.500000000000002 162.74520833333332 38.500000000000007 13.500000000000002
decision_type=2 2 2 2 2 2 2
left_child=1 5 3 -2 -3 -1 -4
right_child=2 4 6 -5 -6 -7 -8
leaf_value=-2.4893928439984969 9.5821719331605575 -1.4125975355028368 18.679916079533051 4.145360105871112 4.0138884615356467 -0.78664614545563127 8.4355785039348827
leaf_weight=1217013 160520 82486 28705 97383 215874 365205 10540
leaf_count=1217013 160520 82486 28705 97383 215874 365205 10540
internal_value=-4.1776e-08 -1.36497 8.63858 7.52926 2.51366 -2.09637 15.9286
internal_weight=2.17773e+06 1.88058e+06 297148 257903 298360 1.58222e+06 39245
internal_count=2177726 1880578 297148 257903 298360 1582218 39245
is_linear=0
shrinkage=0.0267391


Tree=50
num_leaves=8
num_cat=0
split_feature=6 15 0 6 14 6 0
split_gain=3.40206e+10 6.21949e+09 6.37758e+09 2.72097e+09 2.16977e+09 2.16884e+09 4.1937e+08
threshold=305.50000000000006 661.77873293126561 14.500000000000002 110.50000000000001 122.31333333333333 503.50000000000006 14.500000000000002
decision_type=2 2 2 2 2 2 2
left_child=3 5 -3 6 -5 -2 -1
right_child=1 2 -4 4 -6 -7 -8
leaf_value=-1.8611922835173789 1.6283864783740838 12.395297065711311 0.37047418619300204 -3.2958192082891373 1.808626630793267 6.2808100014318642 -2.7946628275948142
leaf_weight=747108 155906 155143 39580 80450 229077 132549 637913
leaf_count=747108 155906 155143 39580 80450 229077 132549 637913
internal_value=-1.71582e-08 6.25876 9.95109 -1.7846 0.481916 3.76624 -2.29113
internal_weight=2.17773e+06 483178 194723 1.69455e+06 309527 288455 1.38502e+06
internal_count=2177726 483178 194723 1694548 309527 288455 1385021
is_linear=0
shrinkage=0.0267391


Tree=51
num_leaves=8
num_cat=0
split_feature=6 6 6 15 15 0 15
split_gain=3.22937e+10 6.71573e+09 3.14133e+09 2.32433e+09 2.16581e+09 1.03722e+09 8.85843e+08
threshold=462.50000000000006 223.50000000000003 744.50000000000011 855.1696416728779 997.73652570868569 14.500000000000002 1105.947546487849
decision_type=2 2 2 2 2 2 2
left_child=1 5 4 -3 -2 -1 -4
right_child=2 3 6 -5 -6 -7 -8
leaf_value=-1.3707571472846471 5.8357283307421373 1.5070769562002868 12.413418868546657 8.7272492907347203 14.66691005409143 -2.747301382455829 24.824403041723812
leaf_weight=872513 206541 262067 64247 36293 21967 709705 4393
leaf_count=872513 206541 262067 64247 36293 21967 709705 4393
internal_value=-2.77205e-08 -1.29433 8.19149 2.38535 6.68469 -1.98821 13.2077
internal_weight=2.17773e+06 1.88058e+06 297148 298360 228508 1.58222e+06 68640
internal_count=2177726 1880578 297148 298360 228508 1582218 68640
is_linear=0
shrinkage=0.0267391


Tree=52
num_leaves=8
num_cat=0
split_feature=6 6 0 0 15 15 0
split_gain=3.05898e+10 6.38652e+09 3.02785e+09 2.96611e+09 2.6531e+09 7.67346e+08 6.60809e+08
threshold=462.50000000000006 168.50000000000003 12.500000000000002 15.500000000000002 737.69615335368542 1027.45658024624 14.500000000000002
decision_type=2 2 2 2 2 2 2
left_child=1 6 4 -3 -2 -4 -1
right_child=2 3 5 -5 -6 -7 -8
leaf_value=-1.5417953174943273 7.7457210969778378 2.8933733449218955 3.8407795328583392 -3.1559705188283309 14.488968619550825 11.547102457194123 -2.6721125879622001
leaf_weight=813684 120006 318154 103049 70858 63945 10148 677882
leaf_count=813684 120006 318154 103049 70858 63945 10148 677882
internal_value=-3.31344e-08 -1.25972 7.97245 1.79149 10.0898 4.53164 -2.0555
internal_weight=2.17773e+06 1.88058e+06 297148 389012 183951 113197 1.49157e+06
internal_count=2177726 1880578 297148 389012 183951 113197 1491566
is_linear=0
shrinkage=0.0267391


Tree=53
num_leaves=8
num_cat=0
split_feature=6 15 0 6 6 0 6
split_gain=2.90242e+10 6.4296e+09 6.71073e+09 2.24626e+09 1.58335e+09 2.04722e+09 2.19333e+08
threshold=262.50000000000006 658.3781472043496 14.500000000000002 484.50000000000006 74.500000000000014 13.500000000000002 1.5000000000000002
decision_type=2 2 2 2 2 2 2
left_child=4 3 -3 -2 6 -6 -1
right_child=1 2 -4 -5 5 -7 -8
leaf_value=-2.358224696373235 1.0983584920420781 11.536466852053962 0.026746072951417864 5.5707182902257957 1.743088391457007 -2.5267659171566068 -1.4954480320925181
leaf_weight=1048267 185519 165315 46380 141562 185462 141567 263654
leaf_count=1048267 185519 165315 46380 141562 185462 141567 263654
internal_value=-4.70157e-08 5.38398 9.01482 3.03401 -1.76989 -0.105281 -2.18483
internal_weight=2.17773e+06 538776 211695 327081 1.63895e+06 327029 1.31192e+06
internal_count=2177726 538776 211695 327081 1638950 327029 1311921
is_linear=0
shrinkage=0.0267391


Tree=54
num_leaves=8
num_cat=0
split_feature=6 6 6 15 14 15 0
split_gain=2.75098e+10 4.62176e+09 3.24701e+09 2.86763e+09 2.09723e+09 1.01813e+09 4.58115e+08
threshold=352.50000000000006 711.50000000000011 136.50000000000003 919.78859453281314 80.142916666666679 1027.45658024624 14.500000000000002
decision_type=2 2 2 2 2 2 2
left_child=2 3 6 -2 -4 -3 -1
right_child=1 5 4 -5 -6 -7 -8
leaf_value=-1.5784033173432792 3.7190068445336912 10.537274417959384 -3.9613647983989049 11.221956136029943 1.8979748221501407 20.045319310309029 -2.53776948124999
leaf_weight=777212 288841 82080 52088 41676 270440 8928 656461
leaf_count=777212 288841 82080 52088 41676 270440 8928 656461
internal_value=2.09894e-08 6.13428 -1.47236 4.66508 0.951696 11.47 -2.01769
internal_weight=2.17773e+06 421525 1.7562e+06 330517 322528 91008 1.43367e+06
internal_count=2177726 421525 1756201 330517 322528 91008 1433673
is_linear=0
shrinkage=0.0267391


Tree=55
num_leaves=8
num_cat=0
split_feature=6 6 0 15 0 6 15
split_gain=2.61773e+10 5.43826e+09 2.80174e+09 2.33336e+09 2.26681e+09 8.22619e+08 6.79866e+08
threshold=462.50000000000006 209.50000000000003 12.500000000000002 737.69615335368542 12.500000000000002 7.5000000000000009 1027.45658024624
decision_type=2 2 2 2 2 2 2
left_child=1 5 3 -2 -3 -1 -4
right_child=2 4 6 -5 -6 -7 -8
leaf_value=-2.2152240529161999 7.2135217959503173 4.1043025706893426 3.4149334156993105 13.53739670665006 -0.39592797341056873 -0.86793947986010922 10.668690792394925
leaf_weight=1099729 120006 171246 103049 63945 150236 459367 10148
leaf_count=1099729 120006 171246 103049 63945 150236 459367 10148
internal_value=-2.19312e-08 -1.16533 7.37507 9.41183 2.00124 -1.81826 4.06523
internal_weight=2.17773e+06 1.88058e+06 297148 183951 321482 1.5591e+06 113197
internal_count=2177726 1880578 297148 183951 321482 1559096 113197
is_linear=0
shrinkage=0.0267391


Tree=56
num_leaves=8
num_cat=0
split_feature=6 6 6 14 15 6 15
split_gain=2.47961e+10 5.16245e+09 2.70262e+09 2.22208e+09 1.80125e+09 8.66493e+08 7.63124e+08
threshold=462.50000000000006 223.50000000000003 744.50000000000011 75.692708333333329 1027.45658024624 16.500000000000004 1105.947546487849
decision_type=2 2 2 2 2 2 2
left_child=1 5 4 -3 -2 -1 -4
right_child=2 3 6 -5 -6 -7 -8
leaf_value=-2.1316470811504042 5.0678859715471054 -4.2201010905333662 11.093419363736123 2.9356327934754605 13.691928866374614 -0.73626309370207121 22.612699086935738
leaf_weight=1141004 209633 35174 64247 263186 18875 441214 4393
leaf_count=1141004 209633 35174 64247 263186 18875 441214 4393
internal_value=-7.34866e-09 -1.13417 7.17786 2.09204 5.78024 -1.74253 11.8307
internal_weight=2.17773e+06 1.88058e+06 297148 298360 228508 1.58222e+06 68640
internal_count=2177726 1880578 297148 298360 228508 1582218 68640
is_linear=0
shrinkage=0.0267391


Tree=57
num_leaves=8
num_cat=0
split_feature=6 6 0 15 0 0 0
split_gain=2.34877e+10 4.89007e+09 2.63862e+09 2.17445e+09 2.10764e+09 8.62942e+08 6.60166e+08
threshold=462.50000000000006 223.50000000000003 12.500000000000002 919.78859453281314 15.500000000000002 14.500000000000002 14.500000000000002
decision_type=2 2 2 2 2 2 2
left_child=1 5 3 -2 -3 -1 -4
right_child=2 4 6 -5 -6 -7 -8
leaf_value=-1.1327472471098183 7.7257984981206853 3.0300841726513266 5.0107729289675058 15.796430187323571 -3.045101706854926 -2.3883294952181711 0.40270909801897542
leaf_weight=872513 155763 249544 82813 28188 48816 709705 30384
leaf_count=872513 155763 249544 82813 28188 48816 709705 30384
internal_value=-3.02973e-08 -1.10384 6.98593 8.96251 2.0361 -1.69594 3.77389
internal_weight=2.17773e+06 1.88058e+06 297148 183951 298360 1.58222e+06 113197
internal_count=2177726 1880578 297148 183951 298360 1582218 113197
is_linear=0
shrinkage=0.0267391


Tree=58
num_leaves=8
num_cat=0
split_feature=6 6 0 15 14 0 0
split_gain=2.22593e+10 3.81681e+09 3.28629e+09 3.30186e+09 2.62842e+09 4.36604e+08 4.02117e+08
threshold=413.50000000000006 136.50000000000003 13.500000000000002 637.17747218078568 123.40416666666667 15.500000000000002 14.500000000000002
decision_type=2 2 2 2 2 2 2
left_child=1 6 3 -2 -3 -4 -1
right_child=2 4 5 -5 -6 -7 -8
leaf_value=-1.4062908157772775 4.8114752214903733 -2.7191322040758275 2.4475763930807615 10.831922985183468 2.3637547793948266 -2.9759133741358625 -2.305111508406573
leaf_weight=777212 135328 95773 72517 125565 302438 12432 656461
leaf_count=777212 135328 95773 72517 125565 302438 12432 656461
internal_value=-6.1551e-09 -1.1746 6.22172 7.70905 1.14128 1.65387 -1.81785
internal_weight=2.17773e+06 1.83188e+06 345842 260893 398211 84949 1.43367e+06
internal_count=2177726 1831884 345842 260893 398211 84949 1433673
is_linear=0
shrinkage=0.0267391


Tree=59
num_leaves=8
num_cat=0
split_feature=6 15 0 14 6 0 6
split_gain=2.11517e+10 5.69739e+09 6.46936e+09 1.90563e+09 9.33136e+08 1.94596e+09 1.49238e+08
threshold=241.50000000000003 619.48409155404909 14.500000000000002 75.692708333333329 60.500000000000007 14.500000000000002 1.0000000180025095e-35
decision_type=2 2 2 2 2 2 2
left_child=4 3 -3 -2 6 -6 -1
right_child=1 2 -4 -5 5 -7 -8
leaf_value=-2.0391406893395816 -4.0556597130245402 9.6965001831504498 -0.49942945031442576 2.7334184887845532 1.2631859012789786 -2.9821210295983627 -1.3098616863922441
leaf_weight=1027271 33025 197460 57436 281760 209067 122392 249315
leaf_count=1027271 33025 197460 57436 281760 209067 122392 249315
internal_value=-1.8457e-09 4.42742 7.39904 2.02116 -1.5685 -0.304403 -1.89671
internal_weight=2.17773e+06 569681 254896 314785 1.60804e+06 331459 1.27659e+06
internal_count=2177726 569681 254896 314785 1608045 331459 1276586
is_linear=0
shrinkage=0.0267391


Tree=60
num_leaves=8
num_cat=0
split_feature=6 6 0 6 15 15 0
split_gain=2.01391e+10 4.15826e+09 2.73457e+09 2.42643e+09 1.61272e+09 6.90742e+08 4.09213e+08
threshold=462.50000000000006 145.50000000000003 14.500000000000002 744.50000000000011 1027.45658024624 1105.947546487849 14.500000000000002
decision_type=2 2 2 2 2 2 2
left_child=1 6 -3 4 -2 -5 -1
right_child=3 2 -4 5 -6 -7 -8
leaf_value=-1.2933808238743674 4.470471952552014 2.6493641852808745 -2.0727448308323471 10.176042223172502 12.630708016940595 21.135412769019794 -2.1944476994174611
leaf_weight=788933 209633 305294 123011 64247 18875 4393 663340
leaf_count=788933 209633 305294 123011 64247 18875 4393 663340
internal_value=-2.82873e-08 -1.02213 1.29315 6.4688 5.14452 10.8774 -1.70495
internal_weight=2.17773e+06 1.88058e+06 428305 297148 228508 68640 1.45227e+06
internal_count=2177726 1880578 428305 297148 228508 68640 1452273
is_linear=0
shrinkage=0.0267391


Tree=61
num_leaves=8
num_cat=0
split_feature=6 6 0 15 15 6 15
split_gain=1.90765e+10 3.94722e+09 2.34716e+09 2.06245e+09 1.895e+09 7.23453e+08 5.74837e+08
threshold=462.50000000000006 223.50000000000003 12.500000000000002 855.1696416728779 919.78859453281314 6.5000000000000009 824.33853397917244
decision_type=2 2 2 2 2 2 2
left_child=1 5 4 -3 -2 -1 -4
right_child=2 3 6 -5 -6 -7 -8
leaf_value=-1.9083701000386517 7.005535890380898 0.99892343653493854 2.1006623755692626 7.8002057804256957 14.539743413244484 -0.67008063729858702 6.3810333545238551
leaf_weight=1094621 155763 262067 82369 36293 28188 487597 30828
leaf_count=1094621 155763 262067 82369 36293 28188 487597 30828
internal_value=-1.35258e-08 -0.994797 6.29583 1.82624 8.16005 -1.52676 3.26638
internal_weight=2.17773e+06 1.88058e+06 297148 298360 183951 1.58222e+06 113197
internal_count=2177726 1880578 297148 298360 183951 1582218 113197
is_linear=0
shrinkage=0.0267391


Tree=62
num_leaves=8
num_cat=0
split_feature=6 6 0 14 15 0 0
split_gain=1.80887e+10 3.99544e+09 2.1229e+09 2.05827e+09 1.73161e+09 7.13874e+08 5.41027e+08
threshold=480.50000000000006 223.50000000000003 12.500000000000002 321.92020833333339 919.78859453281314 14.500000000000002 14.500000000000002
decision_type=2 2 2 2 2 2 2
left_child=1 5 4 -3 -2 -1 -4
right_child=2 3 6 -5 -6 -7 -8
leaf_value=-0.97369448836255101 6.975604332165549 -0.42087391478103064 4.4397713359550357 3.9122970588602586 14.268425746978712 -2.1156922822770512 0.041691593163087966
leaf_weight=872513 148721 151776 78516 162065 27598 709705 26832
leaf_count=872513 148721 151776 78516 162065 27598 709705 26832
internal_value=-2.7887e-09 -0.93927 6.32275 1.81674 8.1171 -1.48594 3.31959
internal_weight=2.17773e+06 1.89606e+06 281667 313841 176319 1.58222e+06 105348
internal_count=2177726 1896059 281667 313841 176319 1582218 105348
is_linear=0
shrinkage=0.0267391


Tree=63
num_leaves=8
num_cat=0
split_feature=6 6 0 6 15 15 0
split_gain=1.71343e+10 3.80808e+09 2.53561e+09 2.07897e+09 1.38047e+09 6.22941e+08 4.09912e+08
threshold=480.50000000000006 155.50000000000003 15.500000000000002 744.50000000000011 1027.45658024624 1105.947546487849 14.500000000000002
decision_type=2 2 2 2 2 2 2
left_child=1 6 -3 4 -2 -5 -1
right_child=3 2 -4 5 -6 -7 -8
leaf_value=-1.1495581868537175 4.195966966144705 2.2960688376441385 -3.0490134013184309 9.5345769261965341 11.937072756851238 19.942189758214308 -2.0456322107448548
leaf_weight=801593 195037 346638 77674 64247 17990 4393 670154
leaf_count=801593 195037 346638 77674 64247 17990 4393 670154
internal_value=-4.57723e-09 -0.914154 1.31761 6.15369 4.8497 10.2007 -1.55758
internal_weight=2.17773e+06 1.89606e+06 424312 281667 213027 68640 1.47175e+06
internal_count=2177726 1896059 424312 281667 213027 68640 1471747
is_linear=0
shrinkage=0.0267391


Tree=64
num_leaves=8
num_cat=0
split_feature=6 15 0 14 6 0 6
split_gain=1.62504e+10 4.5679e+09 4.62262e+09 1.74619e+09 1.00891e+09 1.78863e+09 1.48946e+08
threshold=266.50000000000006 676.54227891790424 14.500000000000002 173.12791666666666 68.500000000000014 12.500000000000002 1.0000000180025095e-35
decision_type=2 2 2 2 2 2 2
left_child=4 3 -3 -2 6 -6 -1
right_child=1 2 -4 -5 5 -7 -8
leaf_value=-1.8061262537641074 -1.2217548657016319 9.4694425152673087 -0.4470148891423536 3.2579239284290233 1.8156130271906621 -2.0238745429219298 -1.0993952900943307
leaf_weight=1027271 82254 153311 43047 255364 179798 167626 269055
leaf_count=1027271 82254 153311 43047 255364 179798 167626 269055
internal_value=-5.88443e-09 4.0526 7.29549 2.16654 -1.3165 -0.0368725 -1.65944
internal_weight=2.17773e+06 533976 196358 337618 1.64375e+06 347424 1.29633e+06
internal_count=2177726 533976 196358 337618 1643750 347424 1296326
is_linear=0
shrinkage=0.0267391


Tree=65
num_leaves=8
num_cat=0
split_feature=6 6 14 0 15 2 6
split_gain=1.54672e+10 3.40652e+09 2.52033e+09 1.97134e+09 1.53333e+09 4.92399e+08 3.42214e+08
threshold=480.50000000000006 145.50000000000003 74.320000000000007 12.500000000000002 919.78859453281314 4.5000000000000009 1.5000000000000002
decision_type=2 2 2 2 2 2 2
left_child=1 6 -3 4 -2 -5 -1
right_child=3 2 -4 5 -6 -7 -8
leaf_value=-1.7498879154789626 6.5016239677900014 -4.2202499695202187 1.9333949013250022 0.0020003763861857291 13.364220993710008 4.0852462862001717 -0.83390073085454408
leaf_weight=1048267 148721 54208 389578 29220 27598 76128 404006
leaf_count=1048267 148721 54208 389578 29220 27598 76128 404006
internal_value=1.08956e-08 -0.868546 1.18173 5.84667 7.57578 2.95269 -1.49507
internal_weight=2.17773e+06 1.89606e+06 443786 281667 176319 105348 1.45227e+06
internal_count=2177726 1896059 443786 281667 176319 105348 1452273
is_linear=0
shrinkage=0.0267391


Tree=66
num_leaves=8
num_cat=0
split_feature=6 6 15 6 15 0 15
split_gain=1.46511e+10 3.2468e+09 1.94578e+09 1.91318e+09 1.24248e+09 6.2004e+08 5.67773e+08
threshold=480.50000000000006 223.50000000000003 855.1696416728779 744.50000000000011 1027.45658024624 14.500000000000002 1105.947546487849
decision_type=2 2 2 2 2 2 2
left_child=1 5 -3 4 -2 -1 -5
right_child=3 2 -4 6 -6 -7 -8
leaf_value=-0.86072777769502518 3.8192218350881557 0.85394101253191723 7.2847787656499126 8.9366827531105084 11.163253868824388 -1.9250279577995395 18.872763433467483
leaf_weight=872513 195037 275523 38318 64247 17990 709705 4393
leaf_count=872513 195037 275523 38318 64247 17990 709705 4393
internal_value=5.87788e-09 -0.845322 1.63911 5.69034 4.43942 -1.33812 9.5726
internal_weight=2.17773e+06 1.89606e+06 313841 281667 213027 1.58222e+06 68640
internal_count=2177726 1896059 313841 281667 213027 1582218 68640
is_linear=0
shrinkage=0.0267391


Tree=67
num_leaves=8
num_cat=0
split_feature=6 0 15 6 14 0 6
split_gain=1.38807e+10 3.67609e+09 4.71784e+09 1.22735e+09 2.01012e+09 3.83322e+08 1.68911e+08
threshold=305.50000000000006 14.500000000000002 619.48409155404909 87.500000000000014 210.63208333333333 15.500000000000002 1.0000000180025095e-35
decision_type=2 2 2 2 2 2 2
left_child=3 2 -2 6 -5 -3 -1
right_child=1 5 -4 4 -6 -7 -8
leaf_value=-1.6749529801842549 2.4070099188542202 0.27146609885534106 8.1883592242203864 -2.2134176636060747 1.9077854565590482 -3.5720358142852575 -0.96666867133998369
leaf_weight=1027271 225134 41722 182914 140804 212060 33408 314413
leaf_count=1027271 225134 41722 182914 140804 212060 33408 314413
internal_value=-2.31224e-08 3.99782 4.99859 -1.13992 0.263294 -1.43762 -1.50897
internal_weight=2.17773e+06 483178 408048 1.69455e+06 352864 75130 1.34168e+06
internal_count=2177726 483178 408048 1694548 352864 75130 1341684
is_linear=0
shrinkage=0.0267391


Tree=68
num_leaves=8
num_cat=0
split_feature=6 6 0 0 15 2 0
split_gain=1.32146e+10 2.91516e+09 2.50004e+09 1.82227e+09 1.37593e+09 4.55725e+08 2.77065e+08
threshold=480.50000000000006 136.50000000000003 15.500000000000002 12.500000000000002 737.69615335368542 4.5000000000000009 14.500000000000002
decision_type=2 2 2 2 2 2 2
left_child=1 6 -3 4 -2 -5 -1
right_child=3 2 -4 5 -6 -7 -8
leaf_value=-1.0566180767067319 5.3209147923911964 1.9917292329507981 -3.032890182903254 -0.21690579049460648 10.262690926264101 3.7113359946918103 -1.8027016128386733
leaf_weight=777212 114033 375114 87272 29220 62286 76128 656461
leaf_count=777212 114033 375114 87272 29220 62286 76128 656461
internal_value=8.40664e-09 -0.802813 1.04337 5.40418 7.06663 2.62177 -1.39824
internal_weight=2.17773e+06 1.89606e+06 462386 281667 176319 105348 1.43367e+06
internal_count=2177726 1896059 462386 281667 176319 105348 1433673
is_linear=0
shrinkage=0.0267391


Tree=69
num_leaves=8
num_cat=0
split_feature=6 14 0 15 0 6 6
split_gain=1.25217e+10 4.22275e+09 5.84172e+09 1.04575e+09 6.34679e+08 2.1466e+09 3.2262e+08
threshold=241.50000000000003 297.04479166666675 14.500000000000002 72.683001518682914 14.500000000000002 7.5000000000000009 16.500000000000004
decision_type=2 2 2 2 2 2 2
left_child=4 3 -3 -2 5 -1 -6
right_child=1 2 -4 -5 6 -7 -8
leaf_value=-1.6660553443258235 -6.363303743174261 6.618086318783738 -1.2782207972231896 0.60267142874498791 -1.4626642628989339 1.1098420001233342 -2.7554746664966552
leaf_weight=590989 17106 312013 85299 155263 530032 300426 186598
leaf_count=590989 17106 312013 85299 155263 530032 300426 186598
internal_value=-2.09378e-09 3.4065 4.92283 -0.088636 -1.20682 -0.730518 -1.79929
internal_weight=2.17773e+06 569681 397312 172369 1.60804e+06 891415 716630
internal_count=2177726 569681 397312 172369 1608045 891415 716630
is_linear=0
shrinkage=0.0267391


Tree=70
num_leaves=8
num_cat=0
split_feature=6 6 15 6 15 15 0
split_gain=1.18904e+10 2.62212e+09 2.00353e+09 1.7251e+09 1.13043e+09 5.24391e+08 4.81881e+08
threshold=480.50000000000006 204.50000000000003 901.36448973806796 744.50000000000011 997.73652570868569 1105.947546487849 14.500000000000002
decision_type=2 2 2 2 2 2 2
left_child=1 6 -3 4 -2 -5 -1
right_child=3 2 -4 5 -6 -7 -8
leaf_value=-0.80421217011634538 3.2958664842419716 0.66727350936493957 7.4679694805103329 8.2016127639628813 9.8430410598868132 17.750554164472433 -1.7517196052996358
leaf_weight=851460 192120 311542 34392 64247 20907 4393 698665
leaf_count=851460 192120 311542 34392 64247 20907 4393 698665
internal_value=-6.56335e-09 -0.761526 1.34338 5.12626 3.93842 8.81275 -1.23127
internal_weight=2.17773e+06 1.89606e+06 345934 281667 213027 68640 1.55012e+06
internal_count=2177726 1896059 345934 281667 213027 68640 1550125
is_linear=0
shrinkage=0.0267391


Tree=71
num_leaves=8
num_cat=0
split_feature=6 6 14 0 15 2 6
split_gain=1.1263e+10 2.50371e+09 2.70855e+09 1.6807e+09 1.2738e+09 4.24624e+08 2.14253e+08
threshold=480.50000000000006 119.50000000000001 170.97812500000001 12.500000000000002 972.68056624161534 4.5000000000000009 1.0000000180025095e-35
decision_type=2 2 2 2 2 2 2
left_child=1 6 -3 4 -2 -5 -1
right_child=3 2 -4 5 -6 -7 -8
leaf_value=-1.517555185674075 5.7601235681204406 -2.1008091643530684 2.2040979714249227 -0.42305841388681387 12.841931322136437 3.3687731565172578 -0.77068652334608523
leaf_weight=1027271 155763 150117 343853 29220 20556 76128 374818
leaf_count=1027271 155763 150117 343853 29220 20556 76128 374818
internal_value=-9.36867e-09 -0.741163 0.895841 4.98919 6.58575 2.31705 -1.3179
internal_weight=2.17773e+06 1.89606e+06 493970 281667 176319 105348 1.40209e+06
internal_count=2177726 1896059 493970 281667 176319 105348 1402089
is_linear=0
shrinkage=0.0267391


Tree=72
num_leaves=8
num_cat=0
split_feature=6 15 0 14 0 6 6
split_gain=1.07057e+10 3.79234e+09 3.99911e+09 1.51823e+09 5.72071e+08 1.97357e+09 3.2921e+08
threshold=241.50000000000003 661.77873293126561 14.500000000000002 64.509166666666658 14.500000000000002 6.5000000000000009 16.500000000000004
decision_type=2 2 2 2 2 2 2
left_child=4 3 -3 -2 5 -1 -6
right_child=1 2 -4 -5 6 -7 -8
leaf_value=-1.5669367554739797 -4.6811253202875314 7.907768501195342 -0.75174801755972098 1.9428191763868683 -1.3383258485684937 1.0888072921753849 -2.6442727837644568
leaf_weight=588233 26770 167310 49385 326216 530032 303182 186598
leaf_count=588233 26770 167310 49385 326216 530032 303182 186598
internal_value=-1.25782e-08 3.14981 5.93426 1.44047 -1.11588 -0.663683 -1.67837
internal_weight=2.17773e+06 569681 216695 352986 1.60804e+06 891415 716630
internal_count=2177726 569681 216695 352986 1608045 891415 716630
is_linear=0
shrinkage=0.0267391


Tree=73
num_leaves=8
num_cat=0
split_feature=6 6 15 0 15 0 2
split_gain=1.01706e+10 2.27611e+09 1.78189e+09 1.57231e+09 1.45667e+09 4.74241e+08 2.1785e+08
threshold=484.50000000000006 223.50000000000003 950.66279671424843 13.500000000000002 816.62925629384415 14.500000000000002 4.5000000000000009
decision_type=2 2 2 2 2 2 2
left_child=1 5 -3 4 -2 -1 -5
right_child=3 2 -4 6 -6 -7 -8
leaf_value=-0.69580426570175014 4.5152090033362091 0.79629688195001591 8.3986050062127529 -1.8443784560836209 9.4578775454475643 -1.626599144018406 1.8760393194226299
leaf_weight=872513 159611 294043 23830 15024 58168 709705 44832
leaf_count=872513 159611 294043 23830 15024 58168 709705 44832
internal_value=-1.52863e-08 -0.698503 1.36622 4.78045 5.83538 -1.11331 0.942206
internal_weight=2.17773e+06 1.90009e+06 317873 277635 217779 1.58222e+06 59856
internal_count=2177726 1900091 317873 277635 217779 1582218 59856
is_linear=0
shrinkage=0.0267391


Tree=74
num_leaves=8
num_cat=0
split_feature=6 6 14 6 15 15 6
split_gain=9.63443e+09 2.14486e+09 2.60272e+09 1.55909e+09 9.93513e+08 4.67328e+08 1.72455e+08
threshold=480.50000000000006 110.50000000000001 153.84375000000003 744.50000000000011 1027.45658024624 1105.947546487849 1.0000000180025095e-35
decision_type=2 2 2 2 2 2 2
left_child=1 6 -3 4 -2 -5 -1
right_child=3 2 -4 5 -6 -7 -8
leaf_value=-1.4078480562495437 2.9305739210665966 -2.2465620545347122 1.9922420113829091 7.5421061878561932 9.4977129017092654 16.556544594954659 -0.72616892901197161
leaf_weight=1027271 195037 144335 366703 64247 17990 4393 357750
leaf_count=1027271 195037 144335 366703 64247 17990 4393 357750
internal_value=-1.34016e-08 -0.685488 0.795056 4.6144 3.48516 8.11904 -1.23177
internal_weight=2.17773e+06 1.89606e+06 511038 281667 213027 68640 1.38502e+06
internal_count=2177726 1896059 511038 281667 213027 68640 1385021
is_linear=0
shrinkage=0.0267391


Tree=75
num_leaves=8
num_cat=0
split_feature=6 0 14 0 0 6 6
split_gain=9.14437e+09 3.50775e+09 4.72742e+09 8.35686e+08 5.15065e+08 1.82105e+09 3.32297e+08
threshold=241.50000000000003 13.500000000000002 297.04479166666675 15.500000000000002 14.500000000000002 7.5000000000000009 16.500000000000004
decision_type=2 2 2 2 2 2 2
left_child=4 2 -2 -3 5 -1 -6
right_child=1 3 -4 -5 6 -7 -8
leaf_value=-1.4639117662461527 0.16595705069710878 0.89309958910831255 6.30270801844663 -3.2311727316123022 -1.2234001821500895 1.0928437309145818 -2.5354557622608116
leaf_weight=590989 134662 115412 269111 50496 530032 300426 186598
leaf_count=590989 134662 115412 269111 50496 530032 300426 186598
internal_value=-1.02649e-08 2.91108 4.25605 -0.36217 -1.03131 -0.60223 -1.56504
internal_weight=2.17773e+06 569681 403773 165908 1.60804e+06 891415 716630
internal_count=2177726 569681 403773 165908 1608045 891415 716630
is_linear=0
shrinkage=0.0267391


Tree=76
num_leaves=8
num_cat=0
split_feature=6 6 14 0 15 2 6
split_gain=8.67312e+09 1.9531e+09 2.36584e+09 1.44088e+09 1.069e+09 3.91612e+08 1.70415e+08
threshold=484.50000000000006 119.50000000000001 153.84375000000003 12.500000000000002 1027.45658024624 4.5000000000000009 1.0000000180025095e-35
decision_type=2 2 2 2 2 2 2
left_child=1 6 -3 4 -2 -5 -1
right_child=3 2 -4 5 -6 -7 -8
leaf_value=-1.3340142973154958 5.2630278869229219 -2.1702468745143459 1.9394991725078652 -0.71849852098201494 12.779095101695948 2.94320275048553 -0.6679207115395408
leaf_weight=1027271 159132 138878 359124 28980 14787 74736 374818
leaf_count=1027271 159132 138878 359124 28980 14787 74736 374818
internal_value=-2.06347e-09 -0.645033 0.793413 4.41451 5.90206 1.92006 -1.15595
internal_weight=2.17773e+06 1.90009e+06 498002 277635 173919 103716 1.40209e+06
internal_count=2177726 1900091 498002 277635 173919 103716 1402089
is_linear=0
shrinkage=0.0267391


Tree=77
num_leaves=8
num_cat=0
split_feature=6 0 14 0 6 0 6
split_gain=8.23857e+09 3.29732e+09 4.69985e+09 4.8825e+08 1.68727e+09 3.44278e+08 3.32457e+08
threshold=241.50000000000003 14.500000000000002 328.59000000000003 14.500000000000002 4.5000000000000009 15.500000000000002 19.500000000000004
decision_type=2 2 2 2 2 2 2
left_child=3 2 -2 4 -1 -3 -5
right_child=1 5 -4 6 -6 -7 -8
leaf_value=-1.4073352218861526 0.22526333765775175 -0.060712833936823175 5.7604197180077383 -1.1647890611564122 1.03814155158183 -3.1970301534092411 -2.4923501686879406
leaf_weight=582963 174592 49609 294984 536464 308452 50496 180166
leaf_count=582963 174592 49609 294984 536464 308452 50496 180166
internal_value=2.13795e-09 2.76315 3.70241 -0.978898 -0.561139 -1.64277 -1.49855
internal_weight=2.17773e+06 569681 469576 1.60804e+06 891415 100105 716630
internal_count=2177726 569681 469576 1608045 891415 100105 716630
is_linear=0
shrinkage=0.0267391


Tree=78
num_leaves=8
num_cat=0
split_feature=6 15 0 0 0 6 6
split_gain=7.80388e+09 3.16775e+09 2.56327e+09 1.73835e+09 4.62489e+08 1.59843e+09 3.15052e+08
threshold=241.50000000000003 811.9719125583706 14.500000000000002 13.500000000000002 14.500000000000002 7.5000000000000009 16.500000000000004
decision_type=2 2 2 2 2 2 2
left_child=4 3 -3 -2 5 -1 -6
right_child=1 2 -4 -5 6 -7 -8
leaf_value=-1.3534293313946315 2.6661572186056741 8.5461400923828243 -0.4456896270569477 -1.0682706287306138 -1.1258244543290745 1.0419516952650418 -2.4033805612298438
leaf_weight=590989 320190 96357 29639 123495 530032 300426 186598
leaf_count=590989 320190 96357 29639 123495 530032 300426 186598
internal_value=-1.64004e-08 2.68926 6.43092 1.62672 -0.952723 -0.546134 -1.45848
internal_weight=2.17773e+06 569681 125996 443685 1.60804e+06 891415 716630
internal_count=2177726 569681 125996 443685 1608045 891415 716630
is_linear=0
shrinkage=0.0267391


Tree=79
num_leaves=8
num_cat=0
split_feature=6 6 14 6 0 15 6
split_gain=7.44817e+09 1.65009e+09 2.48649e+09 1.35935e+09 8.38476e+08 4.15163e+08 1.06521e+08
threshold=484.50000000000006 95.500000000000014 74.320000000000007 744.50000000000011 11.500000000000002 1105.947546487849 1.0000000180025095e-35
decision_type=2 2 2 2 2 2 2
left_child=1 6 -3 4 -2 -5 -1
right_child=3 2 -4 5 -6 -7 -8
leaf_value=-1.2302990565777496 4.8735577422422036 -3.993409102228016 1.3539988946153376 6.8119140584544846 1.4722415362277088 15.308351648938773 -0.67813517001079848
leaf_weight=1027271 95020 71623 471136 64247 113975 4393 330061
leaf_count=1027271 95020 71623 471136 64247 113975 4393 330061
internal_value=-6.58819e-09 -0.59775 0.64835 4.09091 3.01866 7.35569 -1.09603
internal_weight=2.17773e+06 1.90009e+06 542759 277635 208995 68640 1.35733e+06
internal_count=2177726 1900091 542759 277635 208995 68640 1357332
is_linear=0
shrinkage=0.0267391


Tree=80
num_leaves=8
num_cat=0
split_feature=6 6 15 6 15 15 0
split_gain=7.05519e+09 1.57886e+09 1.60066e+09 1.28763e+09 8.12473e+08 3.93257e+08 3.82884e+08
threshold=484.50000000000006 223.50000000000003 950.66279671424843 744.50000000000011 1027.45658024624 1105.947546487849 14.500000000000002
decision_type=2 2 2 2 2 2 2
left_child=1 6 -3 4 -2 -5 -1
right_child=3 2 -4 5 -6 -7 -8
leaf_value=-0.55210188500017077 2.4309852395044729 0.59770584322880471 7.8030641567406986 6.6297698586269638 8.4206497185032951 14.899020757085037 -1.3884520161500229
leaf_weight=872513 191306 294043 23830 64247 17689 4393 709705
leaf_count=872513 191306 294043 23830 64247 17689 4393 709705
internal_value=-6.70466e-09 -0.581766 1.13787 3.98152 2.93794 7.15901 -0.927247
internal_weight=2.17773e+06 1.90009e+06 317873 277635 208995 68640 1.58222e+06
internal_count=2177726 1900091 317873 277635 208995 68640 1582218
is_linear=0
shrinkage=0.0267391


Tree=81
num_leaves=8
num_cat=0
split_feature=6 6 14 0 15 8 6
split_gain=6.68293e+09 1.50224e+09 2.35881e+09 1.2484e+09 9.15304e+08 3.61573e+08 1.00968e+08
threshold=484.50000000000006 95.500000000000014 173.12791666666666 12.500000000000002 983.94236895035567 72.500000000000014 1.0000000180025095e-35
decision_type=2 2 2 2 2 2 2
left_child=1 6 -3 4 -2 -5 -1
right_child=3 2 -4 5 -6 -7 -8
leaf_value=-1.1723657034849966 4.5810492438343902 -1.9982476195417203 1.8082781964175316 2.7745100596542969 10.804259727915973 -0.4876698298413728 -0.63478704440080302
leaf_weight=1027271 154953 169040 373719 64886 18966 38830 330061
leaf_count=1027271 154953 169040 373719 64886 18966 38830 330061
internal_value=-1.82987e-08 -0.566211 0.622752 3.87506 5.2597 1.55319 -1.04164
internal_weight=2.17773e+06 1.90009e+06 542759 277635 173919 103716 1.35733e+06
internal_count=2177726 1900091 542759 277635 173919 103716 1357332
is_linear=0
shrinkage=0.0267391


Tree=82
num_leaves=8
num_cat=0
split_feature=6 0 14 0 6 6 0
split_gain=6.34439e+09 2.89807e+09 4.03482e+09 4.17784e+08 1.44577e+09 3.33838e+08 3.27616e+08
threshold=241.50000000000003 14.500000000000002 328.59000000000003 14.500000000000002 4.5000000000000009 19.500000000000004 15.500000000000002
decision_type=2 2 2 2 2 2 2
left_child=3 2 -2 4 -1 -5 -3
right_child=1 6 -4 5 -6 -7 -8
leaf_value=-1.2558878545659951 0.083589403614754101 -0.16248951240527426 5.2122014020311243 -1.0052650938354333 1.0078216960147273 -2.3355817056608492 -3.2219708209375231
leaf_weight=582963 174592 49609 294984 536464 308452 180166 50496
leaf_count=582963 174592 49609 294984 536464 308452 180166 50496
internal_value=-7.92553e-10 2.42478 3.30534 -0.859026 -0.472587 -1.33972 -1.70578
internal_weight=2.17773e+06 569681 469576 1.60804e+06 891415 716630 100105
internal_count=2177726 569681 469576 1608045 891415 716630 100105
is_linear=0
shrinkage=0.0267391


Tree=83
num_leaves=8
num_cat=0
split_feature=6 0 14 0 0 6 6
split_gain=6.00964e+09 2.75243e+09 3.58244e+09 6.84349e+08 3.9574e+08 1.37024e+09 3.16224e+08
threshold=241.50000000000003 13.500000000000002 297.04479166666675 15.500000000000002 14.500000000000002 8.5000000000000018 19.500000000000004
decision_type=2 2 2 2 2 2 2
left_child=4 2 -2 -3 5 -1 -6
right_child=1 3 -4 -5 6 -7 -8
leaf_value=-1.2028684489779877 -0.0091570260598548142 0.59638035916906351 5.3329902687596098 -3.1358183412290623 -0.97838526725004826 1.0193951205910847 -2.2731304437891726
leaf_weight=593409 134662 115412 269111 50496 536464 298006 180166
leaf_count=593409 134662 115412 269111 50496 536464 298006 180166
internal_value=6.03756e-09 2.35995 3.55134 -0.539557 -0.836056 -0.459951 -1.30389
internal_weight=2.17773e+06 569681 403773 165908 1.60804e+06 891415 716630
internal_count=2177726 569681 403773 165908 1608045 891415 716630
is_linear=0
shrinkage=0.0267391


Tree=84
num_leaves=8
num_cat=0
split_feature=6 15 0 14 14 6 6
split_gain=5.69255e+09 2.7017e+09 2.45415e+09 1.23129e+09 3.77777e+08 9.35877e+08 2.17256e+08
threshold=241.50000000000003 731.50513842582222 14.500000000000002 64.509166666666658 153.84375000000003 48.500000000000007 50.500000000000007
decision_type=2 2 2 2 2 2 2
left_child=4 3 -3 -2 6 -6 -1
right_child=1 2 -4 -5 5 -7 -8
leaf_value=-1.1040777707575637 -4.4207032033382774 6.9745251866056064 -0.74626575992435373 1.5135222215650721 -0.95621022622872154 0.93253230683803923 -2.4024264899958023
leaf_weight=449575 26770 126672 38346 377893 797293 245274 115903
leaf_count=449575 26770 126672 38346 377893 797293 245274 115903
internal_value=-7.53232e-09 2.29684 5.18041 1.12095 -0.813701 -0.511865 -1.37019
internal_weight=2.17773e+06 569681 165018 404663 1.60804e+06 1.04257e+06 565478
internal_count=2177726 569681 165018 404663 1608045 1042567 565478
is_linear=0
shrinkage=0.0267391


Tree=85
num_leaves=8
num_cat=0
split_feature=6 8 0 14 15 6 0
split_gain=5.4246e+09 1.21779e+09 1.21351e+09 2.36087e+09 1.20917e+09 5.91002e+08 2.87057e+08
threshold=484.50000000000006 72.500000000000014 15.500000000000002 339.44833333333332 698.54116472848136 27.500000000000004 12.500000000000002
decision_type=2 2 2 2 2 2 2
left_child=2 4 3 -1 -2 -4 -3
right_child=1 6 5 -5 -6 -7 -8
leaf_value=-0.95408724679822809 2.9813048436098586 2.2650286076657689 -0.94361978766324461 1.4908128002746219 7.4434611762146359 -2.7352039743808865 -0.6968281059571122
leaf_weight=709897 106764 58858 548014 468911 73183 173269 38830
leaf_count=709897 106764 58858 548014 468911 73183 173269 38830
internal_value=1.38379e-09 3.49123 -0.510127 0.018455 4.79603 -1.374 1.08772
internal_weight=2.17773e+06 277635 1.90009e+06 1.17881e+06 179947 721283 97688
internal_count=2177726 277635 1900091 1178808 179947 721283 97688
is_linear=0
shrinkage=0.0267391


Tree=86
num_leaves=8
num_cat=0
split_feature=6 15 0 0 0 6 6
split_gain=5.19722e+09 2.57981e+09 1.89331e+09 1.26161e+09 3.4633e+08 1.28551e+09 2.96854e+08
threshold=241.50000000000003 950.66279671424843 13.500000000000002 14.500000000000002 14.500000000000002 4.5000000000000009 16.500000000000004
decision_type=2 2 2 2 2 2 2
left_child=4 2 -2 -3 5 -1 -6
right_child=1 3 -4 -5 6 -7 -8
leaf_value=-1.1642637314042861 2.6110230538385069 9.6434043674183858 -0.99404076835718669 0.48707770699931058 -0.89224797427281322 0.97030148684867568 -2.132359303130424
leaf_weight=582963 364440 45293 145837 14111 530032 308452 186598
leaf_count=582963 364440 45293 145837 14111 530032 308452 186598
internal_value=-7.91263e-09 2.19464 1.5807 7.46838 -0.777494 -0.425651 -1.21515
internal_weight=2.17773e+06 569681 510277 59404 1.60804e+06 891415 716630
internal_count=2177726 569681 510277 59404 1608045 891415 716630
is_linear=0
shrinkage=0.0267391


Tree=87
num_leaves=8
num_cat=0
split_feature=6 6 15 8 15 14 6
split_gain=4.94192e+09 1.30631e+09 1.53443e+09 1.13961e+09 9.47003e+08 2.97427e+08 2.32644e+08
threshold=527.50000000000011 223.50000000000003 855.1696416728779 72.500000000000014 698.54116472848136 122.31333333333333 827.50000000000011
decision_type=2 2 2 2 2 2 2
left_child=1 5 -3 4 -2 -1 -5
right_child=3 2 -4 6 -6 -7 -8
leaf_value=-1.3500191866061386 3.1726618979310821 0.34732724301617468 5.6224237276763773 0.67641724042637685 7.3624667063191085 -0.54212987523450595 6.5830752948375233
leaf_weight=458926 90773 311730 45134 75714 67069 1123292 5088
leaf_count=458926 90773 311730 45134 75714 67069 1123292 5088
internal_value=-1.38914e-09 -0.446858 1.01449 3.63091 4.95296 -0.77646 1.04835
internal_weight=2.17773e+06 1.93908e+06 356864 238644 157842 1.58222e+06 80802
internal_count=2177726 1939082 356864 238644 157842 1582218 80802
is_linear=0
shrinkage=0.0267391


Tree=88
num_leaves=8
num_cat=0
split_feature=6 6 14 8 15 0 6
split_gain=4.68117e+09 1.24685e+09 2.28443e+09 1.07948e+09 8.97036e+08 2.20558e+08 7.82548e+07
threshold=527.50000000000011 95.500000000000014 210.63208333333333 72.500000000000014 698.54116472848136 12.500000000000002 1.0000000180025095e-35
decision_type=2 2 2 2 2 2 2
left_child=1 6 -3 4 -2 -5 -1
right_child=3 2 -4 5 -6 -7 -8
leaf_value=-0.99388823998739184 3.0878279102589561 -1.685840253374937 1.8286146160661527 2.1296123178002517 7.1656012544607117 -0.73901183936293657 -0.52062240897243828
leaf_weight=1027271 90773 203244 378506 49556 67069 31246 330061
leaf_count=1027271 90773 203244 378506 49556 67069 31246 330061
internal_value=-6.5089e-09 -0.434909 0.600782 3.53382 4.82052 1.02032 -0.878805
internal_weight=2.17773e+06 1.93908e+06 581750 238644 157842 80802 1.35733e+06
internal_count=2177726 1939082 581750 238644 157842 80802 1357332
is_linear=0
shrinkage=0.0267391


Tree=89
num_leaves=8
num_cat=0
split_feature=6 0 14 0 6 6 0
split_gain=4.43984e+09 2.38265e+09 3.17549e+09 3.29126e+08 1.19154e+09 2.97417e+08 2.81742e+08
threshold=241.50000000000003 14.500000000000002 297.04479166666675 14.500000000000002 12.500000000000002 19.500000000000004 16.500000000000004
decision_type=2 2 2 2 2 2 2
left_child=3 2 -2 4 -1 -5 -3
right_child=1 6 -4 5 -6 -7 -8
leaf_value=-1.0514548623651057 -0.26740181842246241 -1.1118150674809295 4.3894318378936301 -0.82958148730167613 1.0384842724708412 -2.0852340924644639 -5.0427222469029029
leaf_weight=603153 157563 84697 312013 536464 288262 180166 15408
leaf_count=603153 157563 84697 312013 536464 288262 180166 15408
internal_value=3.86367e-09 2.02844 2.82686 -0.718613 -0.375619 -1.14526 -1.71685
internal_weight=2.17773e+06 569681 469576 1.60804e+06 891415 716630 100105
internal_count=2177726 569681 469576 1608045 891415 716630 100105
is_linear=0
shrinkage=0.0267391


Tree=90
num_leaves=8
num_cat=0
split_feature=6 15 0 0 14 6 6
split_gain=4.20558e+09 2.34181e+09 1.88152e+09 8.43142e+08 3.2434e+08 7.81677e+08 2.85111e+08
threshold=241.50000000000003 1027.45658024624 13.500000000000002 14.500000000000002 122.31333333333333 38.500000000000007 50.500000000000007
decision_type=2 2 2 2 2 2 2
left_child=4 2 -2 -3 6 -6 -1
right_child=1 3 -4 -5 5 -7 -8
leaf_value=-0.95891822986460629 2.5198096844510465 10.384271531466723 -0.99694239510971472 1.1038453625627407 -0.86251711773324335 0.74931125165777501 -2.5998686001188767
leaf_weight=370516 377307 30455 152831 9088 854937 287449 95143
leaf_count=370516 377307 30455 152831 9088 854937 287449 95143
internal_value=-3.03684e-09 1.9742 1.50598 8.25139 -0.699398 -0.456946 -1.2942
internal_weight=2.17773e+06 569681 530138 39543 1.60804e+06 1.14239e+06 465659
internal_count=2177726 569681 530138 39543 1608045 1142386 465659
is_linear=0
shrinkage=0.0267391


Tree=91
num_leaves=8
num_cat=0
split_feature=6 0 14 8 15 6 6
split_gain=4.03636e+09 1.11886e+09 2.31712e+09 1.02432e+09 8.25649e+08 5.95535e+08 2.15736e+08
threshold=527.50000000000011 15.500000000000002 339.44833333333332 72.500000000000014 698.54116472848136 28.500000000000004 827.50000000000011
decision_type=2 2 2 2 2 2 2
left_child=1 2 -1 4 -2 -3 -5
right_child=3 5 -4 6 -6 -7 -8
leaf_value=-0.86976937506281027 2.8724973501468787 -0.80349910156852611 1.5100280208959718 0.47482959709494915 6.7846500557616318 -2.5959744820682702 6.1627904923208856
leaf_weight=723694 90773 549790 490985 75714 67069 174613 5088
leaf_count=723694 90773 549790 490985 75714 67069 174613 5088
internal_value=-4.99223e-09 -0.403847 0.0921677 3.28143 4.53482 -1.23556 0.832993
internal_weight=2.17773e+06 1.93908e+06 1.21468e+06 238644 157842 724403 80802
internal_count=2177726 1939082 1214679 238644 157842 724403 80802
is_linear=0
shrinkage=0.0267391


Tree=92
num_leaves=8
num_cat=0
split_feature=6 15 0 0 14 6 6
split_gain=3.8455e+09 2.19191e+09 1.76758e+09 7.81812e+08 2.94903e+08 7.5447e+08 2.68964e+08
threshold=241.50000000000003 1027.45658024624 12.500000000000002 14.500000000000002 122.31333333333333 38.500000000000007 50.500000000000007
decision_type=2 2 2 2 2 2 2
left_child=4 2 -2 -3 6 -6 -1
right_child=1 3 -4 -5 5 -7 -8
leaf_value=-0.91030593958934392 2.7510652541708502 10.014610622606019 -0.37629175358198252 1.0780886175233664 -0.83604959341418161 0.74747962596835071 -2.5041116132619585
leaf_weight=370516 307011 30455 223127 9088 854937 287449 95143
leaf_count=370516 307011 30455 223127 9088 854937 287449 95143
internal_value=6.21798e-09 1.88779 1.43481 7.96077 -0.668787 -0.437599 -1.23595
internal_weight=2.17773e+06 569681 530138 39543 1.60804e+06 1.14239e+06 465659
internal_count=2177726 569681 530138 39543 1608045 1142386 465659
is_linear=0
shrinkage=0.0267391


Tree=93
num_leaves=8
num_cat=0
split_feature=6 6 15 8 15 8 6
split_gain=3.70378e+09 1.28972e+09 1.387e+09 8.20249e+08 6.93452e+08 2.60326e+08 2.22526e+08
threshold=611.50000000000011 223.50000000000003 1027.45658024624 67.500000000000014 683.06522657902133 99.500000000000014 827.50000000000011
decision_type=2 2 2 2 2 2 2
left_child=1 5 -3 4 -2 -1 -5
right_child=3 2 -4 6 -6 -7 -8
leaf_value=-0.95537881446903594 3.1115756153276157 0.60378975396344181 7.0735100861021323 0.64782830403881841 7.3740010800145095 -0.25843930821667749 6.3501840292562539
leaf_weight=930952 55672 405755 25161 49968 53528 651266 5424
leaf_count=930952 55672 405755 25161 49968 53528 651266 5424
internal_value=-1.54213e-09 -0.315308 0.981554 3.85655 5.20094 -0.668507 1.2062
internal_weight=2.17773e+06 2.01313e+06 430916 164592 109200 1.58222e+06 55392
internal_count=2177726 2013134 430916 164592 109200 1582218 55392
is_linear=0
shrinkage=0.0267391


Tree=94
num_leaves=8
num_cat=0
split_feature=6 6 0 8 15 0 6
split_gain=3.50835e+09 1.22167e+09 1.37654e+09 7.7697e+08 6.69754e+08 2.48623e+08 2.10785e+08
threshold=611.50000000000011 223.50000000000003 15.500000000000002 67.500000000000014 1083.3030557492002 14.500000000000002 827.50000000000011
decision_type=2 2 2 2 2 2 2
left_child=1 5 -3 4 -2 -1 -5
right_child=3 2 -4 6 -6 -7 -8
leaf_value=-0.34833327921671103 4.5076252769444798 1.5340034520981853 -2.9914227056181533 0.63050598834672933 12.973735229007207 -1.0222792196138022 6.1803861335113526
leaf_weight=872513 102051 375812 55104 49968 7149 709705 5424
leaf_count=872513 102051 375812 55104 49968 7149 709705 5424
internal_value=-7.03566e-10 -0.306877 0.955308 3.75343 5.06188 -0.650632 1.17395
internal_weight=2.17773e+06 2.01313e+06 430916 164592 109200 1.58222e+06 55392
internal_count=2177726 2013134 430916 164592 109200 1582218 55392
is_linear=0
shrinkage=0.0267391


Tree=95
num_leaves=8
num_cat=0
split_feature=6 6 14 8 15 14 0
split_gain=3.32324e+09 1.16051e+09 2.05263e+09 7.40727e+08 8.29851e+08 1.72783e+08 9.19958e+07
threshold=611.50000000000011 119.50000000000001 210.63208333333333 92.500000000000014 698.54116472848136 488.47583333333336 4.5000000000000009
decision_type=2 2 2 2 2 2 2
left_child=1 6 -3 4 -2 -5 -1
right_child=3 2 -4 5 -6 -7 -8
leaf_value=-1.0357161788442424 2.5718395290101563 -1.6222655165377533 1.719843534385133 2.6873243806935454 6.7823387307279592 -1.62455238386722 -0.57272078404245119
leaf_weight=453554 73274 191247 419798 10031 61606 19681 948535
leaf_count=453554 73274 191247 419798 10031 61606 19681 948535
internal_value=1.38909e-09 -0.298671 0.673819 3.65307 4.49497 -0.16883 -0.722493
internal_weight=2.17773e+06 2.01313e+06 611045 164592 134880 29712 1.40209e+06
internal_count=2177726 2013134 611045 164592 134880 29712 1402089
is_linear=0
shrinkage=0.0267391


Tree=96
num_leaves=8
num_cat=0
split_feature=6 0 6 8 15 6 6
split_gain=3.1479e+09 1.16048e+09 2.29537e+09 7.09658e+08 6.24454e+08 3.46207e+08 1.9912e+08
threshold=611.50000000000011 14.500000000000002 16.500000000000004 67.500000000000014 1083.3030557492002 14.500000000000002 827.50000000000011
decision_type=2 2 2 2 2 2 2
left_child=1 2 -1 4 -2 -3 -5
right_child=3 5 -4 6 -6 -7 -8
leaf_value=-0.91326640835726647 4.2706932483297919 -0.66589077233022931 1.4233185627605653 0.56197982710625882 12.445476679350699 -1.8234379865233465 5.9561117004728592
leaf_weight=610972 102051 525588 591715 49968 7149 284859 5424
leaf_count=610972 102051 525588 591715 49968 7149 284859 5424
internal_value=2.75363e-09 -0.290685 0.23632 3.55539 4.80587 -1.07275 1.09017
internal_weight=2.17773e+06 2.01313e+06 1.20269e+06 164592 109200 810447 55392
internal_count=2177726 2013134 1202687 164592 109200 810447 55392
is_linear=0
shrinkage=0.0267391


Tree=97
num_leaves=8
num_cat=0
split_feature=6 0 14 8 15 6 6
split_gain=2.98319e+09 1.07476e+09 2.31131e+09 7.50403e+08 7.05386e+08 6.10665e+08 1.66117e+08
threshold=592.50000000000011 15.500000000000002 328.59000000000003 72.500000000000014 1083.3030557492002 30.500000000000004 827.50000000000011
decision_type=2 2 2 2 2 2 2
left_child=1 2 -1 4 -2 -3 -5
right_child=3 5 -4 6 -6 -7 -8
leaf_value=-0.8190467603904269 3.9382069254861216 -0.68345098489526546 1.4831424889138418 0.30199198565727986 12.154241079538936 -2.5023862977693607 5.3656462091061226
leaf_weight=724575 115082 552622 547308 51696 7990 173365 5088
leaf_count=724575 115082 552622 547308 51696 7990 173365 5088
internal_value=-3.00691e-09 -0.296937 0.171616 3.29842 4.4716 -1.11781 0.755709
internal_weight=2.17773e+06 1.99787e+06 1.27188e+06 179856 123072 725987 56784
internal_count=2177726 1997870 1271883 179856 123072 725987 56784
is_linear=0
shrinkage=0.0267391


Tree=98
num_leaves=8
num_cat=0
split_feature=6 0 14 0 8 6 6
split_gain=2.86567e+09 1.93201e+09 2.1166e+09 6.14979e+08 2.73624e+08 6.97828e+08 2.24684e+08
threshold=241.50000000000003 12.500000000000002 210.63208333333333 15.500000000000002 67.500000000000014 27.500000000000004 44.500000000000007
decision_type=2 2 2 2 2 2 2
left_child=4 2 -2 -3 6 -6 -1
right_child=1 3 -4 -5 5 -7 -8
leaf_value=-0.78712321278115904 -1.1235595034931902 0.50439902855625007 4.0851538266590781 -2.8157840430021484 -0.75573998633732009 0.76609021649807274 -2.1275226252611525
leaf_weight=426706 71150 189846 258189 50496 768947 299278 113114
leaf_count=426706 71150 189846 258189 50496 768947 299278 113114
internal_value=-4.45887e-09 1.62964 2.95987 -0.193173 -0.57733 -0.329378 -1.06799
internal_weight=2.17773e+06 569681 329339 240342 1.60804e+06 1.06822e+06 539820
internal_count=2177726 569681 329339 240342 1608045 1068225 539820
is_linear=0
shrinkage=0.0267391


Tree=99
num_leaves=8
num_cat=0
split_feature=6 6 15 0 15 8 7
split_gain=2.71714e+09 1.32148e+09 1.52499e+09 3.93119e+08 3.52367e+08 2.36259e+08 9.85722e+07
threshold=711.50000000000011 223.50000000000003 901.36448973806796 12.500000000000002 1137.6948507558611 99.500000000000014 4.3500000000000005
decision_type=2 2 2 2 2 2 2
left_child=1 5 -3 4 -2 -1 -5
right_child=3 2 -4 6 -6 -7 -8
leaf_value=-0.85049942507886533 5.1815910653591919 0.45036646769821231 4.966973381305583 -0.8704351291830118 13.715379104563553 -0.18655682052682879 2.7913013383168326
leaf_weight=930952 60025 443732 60768 7104 3671 651266 20208
leaf_count=930952 60025 443732 60768 7104 3671 651266 20208
internal_value=1.6093e-09 -0.197246 0.9944 4.52265 5.67342 -0.57721 1.83886
internal_weight=2.17773e+06 2.08672e+06 504500 91008 63696 1.58222e+06 27312
internal_count=2177726 2086718 504500 91008 63696 1582218 27312
is_linear=0
shrinkage=0.0267391


Tree=100
num_leaves=8
num_cat=0
split_feature=6 15 0 8 15 14 6
split_gain=2.57853e+09 1.12008e+09 2.03334e+09 6.67248e+08 5.92038e+08 4.77116e+08 1.28734e+08
threshold=642.50000000000011 619.48409155404909 15.500000000000002 93.500000000000014 698.54116472848136 43.962083333333318 754.50000000000011
decision_type=2 2 2 2 2 2 2
left_child=1 5 -3 4 -2 -1 -5
right_child=3 2 -4 6 -6 -7 -8
leaf_value=-1.8377512679070831 2.5174770056031859 1.9642109641609211 -1.2443951673872375 -2.0093344976325644 6.2989082957337459 -0.44824427219566981 2.1828949099500212
leaf_weight=206256 63030 367262 229424 15840 55818 1232272 7824
leaf_count=206256 63030 367262 229424 15840 55818 1232272 7824
internal_value=-4.96671e-09 -0.243473 0.730511 3.47704 4.29346 -0.647472 -0.623263
internal_weight=2.17773e+06 2.03521e+06 596686 142512 118848 1.43853e+06 23664
internal_count=2177726 2035214 596686 142512 118848 1438528 23664
is_linear=0
shrinkage=0.0267391


Tree=101
num_leaves=8
num_cat=0
split_feature=6 0 14 0 8 6 6
split_gain=2.48557e+09 1.78815e+09 1.92191e+09 5.66471e+08 2.5155e+08 6.58795e+08 2.151e+08
threshold=241.50000000000003 12.500000000000002 210.63208333333333 15.500000000000002 67.500000000000014 38.500000000000007 38.500000000000007
decision_type=2 2 2 2 2 2 2
left_child=4 2 -2 -3 6 -6 -1
right_child=1 3 -4 -5 5 -7 -8
leaf_value=-0.72640002687226313 -1.0936328886584723 0.43357970545803309 3.8697490573923035 -2.7529697435750773 -0.68939755749141585 0.83225175157209663 -2.0193552984384651
leaf_weight=422194 71150 189846 258189 50496 794819 273406 117626
leaf_count=422194 71150 189846 258189 50496 794819 273406 117626
internal_value=-1.00796e-09 1.51772 2.79747 -0.235916 -0.53768 -0.29994 -1.00813
internal_weight=2.17773e+06 569681 329339 240342 1.60804e+06 1.06822e+06 539820
internal_count=2177726 569681 329339 240342 1608045 1068225 539820
is_linear=0
shrinkage=0.0267391


Tree=102
num_leaves=8
num_cat=0
split_feature=6 15 6 14 0 15 7
split_gain=2.37141e+09 1.19086e+09 1.61154e+09 6.7861e+08 3.54715e+08 3.29734e+08 9.17787e+07
threshold=711.50000000000011 901.36448973806796 76.500000000000014 153.84375000000003 12.500000000000002 1137.6948507558611 4.3500000000000005
decision_type=2 2 2 2 2 2 2
left_child=1 3 -3 -1 5 -2 -6
right_child=4 2 -4 -5 6 -7 -8
leaf_value=-1.0870114308231869 4.8424718082634151 -0.38196378848132018 4.6305541388137739 -0.020890422893134565 -0.93847179795022584 13.097641051064615 2.5948297605039383
leaf_weight=647162 60025 102493 82992 1254071 7104 3671 20208
leaf_count=647162 60025 102493 82992 1254071 7104 3671 20208
