tree
version=v4
num_class=1
num_tree_per_iteration=1
label_index=0
max_feature_idx=15
objective=regression
feature_names=hour_of_day day_of_week month is_weekend is_swiss_holiday temperature solar_radiation wind_speed cloud_cover hours_ahead wind_mw_lag_1h wind_mw_lag_24h wind_mw_lag_48h wind_mw_lag_168h wind_mw_rolling_24h_mean wind_mw_rolling_24h_std
feature_infos=[0:23] [0:6] [1:12] [0:1] [0:1] [-20.199999999999999:25.399999999999999] [0:991] [0:20.800000000000001] [0:100] [1:48] [0:76.260000000000005] [0:76.260000000000005] [0:76.260000000000005] [0:76.260000000000005] [0:69.154583333333335] [0:27.547577706578846]
tree_sizes=2254 2343 2320 2338 2330 2339 2294 2335 2337 2317 2341 2321 2342 2334 2326 2312 2327 2308 2320 2312 2307 2323 2282 2304 2300 2307 2290 2304 2297 2328 2313 2288 2299 2299 2295 2298 2295 2279 2291 2271 2299 2289 2283 2257 2291 2246 2292 2284 2297 2283 2247 2284 2288 2277 2276 2272 2277 2251 2280 2265 2274 2279 2281 2271 2252 2254 2277 2269 2245 2285 2272 2278 2263 2284 2256 2273 2244 2296 2263 2278 2250 2266 2251 2257 2282 2242 2278 2250 2267 2236 2230 2243 2257 2274 2244 2260 2263 2232 2254 2249 2262 2267 2270 2243 2229 2265 2237 2255 2254 2253 2243 2242 2234 2250 2256 2252 2236 2233 2276 2239 2220 2230 2272 2272 2267 2219 2224 2251 2260 2249 2267 2222 2240 2209 2271 2193 2246 2225 2237 2246 2250 2256 2264 2256 2261 2258 2223 2267 2234 2223 2259 2236 2242 2224 2249 2218 2222 2258 2237 2229 2222 2252 2247 2219 2243 2244 2235 2207 2233 2254 2235 2243 2259 2219 2261 2245 2219 2259 2240 2260 2242 2251 2248 2260 2207 2278 2241 2242 2244 2278 2233 2240 2249 2241 2238 2245 2258 2216 2234 2245 2238 2266 2204 2255 2194 2260 2232 2227 2224 2232 2223 2249 2243 2266 2233 2238 2268 2267 2259 2216 2234 2226 2263 2262 2230 2218 2262 2262 2235 2244 2253 2224 2236 2269 2225 2238 2225 2257 2233 2257 2247 2256 2241 2258 2237 2278 2196 2225 2259 2227

Tree=0
num_leaves=22
num_cat=0
split_feature=10 7 7 10 9 5 8 5 5 7 7 10 7 14 5 14 7 5 2 10 12
split_gain=7.94522e+07 2.11696e+07 1.7791e+07 1.03929e+07 5.16491e+06 4.25002e+06 3.795e+06 3.32368e+06 3.29309e+06 2.93407e+06 2.63114e+06 2.39618e+06 2.02882e+06 2.02067e+06 1.99764e+06 1.93719e+06 1.65705e+06 1.47641e+06 1.37851e+06 1.28929e+06 1.12915e+06
threshold=27.155000000000005 7.6500000000000012 5.9500000000000011 11.695000000000002 13.500000000000002 0.65000000000000002 96.500000000000014 3.4500000000000006 4.1500000000000012 3.6500000000000008 4.2500000000000009 41.675000000000004 8.2500000000000018 1.7175000000000005 4.6500000000000012 1.0000000180025095e-35 3.9500000000000006 0.25000000000000006 9.5000000000000018 52.915000000000006 38.455000000000005
decision_type=2 2 2 2 2 2 2 2 2 2 2 2 2 2 2 2 2 2 2 2 2
left_child=1 3 4 6 11 15 13 12 10 -6 -5 -2 -4 -1 -11 -3 -8 -15 -7 -14 -18
right_child=2 5 7 8 9 18 16 -9 -10 14 -12 -13 19 17 -16 -17 20 -19 -20 -21 -22
leaf_value=16.612086799550688 17.111154583786384 16.57404462920406 17.29557269612544 16.900653570466947 16.955193931836885 16.938914536717029 16.804241955064956 17.148143343684826 16.840387928250667 17.127878691664215 17.024732716655752 17.326369131967589 17.420450308162614 16.819147038483511 16.918801938148174 17.239311410313793 16.874900248101184 16.750815390083172 17.12418099590613 17.670457943098988 17.06025561438685
leaf_weight=34809 53223 1851 57439 198949 141464 56938 194768 32600 210563 102461 108037 35220 45524 181936 22908 57429 147112 449838 23141 10377 14821
leaf_count=34809 53223 1851 57439 198949 141464 56938 194768 32600 210563 102461 108037 35220 45524 181936 22908 57429 147112 449838 23141 10377 14821
internal_value=16.9164 16.8497 17.1401 16.8281 17.0628 17.0886 16.7907 17.3282 16.902 17.0184 16.9443 17.1969 17.3801 16.7622 17.0897 17.2185 16.844 16.7705 16.9925 17.4669 16.8919
internal_weight=2.18141e+06 1.68019e+06 501216 1.54083e+06 355276 139359 1.02328e+06 145940 517549 266833 306986 88443 113340 666583 125369 59280 356701 631774 80079 55901 161933
internal_count=2181408 1680192 501216 1540833 355276 139359 1023284 145940 517549 266833 306986 88443 113340 666583 125369 59280 356701 631774 80079 55901 161933
is_linear=0
shrinkage=1


Tree=1
num_leaves=22
num_cat=0
split_feature=10 7 7 10 9 5 8 5 5 7 7 10 14 7 5 14 7 5 2 10 12
split_gain=7.62684e+07 2.03213e+07 1.70781e+07 9.97818e+06 4.95794e+06 4.07972e+06 3.66784e+06 3.19049e+06 3.09002e+06 2.8165e+06 2.48583e+06 2.30016e+06 1.9497e+06 1.94752e+06 1.91759e+06 1.85956e+06 1.59995e+06 1.45416e+06 1.32327e+06 1.23839e+06 1.0748e+06
threshold=27.155000000000005 7.6500000000000012 5.9500000000000011 11.815000000000003 13.500000000000002 0.65000000000000002 96.500000000000014 3.4500000000000006 3.8500000000000001 3.6500000000000008 3.7500000000000004 41.675000000000004 1.7175000000000005 8.2500000000000018 4.6500000000000012 1.0000000180025095e-35 3.9500000000000006 0.25000000000000006 9.5000000000000018 53.745000000000012 38.455000000000005
decision_type=2 2 2 2 2 2 2 2 2 2 2 2 2 2 2 2 2 2 2 2 2
left_child=1 3 4 6 11 15 12 13 10 -6 -5 -2 -1 -4 -11 -3 -8 -14 -7 -15 -18
right_child=2 5 7 8 9 18 16 -9 -10 14 -12 -13 17 19 -16 -17 20 -19 -20 -21 -22
leaf_value=-0.29819741581271314 0.19076891134066123 -0.33546959086459488 0.37145427209499504 -0.026206927790988436 0.03796500748479377 0.022015117476883464 -0.10953835931594599 0.22700898826868235 -0.072142906016895672 0.20715451006943453 0.09114510794336006 0.40162737527217457 -0.094586921804683519 0.49679245225584001 0.0023096106851978266 0.31633175646947165 -0.040310346672094093 -0.16210893477789215 0.20353165846927357 0.75291576737817023 0.13952194177900512
leaf_weight=34809 53223 1851 57439 157422 141464 56938 196386 32600 212772 102461 139465 35220 183654 46629 22908 57429 148426 452908 23141 9272 14991
leaf_count=34809 53223 1851 57439 157422 141464 56938 196386 32600 212772 102461 139465 35220 183654 46629 22908 57429 148426 452908 23141 9272 14991
internal_value=-8.18687e-11 -0.0653675 0.219127 -0.0865369 0.143402 0.168694 -0.122748 0.40347 -0.0132716 0.0998709 0.0289201 0.274738 -0.150694 0.454226 0.169724 0.295979 -0.0706034 -0.142628 0.0744692 0.539274 -0.0238135
internal_weight=2.18141e+06 1.68019e+06 501216 1.54083e+06 355276 139359 1.03117e+06 145940 509659 266833 296887 88443 671371 113340 125369 59280 359803 636562 80079 55901 163417
internal_count=2181408 1680192 501216 1540833 355276 139359 1031174 145940 509659 266833 296887 88443 671371 113340 125369 59280 359803 636562 80079 55901 163417
is_linear=0
shrinkage=0.0202407


Tree=2
num_leaves=22
num_cat=0
split_feature=10 7 7 10 9 5 5 5 15 8 7 7 10 5 14 7 7 2 10 7 2
split_gain=7.32122e+07 1.95069e+07 1.64018e+07 9.60781e+06 4.26656e+06 4.21555e+06 3.91624e+06 3.58544e+06 3.27865e+06 3.16019e+06 2.92956e+06 2.69239e+06 1.90525e+06 1.86914e+06 1.78505e+06 1.7123e+06 1.6181e+06 1.27025e+06 1.21062e+06 1.09571e+06 973691
threshold=27.155000000000005 7.6500000000000012 5.1500000000000012 10.535000000000002 14.500000000000002 4.0500000000000007 0.65000000000000002 3.8500000000000001 0.71674907698291501 91.500000000000014 8.2500000000000018 4.2500000000000009 41.675000000000004 4.6500000000000012 1.0000000180025095e-35 3.9500000000000006 3.2500000000000004 9.5000000000000018 52.915000000000006 4.2500000000000009 1.5000000000000002
decision_type=2 2 2 2 2 2 2 2 2 2 2 2 2 2 2 2 2 2 2 2 2
left_child=1 3 4 8 12 10 14 11 -1 19 -4 -5 -2 16 -3 -11 -6 -8 -12 -10 -16
right_child=2 6 5 7 13 -7 17 -9 9 15 18 -13 -14 -15 20 -17 -18 -19 -20 -21 -22
leaf_value=-0.30697307836194587 0.17078215962501819 -0.32867945306955987 0.34058835380888364 -0.018889022582397021 0.042505327434035158 0.17700696365946084 0.021569514656639525 -0.077865530995717705 -0.16846556920739197 -0.11021833417638204 0.47958707767066266 0.10166329957491474 0.37212686469223177 -0.049360300806104374 0.5243591469879697 -0.022316574175263806 0.1614971191303651 0.19941204060780579 0.72000544821950607 -0.10838637579075967 0.27753581084724105
leaf_weight=38685 49608 1851 95440 217795 90013 40451 56938 253064 356894 202337 47023 116497 31467 39151 7537 164682 97567 23141 10496 190879 49892
leaf_count=38685 49608 1851 95440 217795 90013 40451 56938 253064 356894 202337 47023 116497 31467 39151 7537 164682 97567 23141 10496 190879 49892
internal_value=-1.60342e-10 -0.0640444 0.214692 -0.0847854 0.122909 0.36076 0.16528 -0.0203887 -0.124455 -0.116736 0.409355 0.0231221 0.248928 0.0778469 0.289989 -0.0707767 0.104397 0.0729619 0.523458 -0.14753 0.309929
internal_weight=2.18141e+06 1.68019e+06 501216 1.54083e+06 307806 193410 139359 587356 953477 914792 152959 334292 81075 226731 59280 367019 187580 80079 57519 547773 57429
internal_count=2181408 1680192 501216 1540833 307806 193410 139359 587356 953477 914792 152959 334292 81075 226731 59280 367019 187580 80079 57519 547773 57429
is_linear=0
shrinkage=0.0202407


Tree=3
num_leaves=22
num_cat=0
split_feature=10 7 7 10 9 5 8 5 5 7 7 14 10 5 14 7 9 7 7 8 10
split_gain=7.02785e+07 1.87253e+07 1.57922e+07 9.22582e+06 4.61003e+06 3.76431e+06 3.39807e+06 2.93626e+06 2.84919e+06 2.67468e+06 2.34166e+06 2.0754e+06 2.048e+06 1.92824e+06 1.80394e+06 1.79754e+06 1.53394e+06 1.40212e+06 1.26761e+06 1.26743e+06 1.07383e+06
threshold=27.155000000000005 7.6500000000000012 5.9500000000000011 11.815000000000003 12.500000000000002 2.8500000000000001 96.500000000000014 3.4500000000000006 4.1500000000000012 3.4500000000000006 4.4500000000000011 1.0000000180025095e-35 41.675000000000004 4.6500000000000012 1.7175000000000005 8.5500000000000025 11.500000000000002 4.2500000000000009 3.9500000000000006 99.500000000000014 52.915000000000006
decision_type=2 2 2 2 2 2 2 2 2 2 2 2 2 2 2 2 2 2 2 2 2
left_child=1 3 4 6 12 11 14 15 10 -6 -5 -3 -2 -11 -1 -4 -8 -16 -18 -13 -17
right_child=2 5 7 8 9 -7 16 -9 -10 13 -12 19 -14 -15 17 20 18 -19 -20 -21 -22
leaf_value=-0.28666957363818812 0.18895030694994025 -0.32684518029662396 0.36350109434423028 -0.010662066808599624 0.03221324203594985 0.050515038105887061 -0.14628463756996196 0.2183287330178359 -0.070501880857999688 0.1939953021552781 0.11120938450871953 0.18621315338739813 0.39657221804098958 0.00076891338717245867 -0.15924465064645871 0.48078299909989669 -0.08535706507813462 -0.096409804503364477 0.00095019636475081337 0.35780692008119269 0.71853749644840514
leaf_weight=34809 49036 2379 62420 209297 131985 65679 79323 32600 206941 116107 93421 31966 32275 25873 411498 41332 150865 225064 129615 39335 9588
leaf_count=34809 49036 2379 62420 209297 131985 65679 79323 32600 206941 116107 93421 31966 32275 25873 411498 41332 150865 225064 129615 39335 9588
internal_value=2.14181e-10 -0.0627481 0.210346 -0.0830693 0.137528 0.161935 -0.117889 0.387614 -0.0126202 0.0978073 0.0269484 0.261255 0.271362 0.158784 -0.144787 0.436305 -0.0676981 -0.137029 -0.0454729 0.280877 0.525551
internal_weight=2.18141e+06 1.68019e+06 501216 1.54083e+06 355276 139359 1.03117e+06 145940 509659 273965 302718 73680 81311 141980 671371 113340 359803 636562 280480 71301 50920
internal_count=2181408 1680192 501216 1540833 355276 139359 1031174 145940 509659 273965 302718 73680 81311 141980 671371 113340 359803 636562 280480 71301 50920
is_linear=0
shrinkage=0.0202407


Tree=4
num_leaves=22
num_cat=0
split_feature=10 7 7 10 9 5 5 5 15 8 7 7 10 10 14 9 2 2 5 10 5
split_gain=6.74623e+07 1.79749e+07 1.51782e+07 8.88432e+06 3.94586e+06 3.92174e+06 3.63175e+06 3.32385e+06 3.073e+06 2.93284e+06 2.71016e+06 2.45072e+06 1.76345e+06 1.75343e+06 1.64643e+06 1.61534e+06 1.29849e+06 1.21248e+06 1.07221e+06 1.00933e+06 985631
threshold=27.155000000000005 7.6500000000000012 5.1500000000000012 10.535000000000002 14.500000000000002 6.1500000000000012 0.65000000000000002 3.7500000000000004 0.71674907698291501 91.500000000000014 8.2500000000000018 3.6500000000000008 41.675000000000004 44.555000000000007 1.0000000180025095e-35 12.500000000000002 1.5000000000000002 9.5000000000000018 0.15000000000000005 45.475000000000001 4.5500000000000007
decision_type=2 2 2 2 2 2 2 2 2 2 2 2 2 2 2 2 2 2 2 2 2
left_child=1 3 4 8 12 10 14 11 -1 18 19 -5 -2 20 -3 -11 -12 -8 -10 -4 -6
right_child=2 6 5 7 13 -7 17 -9 9 15 16 -13 -14 -15 -16 -17 -18 -19 -20 -21 -22
leaf_value=-0.29623593753971456 0.16380469122798874 -0.31541121041460624 0.26885344585580856 -0.03075731847830146 0.061395143957845524 0.1228430802288269 0.01954504358394471 -0.074320164549067813 -0.097508482643461486 -0.14332169153893487 0.65454971835368569 0.079306645414821964 0.35751191390378956 0.15269976036162441 0.29790108017567074 -0.043915164870028632 0.43757453161447479 0.19329652318895965 -0.15986263281049443 0.39788919146899576 -0.064567881037575381
leaf_weight=38685 49608 1851 62301 170327 116869 27523 56938 255595 159315 88135 14831 161434 31467 77328 57429 278884 47458 23141 388458 41297 32534
leaf_count=38685 49608 1851 62301 170327 116869 27523 56938 255595 159315 88135 14831 161434 31467 77328 57429 278884 47458 23141 388458 41297 32534
internal_value=-3.84534e-10 -0.061478 0.206089 -0.0813879 0.117796 0.346603 0.158657 -0.0194633 -0.119534 -0.112062 0.383728 0.0227995 0.238987 0.0744605 0.278751 -0.0677864 0.489236 0.0697552 -0.141727 0.320291 0.0339654
internal_weight=2.18141e+06 1.68019e+06 501216 1.54083e+06 307806 193410 139359 587356 953477 914792 165887 331761 81075 226731 59280 367019 62289 80079 547773 103598 149403
internal_count=2181408 1680192 501216 1540833 307806 193410 139359 587356 953477 914792 165887 331761 81075 226731 59280 367019 62289 80079 547773 103598 149403
is_linear=0
shrinkage=0.0202407


Tree=5
num_leaves=22
num_cat=0
split_feature=10 7 7 10 9 5 8 10 5 7 7 14 10 5 14 7 7 5 8 7 2
split_gain=6.47615e+07 1.74481e+07 1.44095e+07 8.72391e+06 4.31291e+06 3.52245e+06 3.14831e+06 2.71869e+06 2.65092e+06 2.5054e+06 2.22987e+06 1.93161e+06 1.80901e+06 1.69336e+06 1.67505e+06 1.42223e+06 1.40066e+06 1.39116e+06 1.22521e+06 1.07585e+06 1.02752e+06
threshold=27.495000000000001 7.6500000000000012 5.9500000000000011 11.815000000000003 12.500000000000002 2.8500000000000001 96.500000000000014 43.555000000000007 4.1500000000000012 3.6500000000000008 3.9500000000000006 1.0000000180025095e-35 41.675000000000004 4.6500000000000012 1.0000000180025095e-35 3.9500000000000006 4.2500000000000009 6.7500000000000009 99.500000000000014 8.5500000000000025 9.5000000000000018
decision_type=2 2 2 2 2 2 2 2 2 2 2 2 2 2 2 2 2 2 2 2 2
left_child=1 3 4 6 12 11 14 17 10 -6 -5 -3 -2 -11 -1 -8 -16 -4 -13 -9 -7
right_child=2 5 7 8 9 20 15 19 -10 13 -12 18 -14 -15 16 -17 -18 -19 -20 -21 -22
leaf_value=-0.31106796080086607 0.18499742525984214 -0.31535018848286783 0.33165047112342788 -0.020193235701957964 0.036718798005296885 0.0006678367453247031 -0.10161952061331467 0.39105316163302789 -0.066939498373291773 0.19515113428600211 0.090112237167367118 0.17806865297442906 0.38135713332800836 0.0031494234585407385 -0.15507926317895049 -0.020795816543637335 -0.092811480047230846 0.10582334616752848 0.34606396548460261 0.55255018812085865 0.18114757900833328
leaf_weight=22433 47525 2379 62780 177463 142414 48358 196386 35673 209028 103942 130143 32200 32275 22979 420589 163417 228349 13596 39730 32112 17637
leaf_count=22433 47525 2379 62780 177463 142414 48358 196386 35673 209028 103942 130143 32200 32275 22979 420589 163417 228349 13596 39730 32112 17637
internal_value=6.03357e-10 -0.0596167 0.204015 -0.0792085 0.13372 0.156517 -0.113222 0.374257 -0.01132 0.0949971 0.0264752 0.252092 0.264415 0.160389 -0.139113 -0.0649106 -0.133168 0.29145 0.27086 0.46756 0.0489006
internal_weight=2.18141e+06 1.68811e+06 493296 1.54781e+06 349135 140304 1.03117e+06 144161 516634 269335 307606 74309 79800 126921 671371 359803 648938 76376 71930 67785 65995
internal_count=2181408 1688112 493296 1547808 349135 140304 1031174 144161 516634 269335 307606 74309 79800 126921 671371 359803 648938 76376 71930 67785 65995
is_linear=0
shrinkage=0.0202407


Tree=6
num_leaves=22
num_cat=0
split_feature=10 7 7 10 5 9 5 5 15 8 7 7 10 10 9 14 2 10 7 5 7
split_gain=6.21735e+07 1.65618e+07 1.40419e+07 8.24622e+06 3.67061e+06 3.6624e+06 3.54571e+06 3.3678e+06 2.76349e+06 2.56385e+06 2.51631e+06 2.5e+06 1.71844e+06 1.60732e+06 1.52245e+06 1.51832e+06 1.11889e+06 1.08896e+06 958260 955929 913627
threshold=27.155000000000005 7.6500000000000012 5.1500000000000012 9.5050000000000008 4.0500000000000007 15.500000000000002 3.7500000000000004 0.65000000000000002 0.71674907698291501 91.500000000000014 4.4500000000000011 8.2500000000000018 38.865000000000002 45.475000000000001 11.500000000000002 1.0000000180025095e-35 9.5000000000000018 53.745000000000012 11.15 3.9500000000000006 3.9500000000000006
decision_type=2 2 2 2 2 2 2 2 2 2 2 2 2 2 2 2 2 2 2 2 2
left_child=1 3 5 8 11 12 10 15 -1 -10 -5 -4 -2 19 -11 -3 -9 -13 -17 -7 -8
right_child=2 7 4 6 -6 13 20 16 9 14 -12 17 -14 -15 -16 18 -18 -19 -20 -21 -22
leaf_value=-0.28581753947251443 0.13562693662042721 -0.3026441700584791 0.31481763717162686 -0.016844136939871902 0.16153209627429227 0.060253913038324912 -0.11270211118848485 0.018441857561304658 -0.13958709879285211 -0.14915257517518996 0.098834810208261237 0.44491317662724422 0.31527960047273601 0.1503814216204109 -0.044859959181164664 0.23756638334342234 0.18535271930230085 0.68346672456570456 0.4265291849204445 -0.059889839830182215 -0.041293225282891192
leaf_weight=38685 44392 1851 95440 253056 40451 116644 143466 56938 507832 73299 110755 48155 42886 68529 263435 42611 23141 9364 14818 35355 150305
leaf_count=38685 44392 1851 95440 253056 40451 116644 143466 56938 507832 73299 110755 48155 42886 68529 263435 42611 23141 9364 14818 35355 150305
internal_value=1.06497e-10 -0.059019 0.197845 -0.0781302 0.332998 0.112922 -0.0238625 0.152285 -0.118533 -0.11087 0.018372 0.378343 0.223903 0.0689996 -0.067562 0.267933 0.0666753 0.483749 0.286323 0.0323085 -0.0761665
internal_weight=2.18141e+06 1.68019e+06 501216 1.54083e+06 193410 307806 657582 139359 883251 844566 363811 152959 87278 220528 336734 59280 80079 57519 57429 151999 293771
internal_count=2181408 1680192 501216 1540833 193410 307806 657582 139359 883251 844566 363811 152959 87278 220528 336734 59280 80079 57519 57429 151999 293771
is_linear=0
shrinkage=0.0202407


Tree=7
num_leaves=22
num_cat=0
split_feature=10 7 7 10 9 5 8 10 5 7 7 14 5 10 14 9 5 6 12 2 7
split_gain=5.96874e+07 1.60779e+07 1.33251e+07 8.0822e+06 4.02752e+06 3.26543e+06 2.92074e+06 2.5671e+06 2.44185e+06 2.44152e+06 2.08106e+06 1.79197e+06 1.73366e+06 1.63701e+06 1.55687e+06 1.37337e+06 1.34702e+06 1.29416e+06 1.18246e+06 1.17313e+06 989909
threshold=27.495000000000001 7.6500000000000012 5.9500000000000011 11.815000000000003 11.500000000000002 2.8500000000000001 96.500000000000014 43.555000000000007 4.1500000000000012 3.4500000000000006 3.7500000000000004 1.0000000180025095e-35 4.6500000000000012 38.865000000000002 1.7175000000000005 12.500000000000002 0.25000000000000006 315.50000000000006 35.685000000000009 1.5000000000000002 8.5500000000000025
decision_type=2 2 2 2 2 2 2 2 2 2 2 2 2 2 2 2 2 2 2 2 2
left_child=1 3 4 6 13 11 14 17 10 -6 -5 -3 -11 -2 -1 -8 -16 -4 -17 -13 -9
right_child=2 5 7 8 9 -7 15 20 -10 12 -12 19 -14 -15 16 18 -18 -19 -20 -21 -22
leaf_value=-0.26552487157211252 0.16507346789903768 -0.30428397130219598 0.31919116620621185 -0.024105872489377823 0.030394332901591662 0.046624001688254348 -0.13249152544218537 0.37684774884671096 -0.064077501569470285 0.18385575507077542 0.081363798209482863 0.49212974719289299 0.00099751847278853941 0.35697043686711166 -0.080270970252693252 -0.054682505551593645 -0.14525808141155458 0.10592847410154785 0.080651847139834934 0.23151243059700985 0.53175996822616967
leaf_weight=34809 36009 2379 62020 162702 132753 65995 86586 35673 209028 117599 144904 7956 25924 36850 183654 243545 452908 14356 29672 63974 32112
leaf_count=34809 36009 2379 62020 162702 132753 65995 86586 35673 209028 117599 144904 7956 25924 36850 183654 243545 452908 14356 29672 63974 32112
internal_value=1.03466e-10 -0.0572336 0.195859 -0.0760404 0.128261 0.15024 -0.108779 0.359571 -0.0106964 0.092958 0.0255777 0.242262 0.150827 0.262129 -0.133716 -0.0622465 -0.126509 0.279105 -0.0399849 0.260339 0.450235
internal_weight=2.18141e+06 1.68811e+06 493296 1.54781e+06 349135 140304 1.03117e+06 144161 516634 276276 307606 74309 143523 72859 671371 359803 636562 76376 273217 71930 67785
internal_count=2181408 1688112 493296 1547808 349135 140304 1031174 144161 516634 276276 307606 74309 143523 72859 671371 359803 636562 76376 273217 71930 67785
is_linear=0
shrinkage=0.0202407


Tree=8
num_leaves=22
num_cat=0
split_feature=10 7 7 10 9 5 7 8 5 7 5 14 7 5 10 14 2 7 8 2 2
split_gain=5.73041e+07 1.6114e+07 1.21223e+07 8.49108e+06 3.45275e+06 3.21819e+06 3.10457e+06 2.85953e+06 2.4778e+06 2.32657e+06 2.23239e+06 1.73747e+06 1.571e+06 1.37967e+06 1.37597e+06 1.37285e+06 1.34902e+06 1.22723e+06 1.20444e+06 1.10496e+06 1.02048e+06
threshold=28.965000000000003 7.6500000000000012 5.1500000000000012 12.075000000000001 16.500000000000004 2.8500000000000001 8.2500000000000018 91.500000000000014 5.9500000000000011 4.4500000000000011 6.1500000000000012 1.0000000180025095e-35 3.9500000000000006 4.6500000000000012 45.475000000000001 6.1806250000000009 1.5000000000000002 3.2500000000000004 99.500000000000014 3.5000000000000004 9.5000000000000018
decision_type=2 2 2 2 2 2 2 2 2 2 2 2 2 2 2 2 2 2 2 2 2
left_child=1 3 4 7 14 11 10 15 9 -5 -4 -3 -9 17 -2 -1 -8 -6 -13 -14 -7
right_child=2 5 6 8 13 20 16 12 -10 -11 -12 18 19 -15 -16 -17 -18 -19 -20 -21 -22
leaf_value=-0.16733268129600201 0.17312024486448008 -0.29812506507317543 0.30302778679897802 -0.011057963261482151 0.036700354325157433 0.00077729589579210012 0.61195763567635719 -0.10055859345152106 -0.069481130378292358 0.10006206256907857 0.050028353509113617 0.16713654673165648 0.078792053781258115 -0.051228186557066721 0.35311013011582876 -0.10687711508472116 0.39156221862978119 0.14756097420583913 0.33066854514497129 -0.045613653522828985 0.17803823203635394
leaf_weight=273309 60030 2379 97424 244597 78843 49108 14591 230997 172043 112789 16744 33383 36092 31922 24503 352179 51668 85027 41252 154278 18250
leaf_count=273309 60030 2379 97424 244597 78843 49108 14591 230997 172043 112789 16744 33383 36092 31922 24503 352179 51668 85027 41252 154278 18250
internal_value=4.35196e-10 -0.0536829 0.200476 -0.0724287 0.117184 0.150988 0.329885 -0.105837 -0.00637023 0.0240109 0.265923 0.240359 -0.065079 0.0705081 0.225293 -0.133293 0.440096 0.0942225 0.257523 -0.0220277 0.0488044
internal_weight=2.18141e+06 1.72066e+06 460752 1.57628e+06 280325 144372 180427 1.04686e+06 529429 357386 114168 77014 421367 195792 84533 625488 66259 163870 74635 190370 67358
internal_count=2181408 1720656 460752 1576284 280325 144372 180427 1046855 529429 357386 114168 77014 421367 195792 84533 625488 66259 163870 74635 190370 67358
is_linear=0
shrinkage=0.0202407


Tree=9
num_leaves=22
num_cat=0
split_feature=10 7 7 10 9 5 5 15 7 7 10 8 5 10 9 15 6 2 10 8 5
split_gain=5.5045e+07 1.46419e+07 1.24896e+07 7.38063e+06 3.85776e+06 3.23044e+06 3.01498e+06 2.5589e+06 2.45654e+06 2.3232e+06 2.29593e+06 2.26621e+06 1.68625e+06 1.68209e+06 1.41835e+06 1.36129e+06 1.27274e+06 1.02665e+06 908084 885436 842717
threshold=27.155000000000005 7.6500000000000012 6.1500000000000012 9.3850000000000033 11.500000000000002 3.7500000000000004 0.65000000000000002 0.71674907698291501 3.6500000000000008 3.4500000000000006 45.475000000000001 91.500000000000014 5.6500000000000012 38.865000000000002 10.500000000000002 1.8693429868701941 315.50000000000006 9.5000000000000018 45.475000000000001 33.500000000000007 -0.54999999999999993
decision_type=2 2 2 2 2 2 2 2 2 2 2 2 2 2 2 2 2 2 2 2 2
left_child=1 3 4 7 13 9 15 -1 -6 -5 16 20 18 -2 -13 -3 -4 -8 -10 -7 -9
right_child=2 6 10 5 8 19 17 11 12 -11 -12 14 -14 -15 -16 -17 -18 -19 -20 -21 -22
leaf_value=-0.27307269804998135 0.15758113406167676 -0.028905617903762015 0.32117358686999675 -0.036956074490638376 0.033181869557059734 -0.12992129986361983 0.015942969816083903 -0.088001978738629222 0.13903212241018062 0.065051182665952431 0.4527762504225798 -0.14792543801188585 -0.0133830281108097 0.3471053564884018 -0.043032021897180542 0.28599288972028336 0.11354376049711758 0.17582647146791539 0.25554821116194337 -0.051127313563539022 -0.14745930488637493
leaf_weight=38685 38492 6292 66280 171481 148385 79782 56938 132587 75551 196035 54923 65809 21540 38250 267419 52988 14795 23141 43000 218295 370740
leaf_count=38685 38492 6292 66280 171481 148385 79782 56938 132587 75551 196035 54923 65809 21540 38250 267419 52988 14795 23141 43000 218295 370740
internal_value=-5.29463e-10 -0.0555326 0.186158 -0.073502 0.124502 -0.0227033 0.143147 -0.112133 0.0905726 0.0174551 0.351734 -0.104691 0.151361 0.252044 -0.0637474 0.252569 0.283284 0.0621456 0.181294 -0.072217 -0.131797
internal_weight=2.18141e+06 1.68019e+06 501216 1.54083e+06 365218 665593 139359 875240 288476 367516 135998 836555 140091 76742 333228 59280 81075 80079 118551 298077 503327
internal_count=2181408 1680192 501216 1540833 365218 665593 139359 875240 288476 367516 135998 836555 140091 76742 333228 59280 81075 80079 118551 298077 503327
is_linear=0
shrinkage=0.0202407


Tree=10
num_leaves=22
num_cat=0
split_feature=10 7 7 10 9 7 5 7 5 5 14 5 7 14 5 10 2 14 5 8 7
split_gain=5.28581e+07 1.48522e+07 1.12156e+07 7.88339e+06 3.2095e+06 3.10272e+06 2.98376e+06 2.91379e+06 2.09077e+06 1.86931e+06 2.44551e+06 1.86526e+06 1.87763e+06 1.63709e+06 1.3e+06 1.29199e+06 1.28094e+06 1.19991e+06 1.42491e+06 1.15172e+06 1.12918e+06
threshold=28.965000000000003 7.6500000000000012 5.1500000000000012 14.105000000000002 16.500000000000004 3.9500000000000006 2.8500000000000001 8.2500000000000018 6.1500000000000012 3.8500000000000001 1.0000000180025095e-35 5.9500000000000011 4.4500000000000011 1.0000000180025095e-35 4.6500000000000012 45.475000000000001 1.5000000000000002 1.7175000000000005 3.2500000000000004 99.500000000000014 3.1500000000000008
decision_type=2 2 2 2 2 2 2 2 2 2 2 2 2 2 2 2 2 2 2 2 2
left_child=1 3 4 5 15 17 13 8 -4 10 -7 12 -5 -3 20 -2 -9 -1 -19 -15 -6
right_child=2 6 7 11 14 9 -8 16 -10 -11 -12 -13 -14 19 -16 -17 -18 18 -20 -21 -22
leaf_value=-0.25660482478327606 0.16610118282476022 -0.29170722501965851 0.29095998738138956 -0.0019070913590093241 0.032900855939509657 -0.28961143413934354 0.046544469786528743 0.59125725727295753 0.046117429499133361 -0.092735627536357015 0.0040502308059790007 -0.0583759795056761 0.10774228088601301 0.15926447516338915 -0.050745044387200539 0.34051214934595087 0.37649480434975369 -0.088237139470603132 -0.14946511176380603 0.31917768409384606 0.13950275024624925
leaf_weight=27686 60030 2379 97424 201473 75415 12343 67358 14591 16744 285743 197743 133006 93753 33383 31922 24503 51668 296137 328400 41252 88455
leaf_count=27686 60030 2379 97424 201473 75415 12343 67358 14591 16744 285743 197743 133006 93753 33383 31922 24503 51668 296137 328400 41252 88455
internal_value=2.58512e-10 -0.0515583 0.192542 -0.0695552 0.112425 -0.0972006 0.144935 0.317017 0.255051 -0.0590371 -0.013203 0.00455963 0.0329135 0.23099 0.0674239 0.216656 0.423788 -0.126213 -0.120433 0.247651 0.0904432
internal_weight=2.18141e+06 1.72066e+06 460752 1.57628e+06 280325 1.14805e+06 144372 180427 114168 495829 210086 428232 295226 77014 195792 84533 66259 652223 624537 74635 163870
internal_count=2181408 1720656 460752 1576284 280325 1148052 144372 180427 114168 495829 210086 428232 295226 77014 195792 84533 66259 652223 624537 74635 163870
is_linear=0
shrinkage=0.0202407


Tree=11
num_leaves=22
num_cat=0
split_feature=10 7 7 10 5 9 10 2 2 7 15 7 10 5 5 10 7 5 7 7 9
split_gain=5.07535e+07 1.35161e+07 1.15602e+07 7.03485e+06 3.14927e+06 3.14511e+06 2.98619e+06 2.49718e+06 3.15483e+06 2.42321e+06 2.41754e+06 2.31118e+06 1.88781e+06 1.77159e+06 1.57242e+06 1.25461e+06 1.23784e+06 1.06523e+06 1.03408e+06 915757 859701
threshold=27.155000000000005 8.0500000000000025 5.3500000000000005 9.2750000000000004 3.7500000000000004 10.500000000000002 43.555000000000007 2.5000000000000004 9.5000000000000018 4.5500000000000007 0.71674907698291501 3.9500000000000006 45.475000000000001 3.8500000000000001 6.4500000000000011 38.865000000000002 8.2500000000000018 4.5500000000000007 10.65 3.9500000000000006 11.500000000000002
decision_type=2 2 2 2 2 2 2 2 2 2 2 2 2 2 2 2 2 2 2 2 2
left_child=1 3 5 10 9 15 14 -3 -9 -5 -1 20 17 -13 -4 -2 -8 -7 -10 -6 -12
right_child=2 7 6 4 19 12 16 8 18 -11 11 13 -14 -15 -16 -17 -18 -19 -20 -21 -22
leaf_value=-0.26266553512309954 0.14728547397386099 0.37569781218301468 0.27104492938025887 -0.014727521544193321 -0.10465339818979186 0.063732354385997572 0.32932826390924125 0.019970597293789517 0.17379337060767311 0.097250417742558729 -0.17709422542974709 -0.0059177390695131418 0.15643119867690461 -0.097384111674961041 0.068243570288011826 0.33440055687641218 0.48731993536141333 -0.056039850371406727 0.38401066599108208 -0.034855395291209817 -0.11360093433254619
leaf_weight=39003 30216 18107 81756 263800 147953 139952 48274 57214 25500 113124 115187 143697 79139 218926 19375 28553 35080 38871 15362 160603 361716
leaf_count=39003 30216 18107 81756 263800 147953 139952 48274 57214 25500 113124 115187 143697 79139 218926 19375 28553 35080 38871 15362 160603 361716
internal_value=-1.37436e-10 -0.0533239 0.178754 -0.0689706 -0.0203732 0.104567 0.306122 0.157306 0.116986 0.0188798 -0.106889 -0.0996521 0.0741231 -0.0611386 0.232192 0.238196 0.39582 0.0376973 0.252824 -0.0683236 -0.128937
internal_weight=2.18141e+06 1.68019e+06 501216 1.56401e+06 685480 316731 184485 116183 98076 376924 878529 839526 257962 362623 101131 58769 83354 178823 40862 308556 476903
internal_count=2181408 1680192 501216 1564009 685480 316731 184485 116183 98076 376924 878529 839526 257962 362623 101131 58769 83354 178823 40862 308556 476903
is_linear=0
shrinkage=0.0202407


Tree=12
num_leaves=22
num_cat=0
split_feature=10 7 7 10 5 7 9 8 15 5 5 8 7 14 7 2 10 2 5 5 10
split_gain=4.87672e+07 1.4063e+07 1.00421e+07 7.19048e+06 3.94609e+06 2.85851e+06 2.82876e+06 2.79594e+06 2.25281e+06 1.92284e+06 1.69338e+06 1.49628e+06 1.45579e+06 1.43855e+06 1.27355e+06 1.1699e+06 1.10646e+06 1.10571e+06 1.07828e+06 990387 928677
threshold=29.705000000000002 6.9500000000000011 4.9500000000000011 14.105000000000002 3.1500000000000008 8.2500000000000018 17.500000000000004 96.500000000000014 1.8693429868701941 6.1500000000000012 6.1500000000000012 99.500000000000014 3.7500000000000004 6.8964583333333342 3.1500000000000008 1.5000000000000002 45.475000000000001 9.5000000000000018 3.6500000000000008 1.8500000000000003 1.0000000180025095e-35
decision_type=2 2 2 2 2 2 2 2 2 2 2 2 2 2 2 2 2 2 2 2 2
left_child=1 3 6 7 8 9 16 13 -3 -4 12 -10 -5 20 -9 -7 -2 -6 -8 -16 -1
right_child=2 4 5 10 17 15 18 14 11 -11 -12 -13 -14 -15 19 -17 -18 -19 -20 -21 -22
leaf_value=-0.26754307284134998 0.15630830062848602 -0.070655191252321364 0.27702072597707067 -0.014442324158920838 -0.015284718207351248 0.57121114737653045 0.085510804129906623 -0.099347547166080324 0.14548487304939889 0.047793385972874039 -0.06126077783058826 0.31067978275548797 0.074906083485202488 -0.093349970594490267 0.02393200773718213 0.36448907675772046 0.31814322398842609 0.14507449186788585 -0.042299670026821237 -0.059056882279308345 -0.14117827727085899
leaf_weight=25807 57419 11267 105111 159365 78675 14437 142473 151115 42445 17486 124865 47715 140641 378594 100992 50264 24776 22698 33378 141397 310488
leaf_count=25807 57419 11267 105111 159365 78675 14437 142473 151115 42445 17486 124865 47715 140641 378594 100992 50264 24776 22698 33378 141397 310488
internal_value=2.1679e-10 -0.0484714 0.188954 -0.0694224 0.109928 0.30177 0.107068 -0.0965603 0.199189 0.244326 0.00137439 0.23291 0.0274437 -0.120411 -0.0532305 0.410616 0.20509 0.0206206 0.0612513 -0.0244793 -0.150875
internal_weight=2.18141e+06 1.73606e+06 445344 1.53326e+06 202800 187298 258046 1.10839e+06 101427 122597 424871 90160 300006 714889 393504 64701 82195 101373 175851 242389 336295
internal_count=2181408 1736064 445344 1533264 202800 187298 258046 1108393 101427 122597 424871 90160 300006 714889 393504 64701 82195 101373 175851 242389 336295
is_linear=0
shrinkage=0.0202407


Tree=13
num_leaves=22
num_cat=0
split_feature=10 7 7 10 5 9 7 8 5 7 5 14 7 5 14 7 2 8 12 2 2
split_gain=4.68131e+07 1.35182e+07 9.63972e+06 7.27865e+06 2.97308e+06 2.75274e+06 2.74396e+06 2.64175e+06 1.99583e+06 1.89132e+06 1.84579e+06 1.62988e+06 1.40391e+06 1.39712e+06 1.23895e+06 1.17642e+06 1.12302e+06 1.091e+06 1.07265e+06 963026 890133
threshold=29.705000000000002 7.5500000000000007 4.9500000000000011 12.845000000000001 3.1500000000000008 9.5000000000000018 8.2500000000000018 91.500000000000014 5.9500000000000011 4.4500000000000011 6.1500000000000012 1.0000000180025095e-35 3.9500000000000006 4.6500000000000012 7.0408333333333335 3.1500000000000008 1.5000000000000002 99.500000000000014 33.975000000000001 9.5000000000000018 1.5000000000000002
decision_type=2 2 2 2 2 2 2 2 2 2 2 2 2 2 2 2 2 2 2 2 2
left_child=1 3 5 7 11 -2 10 14 9 -5 -4 -3 -9 15 -1 -7 -8 -13 -14 -6 -19
right_child=2 4 6 8 19 13 16 12 -10 -11 -12 17 18 -15 -16 -17 -18 20 -20 -21 -22
leaf_value=-0.14890585467429152 0.25578033658734867 -0.28545014164804999 0.27141364587641731 -0.0061135860665867819 -0.0044897273087441437 0.044220334881785138 0.55964946596629406 -0.089124694479225552 -0.060992522714717695 0.096304879129482421 0.046826016437589296 0.14954270990989701 -0.033315300995738158 -0.040716392521233741 -0.092746677853749918 0.14749453128071149 0.35711157772993579 0.55989715461423084 0.11442072339804776 0.16514720892428683 0.26802814502416644
leaf_weight=321416 41561 2571 105111 235070 54163 85818 14437 240446 157406 107717 17486 35894 173997 35220 322342 95447 50264 4807 22769 18357 39109
leaf_count=321416 41561 2571 105111 235070 54163 85818 14437 240446 157406 107717 17486 35894 173997 35220 322342 95447 50264 4807 22769 18357 39109
internal_value=-1.19981e-10 -0.0474903 0.185129 -0.0651686 0.132962 0.104901 0.295662 -0.0947094 -0.00132756 0.0260703 0.239381 0.216161 -0.0563141 0.075935 -0.120786 0.0986005 0.402305 0.23232 -0.0162199 0.0384505 0.299976
internal_weight=2.18141e+06 1.73606e+06 445344 1.58116e+06 154901 258046 187298 1.08097e+06 500193 342787 122597 82381 437212 216485 643758 181265 64701 79810 196766 72520 43916
internal_count=2181408 1736064 445344 1581163 154901 258046 187298 1080970 500193 342787 122597 82381 437212 216485 643758 181265 64701 79810 196766 72520 43916
is_linear=0
shrinkage=0.0202407


Tree=14
num_leaves=22
num_cat=0
split_feature=10 7 7 10 5 9 5 10 15 15 10 9 5 7 7 8 5 6 7 5 8
split_gain=4.49756e+07 1.19499e+07 1.04554e+07 5.71502e+06 3.41254e+06 3.37657e+06 2.60432e+06 2.05755e+06 2.01047e+06 1.98903e+06 1.95478e+06 1.86847e+06 1.89828e+06 1.75146e+06 1.72474e+06 1.28048e+06 1.16848e+06 1.13745e+06 906282 865356 759180
threshold=26.815000000000001 6.9500000000000011 6.1500000000000012 9.2750000000000004 3.0500000000000003 17.500000000000004 3.7500000000000004 45.475000000000001 0.71674907698291501 1.8693429868701941 41.675000000000004 13.500000000000002 3.9500000000000006 3.6500000000000008 3.4500000000000006 99.500000000000014 4.2500000000000009 318.50000000000006 10.450000000000001 -3.2499999999999996 33.500000000000007
decision_type=2 2 2 2 2 2 2 2 2 2 2 2 2 2 2 2 2 2 2 2 2
left_child=1 3 5 8 9 10 14 17 -1 -3 -2 -10 -13 -7 -5 -11 19 -4 -6 -15 -8
right_child=2 4 7 6 18 13 20 -9 11 15 -12 12 -14 16 -16 -17 -18 -19 -20 -21 -22
leaf_value=-0.25041417863416698 0.13181622275904603 -0.068041354937581192 0.28895543624665859 -0.034562456005989263 -0.0084002382704327846 0.016130564587681695 -0.12458446881140335 0.41336410056587658 -0.14812076233239654 0.13612426597455934 0.29643784899555164 -0.038887387605651177 -0.1125477408756673 0.087066027837837082 0.054529161143371266 0.29520247561205581 -0.0040979774241053446 0.094364170637236053 0.17119687493614508 0.20976306553693869 -0.050251916488999245
leaf_weight=37242 74272 11120 67592 171494 85207 129156 77193 54923 222513 39229 49078 262561 315637 42357 185116 43960 23485 15046 13309 53035 207883
leaf_count=37242 74272 11120 67592 171494 85207 129156 77193 54923 222513 39229 49078 262561 315637 42357 185116 43960 23485 15046 13309 53035 207883
internal_value=2.45919e-10 -0.0506992 0.166605 -0.0702306 0.0991739 0.110771 -0.0247732 0.317343 -0.105041 0.186202 0.197315 -0.0982793 -0.0790984 0.0677319 0.0116849 0.220187 0.123795 0.253526 0.0158624 0.155282 -0.0703797
internal_weight=2.18141e+06 1.67246e+06 508944 1.47964e+06 192825 371383 641686 137561 837953 94309 123350 800711 578198 248033 356610 83189 118877 82638 98516 95392 285076
internal_count=2181408 1672464 508944 1479639 192825 371383 641686 137561 837953 94309 123350 800711 578198 248033 356610 83189 118877 82638 98516 95392 285076
is_linear=0
shrinkage=0.0202407


Tree=15
num_leaves=22
num_cat=0
split_feature=10 7 7 10 7 9 7 2 2 7 12 5 14 5 5 8 7 7 2 14 8
split_gain=4.32176e+07 1.29042e+07 8.62227e+06 7.51614e+06 2.91489e+06 2.55911e+06 2.41855e+06 2.3721e+06 3.13056e+06 1.8539e+06 1.75422e+06 1.56297e+06 1.50213e+06 1.47465e+06 1.22572e+06 1.08082e+06 1.0736e+06 1.01707e+06 992143 853574 777772
threshold=30.855000000000004 8.0500000000000025 4.9500000000000011 14.105000000000002 3.9500000000000006 9.5000000000000018 8.2500000000000018 2.5000000000000004 9.5000000000000018 3.9500000000000006 38.455000000000005 6.4500000000000011 1.0000000180025095e-35 4.1500000000000012 4.6500000000000012 96.500000000000014 3.1500000000000008 10.65 1.5000000000000002 7.9277083333333342 49.500000000000007
decision_type=2 2 2 2 2 2 2 2 2 2 2 2 2 2 2 2 2 2 2 2 2
left_child=1 3 5 4 15 -2 11 -3 19 -5 12 20 -6 -11 16 -1 -7 -10 -8 -9 -4
right_child=2 7 6 9 10 14 18 8 17 13 -12 -13 -14 -15 -16 -17 -18 -19 -20 -21 -22
leaf_value=-0.1339165887752099 0.25596197577336877 0.3551906133864472 0.13671905476084095 -0.029071232848181916 -0.26859514319224276 0.044986622199655268 0.54077945919797932 -0.082717377388709448 0.1664408774828873 0.095910618201904302 0.083076941238217461 0.044560148310854482 -0.054958837256872381 -0.0096143172872537753 -0.038227797671064684 -0.078888411188187194 0.14609749638411157 0.36381057698252056 0.34848809067343689 0.076815130707660245 0.28946752205312087
leaf_weight=430873 38930 20177 16270 247711 13890 81687 14260 21538 27718 128699 37228 15158 460903 93792 31957 221350 90894 17418 47977 37951 85027
leaf_count=430873 38930 20177 16270 247711 13890 81687 14260 21538 27718 128699 37228 15158 460903 93792 31957 221350 90894 17418 47977 37951 85027
internal_value=7.13215e-11 -0.0441328 0.183913 -0.0592807 -0.0868647 0.105546 0.290686 0.154249 0.115497 0.00901866 -0.050718 0.236249 -0.0612087 0.0514261 0.0769176 -0.115241 0.0982391 0.242606 0.392547 0.0190564 0.264934
internal_weight=2.18141e+06 1.75925e+06 422160 1.63445e+06 1.16424e+06 243468 178692 124802 104625 470202 512021 116455 474793 222491 204538 652223 172581 45136 62237 59489 101297
internal_count=2181408 1759248 422160 1634446 1164244 243468 178692 124802 104625 470202 512021 116455 474793 222491 204538 652223 172581 45136 62237 59489 101297
is_linear=0
shrinkage=0.0202407


Tree=16
num_leaves=22
num_cat=0
split_feature=10 7 7 10 5 10 9 5 15 8 7 5 8 10 11 9 7 2 5 12 8
split_gain=4.14956e+07 1.20645e+07 8.56957e+06 6.17649e+06 3.40709e+06 2.49496e+06 2.47856e+06 2.4373e+06 1.98461e+06 1.98177e+06 1.66025e+06 1.33836e+06 1.31671e+06 1.22931e+06 1.08491e+06 1.08465e+06 1.00775e+06 959227 850502 839493 792314
threshold=29.705000000000002 6.9500000000000011 4.9500000000000011 10.295000000000002 3.1500000000000008 45.475000000000001 10.500000000000002 3.7500000000000004 1.8693429868701941 97.500000000000014 3.4500000000000006 3.6500000000000008 99.500000000000014 45.475000000000001 1.0000000180025095e-35 10.500000000000002 8.5500000000000025 9.5000000000000018 -1.0000000180025095e-35 29.495000000000001 70.500000000000014
decision_type=2 2 2 2 2 2 2 2 2 2 2 2 2 2 2 2 2 2 2 2 2
left_child=1 3 6 9 8 11 -2 10 -3 14 -5 20 -10 -8 -1 -11 -7 -6 -16 -17 -4
right_child=2 4 5 7 17 16 13 -9 12 15 -12 -13 -14 -15 18 19 -18 -19 -20 -21 -22
leaf_value=-0.24735200023092477 0.23252123659936583 -0.068330016279064459 0.13536164554772645 -0.026356878412002349 -0.014425301110628872 0.31177344902065507 0.033657899412477918 -0.061819843984499245 0.13458118249484924 -0.1327877304334594 0.060484457694844215 0.09848126212300376 0.28954689072735612 0.13611869093246884 -0.074329573093530443 -0.052160210389223007 0.46334473190282105 0.13493473189290595 -0.1286170854613353 0.053069181604912342 0.29183742491539638
leaf_weight=25796 46461 11267 16815 172972 78675 50831 138068 265778 42445 59214 188461 29196 47715 73517 165084 202722 27799 22698 416558 36679 62657
leaf_count=25796 46461 11267 16815 172972 78675 50831 138068 265778 42445 59214 188461 29196 47715 73517 165084 202722 27799 22698 416558 36679 62657
internal_value=-5.57744e-11 -0.0447118 0.174298 -0.0641172 0.102002 0.278515 0.0986541 -0.0152905 0.184942 -0.0979172 0.0189246 0.215675 0.216593 0.0692588 -0.118906 -0.0552229 0.36536 0.0190173 -0.113209 -0.0360379 0.25873
internal_weight=2.18141e+06 1.73606e+06 445344 1.53326e+06 202800 187298 258046 627211 101427 906053 361433 108668 90160 211585 607438 298615 78630 101373 581642 239401 79472
internal_count=2181408 1736064 445344 1533264 202800 187298 258046 627211 101427 906053 361433 108668 90160 211585 607438 298615 78630 101373 581642 239401 79472
is_linear=0
shrinkage=0.0202407


Tree=17
num_leaves=22
num_cat=0
split_feature=10 7 7 10 9 5 15 2 2 7 7 10 5 5 7 10 10 7 9 7 5
split_gain=3.98784e+07 1.06691e+07 9.33639e+06 5.58973e+06 3.12311e+06 2.58661e+06 2.08643e+06 2.05223e+06 2.60205e+06 2.04976e+06 2.02717e+06 1.9857e+06 1.87605e+06 1.54595e+06 1.4855e+06 1.31081e+06 1.11838e+06 886796 881447 815659 815382
threshold=26.815000000000001 8.1500000000000004 6.1500000000000012 9.2750000000000004 19.500000000000004 3.7500000000000004 0.71674907698291501 2.5000000000000004 9.5000000000000018 4.9500000000000011 4.1500000000000012 45.475000000000001 3.0500000000000003 3.8500000000000001 3.2500000000000004 54.605000000000011 40.725000000000001 10.65 10.500000000000002 3.9500000000000006 5.9500000000000011
decision_type=2 2 2 2 2 2 2 2 2 2 2 2 2 2 2 2 2 2 2 2 2
left_child=1 3 4 6 11 9 -1 -3 -9 -5 18 20 15 -12 -6 -4 -16 -10 -8 -7 -2
right_child=2 7 12 5 14 19 10 8 17 -11 13 -13 -14 -15 16 -17 -18 -19 -20 -21 -22
leaf_value=-0.23951089174605428 0.16085886490813411 0.34446482632733327 0.31398874138272148 -0.0079313168090371505 -0.0020289374197944416 -0.095859645337096178 -0.16288971986713582 0.015417917518614358 0.15519443949400941 0.10487666730877769 0.0072608722940428515 0.30446890078940642 0.16609210551772652 -0.083764747538269665 0.046746091876244449 0.52946611734512539 0.16288911228876776 0.35218244150364852 -0.099140050521053083 -0.029786634183893535 0.013930803052768668
leaf_weight=39160 81526 17522 91386 287984 96380 146761 113795 54657 24348 85605 124855 38145 32933 197124 71649 13242 64584 15212 405457 159984 19099
leaf_count=39160 81526 17522 91386 287984 96380 146761 113795 54657 24348 85605 124855 38145 32933 197124 71649 13242 64584 15212 405457 159984 19099
internal_value=-1.68982e-10 -0.0477399 0.15688 -0.0614187 0.104119 -0.0178441 -0.0950916 0.14332 0.105913 0.0179178 -0.0883688 0.180112 0.299324 -0.0484674 0.0587834 0.34126 0.101806 0.230942 -0.113111 -0.061399 0.132971
internal_weight=2.18141e+06 1.67246e+06 508944 1.56072e+06 371383 680334 880391 111739 94217 373589 841231 138770 137561 321979 232613 104628 136233 39560 519252 306745 100625
internal_count=2181408 1672464 508944 1560725 371383 680334 880391 111739 94217 373589 841231 138770 137561 321979 232613 104628 136233 39560 519252 306745 100625
is_linear=0
shrinkage=0.0202407


Tree=18
num_leaves=22
num_cat=0
split_feature=10 7 7 10 5 8 9 7 15 5 7 8 14 5 7 7 5 7 10 7 2
split_gain=3.8343e+07 1.21635e+07 7.06939e+06 6.80516e+06 3.40719e+06 2.39837e+06 2.29657e+06 1.97603e+06 1.89787e+06 1.70988e+06 1.42059e+06 1.35841e+06 1.2402e+06 1.1677e+06 1.1166e+06 958759 930584 845679 796410 791460 774637
threshold=32.875000000000007 6.9500000000000011 4.9500000000000011 14.105000000000002 3.0500000000000003 97.500000000000014 18.500000000000004 8.5500000000000025 1.8693429868701941 6.1500000000000012 4.1500000000000012 99.500000000000014 6.8964583333333342 6.4500000000000011 2.9500000000000006 10.450000000000001 1.8500000000000003 3.6500000000000008 1.0000000180025095e-35 3.1500000000000008 1.5000000000000002
decision_type=2 2 2 2 2 2 2 2 2 2 2 2 2 2 2 2 2 2 2 2 2
left_child=1 3 6 5 8 12 -2 13 -3 10 -5 -10 18 -4 -7 -6 -16 -14 -1 -8 -9
right_child=2 4 7 9 15 14 19 20 11 -11 -12 -13 17 -15 16 -17 -18 -19 -20 -21 -22
leaf_value=-0.24208619339372281 0.20145572523233143 -0.065957469385669543 0.2603210875179941 -0.001478500901576669 -0.0021207234759855051 -0.092966891820496722 0.013037591526870831 0.52274901885497982 0.13199515535321277 -0.05505118411070304 0.084394890920259064 0.28408380314828041 -0.11089195499206786 0.057274896423408099 0.026365139761830976 0.17233091297154438 -0.052915174575000092 -0.051065398899472737 -0.1263679859020411 0.10774156173662722 0.34248639676239412
leaf_weight=26392 72753 11124 98053 217479 90692 127956 69838 12942 45052 136605 123877 51634 203682 13161 105136 15048 143371 184462 317394 74954 39803
leaf_count=26392 72753 11124 98053 217479 90692 127956 69838 12942 45052 136605 123877 51634 203682 13161 105136 15048 143371 184462 317394 74954 39803
internal_value=2.10315e-11 -0.0390683 0.184321 -0.0583737 0.104342 -0.0859029 0.10868 0.284684 0.184411 0.0054665 0.0296847 0.213216 -0.107256 0.236293 -0.0443875 0.0227057 -0.019374 -0.0824599 -0.135252 0.0620627 0.386717
internal_weight=2.18141e+06 1.7999e+06 381504 1.58635e+06 213550 1.10839e+06 217545 163959 107810 477961 341356 96686 731930 111214 376463 105740 248507 388144 343786 144792 52745
internal_count=2181408 1799904 381504 1586354 213550 1108393 217545 163959 107810 477961 341356 96686 731930 111214 376463 105740 248507 388144 343786 144792 52745
is_linear=0
shrinkage=0.0202407


Tree=19
num_leaves=22
num_cat=0
split_feature=10 7 7 10 14 5 9 10 15 7 5 5 7 7 10 8 6 8 9 9 5
split_gain=3.68641e+07 1.10117e+07 8.09939e+06 5.25449e+06 2.98242e+06 2.92578e+06 2.3865e+06 1.96108e+06 1.93858e+06 1.89293e+06 1.88408e+06 1.73981e+06 1.49509e+06 1.42385e+06 1.35211e+06 1.31002e+06 921691 840385 832447 809312 763741
threshold=20.405000000000005 6.9500000000000011 6.4500000000000011 40.725000000000001 6.8964583333333342 3.0500000000000003 9.5000000000000018 41.675000000000004 1.8693429868701941 3.3500000000000001 6.1500000000000012 1.8500000000000003 4.1500000000000012 3.6500000000000008 1.0000000180025095e-35 86.500000000000014 413.50000000000006 99.500000000000014 10.500000000000002 12.500000000000002 -3.2499999999999996
decision_type=2 2 2 2 2 2 2 2 2 2 2 2 2 2 2 2 2 2 2 2 2
left_child=2 3 4 10 14 8 -5 16 -4 -6 12 -11 19 -8 -1 -10 -3 -16 -17 -2 -15
right_child=1 7 5 6 9 -7 13 -9 15 11 -12 -13 -14 20 17 18 -18 -19 -20 -21 -22
leaf_value=-0.23929938468655892 0.10639305937402008 0.25262873700216587 -0.076537489409968809 0.33623468385945049 -0.085859233287934739 -0.0089564700575471921 0.07232003123086031 0.3790846681262221 0.056837156686436158 0.025490512102313199 -0.044842900629158119 -0.057228574786118744 0.12351587454464974 0.11807479063990138 -0.12195246326772813 0.042823516390856416 0.060691322819930074 -0.058247364234496959 0.26241910715849687 0.0041277643169231829 0.24347103020909369
leaf_weight=33531 41327 62879 14458 30104 359137 121764 70712 56625 25570 178163 84339 250819 107775 32227 341059 8256 12246 112925 49326 136149 52017
leaf_count=33531 41327 62879 14458 30104 359137 121764 70712 56625 25570 178163 84339 250819 107775 32227 341059 8256 12246 112925 49326 136149 52017
internal_value=-1.37608e-11 0.122798 -0.05638 0.0832859 -0.075917 0.0572256 0.171327 0.289138 0.139785 -0.0515757 0.0392024 -0.022874 0.0640517 0.139289 -0.115267 0.177398 0.221341 -0.106106 0.230934 0.0279412 0.195502
internal_weight=2.18141e+06 686400 1.49501e+06 554650 1.27563e+06 219374 185060 131750 97610 788119 369590 428982 285251 154956 487515 83152 75125 453984 57582 177476 84244
internal_count=2181408 686400 1495008 554650 1275634 219374 185060 131750 97610 788119 369590 428982 285251 154956 487515 83152 75125 453984 57582 177476 84244
is_linear=0
shrinkage=0.0202407


Tree=20
num_leaves=22
num_cat=0
split_feature=10 7 7 10 8 9 2 2 7 7 7 5 6 5 2 12 7 14 7 2 5
split_gain=3.54329e+07 1.0711e+07 7.11657e+06 6.28627e+06 2.53848e+06 2.2952e+06 1.99926e+06 2.70165e+06 1.90797e+06 1.60144e+06 1.44229e+06 1.30854e+06 1.29666e+06 1.22696e+06 1.13148e+06 1.07284e+06 1.06199e+06 946735 884368 835403 794948
threshold=30.855000000000004 8.1500000000000004 5.1500000000000012 14.105000000000002 91.500000000000014 8.5000000000000018 2.5000000000000004 9.5000000000000018 8.5500000000000025 3.9500000000000006 4.1500000000000012 6.1500000000000012 353.50000000000006 4.6500000000000012 2.5000000000000004 33.975000000000001 3.1500000000000008 2.0185416666666671 10.65 1.5000000000000002 -3.6499999999999999
decision_type=2 2 2 2 2 2 2 2 2 2 2 2 2 2 2 2 2 2 2 2 2
left_child=1 3 5 4 14 -2 -3 -8 11 -5 -6 -4 -11 16 -1 -12 -7 -16 -9 -10 -18
right_child=2 6 8 9 10 13 7 18 19 12 15 -13 -14 -15 17 -17 20 -19 -20 -21 -22
leaf_value=-0.033796607545665255 0.24790197840564085 0.33070899096938028 0.2475824289076092 -0.026615958274717903 -0.072291352410243204 0.041571269188291099 0.015691209777429486 0.15340468990704209 0.50499039833760351 0.075665092176840837 -0.017930610870968245 0.044123086894544236 -0.037967146431300232 -0.036743887625235304 -0.22457919966239076 0.12947218376749225 0.068355290995138096 -0.10742156776389031 0.33876383266065346 0.32150543688994765 0.1849614173745934
leaf_weight=83758 36395 19654 95909 247711 279986 83275 57096 26725 13272 169491 173542 14972 54328 34360 29713 22898 39365 576928 17418 43437 61175
leaf_count=83758 36395 19654 95909 247711 279986 83275 57096 26725 13272 169491 173542 14972 54328 34360 29713 22898 39365 576928 17418 43437 61175
internal_value=2.9082e-11 -0.0399608 0.166527 -0.0535275 -0.0787314 0.0990986 0.143896 0.107629 0.268951 0.00884102 -0.0427929 0.22011 0.0480829 0.0742759 -0.103532 -0.000748626 0.0950285 -0.11316 0.226544 0.364448 0.139306
internal_weight=2.18141e+06 1.75925e+06 422160 1.63836e+06 1.16682e+06 254570 120893 101239 167590 471530 476426 110881 223819 218175 690399 196440 183815 606641 44143 56709 100540
internal_count=2181408 1759248 422160 1638355 1166825 254570 120893 101239 167590 471530 476426 110881 223819 218175 690399 196440 183815 606641 44143 56709 100540
is_linear=0
shrinkage=0.0202407


Tree=21
num_leaves=22
num_cat=0
split_feature=10 7 7 10 14 5 9 5 15 7 10 5 7 10 8 7 6 8 5 9 8
split_gain=3.40656e+07 9.69124e+06 7.97091e+06 4.47835e+06 3.07838e+06 2.84616e+06 2.23658e+06 2.01115e+06 1.86994e+06 1.67581e+06 1.64902e+06 1.60641e+06 1.31531e+06 1.27309e+06 1.25775e+06 1.24728e+06 872741 795179 795108 793606 779224
threshold=21.975000000000005 6.9500000000000011 6.4500000000000011 40.725000000000001 6.8964583333333342 3.0500000000000003 9.5000000000000018 3.7500000000000004 1.8693429868701941 3.4500000000000006 45.475000000000001 6.1500000000000012 3.2500000000000004 1.0000000180025095e-35 99.500000000000014 4.1500000000000012 416.50000000000006 99.500000000000014 -3.2499999999999996 12.500000000000002 33.500000000000007
decision_type=2 2 2 2 2 2 2 2 2 2 2 2 2 2 2 2 2 2 2 2 2
left_child=2 3 4 11 13 8 -5 9 -4 -6 16 15 -8 -1 -10 19 -3 -15 -14 -2 -9
right_child=1 10 5 6 7 -7 12 20 14 -11 -12 -13 18 17 -16 -17 -18 -19 -20 -21 -22
leaf_value=-0.2311714446382484 0.11231805299391744 0.25772827420975181 -0.075097881133015618 0.32479287363427733 -0.055772345087582532 -0.0055157038933510731 0.055720905127553719 -0.12652608289838774 0.096492331464892694 0.023246273459596116 0.38544918237079162 -0.043097596663546858 0.10609458576557554 -0.11735248565012099 0.24953547085697231 0.12182148920466303 0.067640435698595056 -0.055531947766158267 0.2239473026476943 0.0046993962104446459 -0.062511239386198403
leaf_weight=33531 36502 69938 14458 30104 224948 125609 55979 108168 43846 215094 43270 73011 38183 342010 44154 96766 11526 113539 60794 121559 278419
leaf_count=33531 36502 69938 14458 30104 224948 125609 55979 108168 43846 215094 43270 73011 38183 342010 44154 96766 11526 113539 60794 121559 278419
internal_value=-2.42382e-11 0.124458 -0.0514052 0.0855435 -0.0705538 0.0590625 0.165149 -0.0467394 0.138233 -0.0171478 0.284469 0.0406075 0.134134 -0.110804 0.173282 0.06459 0.230834 -0.101945 0.178482 0.0295524 -0.0804228
internal_weight=2.18141e+06 637632 1.54378e+06 512898 1.31571e+06 228067 185060 826629 102458 440042 124734 327838 154956 489080 88000 254827 81464 455549 98977 158061 386587
internal_count=2181408 637632 1543776 512898 1315709 228067 185060 826629 102458 440042 124734 327838 154956 489080 88000 254827 81464 455549 98977 158061 386587
is_linear=0
shrinkage=0.0202407


Tree=22
num_leaves=22
num_cat=0
split_feature=10 7 10 7 7 7 2 2 9 5 7 6 12 5 5 8 7 14 14 10 9
split_gain=3.27727e+07 1.05053e+07 6.48975e+06 6.10806e+06 2.41983e+06 2.07417e+06 1.95582e+06 2.6704e+06 1.78446e+06 1.66536e+06 1.73e+06 1.54035e+06 1.30223e+06 1.26397e+06 930777 897625 855764 838327 775319 759501 658643
threshold=32.875000000000007 8.1500000000000004 14.105000000000002 4.4500000000000011 3.9500000000000006 8.2500000000000018 2.5000000000000004 9.5000000000000018 21.500000000000004 5.9500000000000011 4.4500000000000011 416.50000000000006 38.455000000000005 7.0500000000000007 -2.9499999999999997 99.500000000000014 10.65 36.663958333333341 7.9277083333333342 57.485000000000007 6.5000000000000009
decision_type=2 2 2 2 2 2 2 2 2 2 2 2 2 2 2 2 2 2 2 2 2
left_child=1 2 4 8 15 13 -3 18 20 10 -4 12 -6 14 -5 -1 -9 -16 -8 -7 -2
right_child=3 6 9 5 11 19 7 16 -10 -11 -12 -13 -14 -15 17 -17 -18 -19 -20 -21 -22
leaf_value=-0.11604523429835059 0.26963918906028417 0.32219944499945735 0.0033456175313798246 0.16180674239648024 -0.033447255627710698 0.328228652888374 -0.08373136960051801 0.15089284888468249 0.038308964892702441 -0.045016383449733653 0.098115684716747698 -0.10100076284278413 0.099980660320242568 0.027509551513118635 0.2069287286622922 -0.062437317667897514 0.32844588741692954 0.34626919869998135 0.07055205793930984 0.58105493332046998 0.13062787404814247
leaf_weight=477399 18752 20727 236712 50469 344411 52526 20699 27962 114557 152581 118378 137368 32823 14379 35905 174824 18465 34867 37555 5365 54684
leaf_count=477399 18752 20727 236712 50469 344411 52526 20699 27962 114557 152581 118378 137368 32823 14379 35905 174824 18465 34867 37555 5365 54684
internal_value=-8.47722e-12 -0.0361191 -0.0495012 0.170407 -0.0757848 0.250233 0.142564 0.106996 0.0882378 0.0109087 0.0349396 -0.0429695 -0.0218377 0.206938 0.228218 -0.101676 0.221509 0.275577 0.0157316 0.351659 0.166125
internal_weight=2.18141e+06 1.7999e+06 1.6745e+06 381504 1.16682e+06 193511 125408 104681 187993 507671 355090 514602 377234 135620 121241 652223 46427 70772 58254 57891 73436
internal_count=2181408 1799904 1674496 381504 1166825 193511 125408 104681 187993 507671 355090 514602 377234 135620 121241 652223 46427 70772 58254 57891 73436
is_linear=0
shrinkage=0.0202407


Tree=23
num_leaves=22
num_cat=0
split_feature=10 7 7 10 5 15 10 8 9 5 8 2 6 7 9 6 7 14 5 10 9
split_gain=3.14954e+07 9.44001e+06 7.06066e+06 3.92611e+06 3.35049e+06 2.38714e+06 2.3583e+06 2.16492e+06 1.89373e+06 1.50227e+06 1.34131e+06 1.23123e+06 1.18835e+06 1.06725e+06 940098 912795 889629 868381 794561 744865 717672
threshold=20.405000000000005 6.1500000000000012 5.4500000000000011 40.725000000000001 1.7500000000000002 1.8693429868701941 41.675000000000004 96.500000000000014 22.500000000000004 5.9500000000000011 86.500000000000014 2.5000000000000004 302.50000000000006 3.4500000000000006 10.500000000000002 474.50000000000006 2.6500000000000008 6.1172916666666675 3.1500000000000008 57.485000000000007 6.5000000000000009
decision_type=2 2 2 2 2 2 2 2 2 2 2 2 2 2 2 2 2 2 2 2 2
left_child=2 3 7 9 5 -4 12 11 20 13 -7 -1 -3 -2 -12 -6 -9 -13 -18 -8 -5
right_child=1 6 4 8 15 10 19 16 -10 -11 14 17 -14 -15 -16 -17 18 -19 -20 -21 -22
leaf_value=-0.031766629907936078 0.011382162548697814 0.21825477895238327 -0.09486612410809793 0.34256744739331801 0.012776050197491076 0.047042550993760417 0.30722363028648936 -0.082270839330834414 0.092172051019946383 -0.046891137208195169 0.026672281575915283 -0.14016263561221873 0.054742714228324239 0.09257373601754644 0.2274640406211412 -0.069372522721829033 0.012378554878187618 -0.09048059202703275 -0.056230346613647571 0.50723931713835102 0.19286506140459189
leaf_weight=98778 127103 77308 20080 17378 137004 37598 63294 137293 97804 78768 11324 227626 23820 138714 61075 93051 149744 392941 128494 8673 53538
leaf_count=98778 127103 77308 20080 17378 137004 37598 63294 137293 97804 78768 11324 227626 23820 138714 61075 93051 149744 392941 128494 8673 53538
internal_value=-2.64004e-12 0.113505 -0.0521131 0.0699155 0.0259721 0.108076 0.242766 -0.076892 0.149914 0.0307456 0.145123 -0.0981393 0.179741 0.0537512 0.196058 -0.0204508 -0.0401098 -0.108704 -0.0193059 0.331328 0.22955
internal_weight=2.18141e+06 686400 1.49501e+06 513305 360132 130077 173095 1.13488e+06 168720 344585 109997 719345 101128 265817 72399 230055 415531 620567 278238 71967 70916
internal_count=2181408 686400 1495008 513305 360132 130077 173095 1134876 168720 344585 109997 719345 101128 265817 72399 230055 415531 620567 278238 71967 70916
is_linear=0
shrinkage=0.0202407


Tree=24
num_leaves=22
num_cat=0
split_feature=10 7 10 7 7 7 2 9 2 7 12 6 2 5 14 5 14 5 14 7 2
split_gain=3.02703e+07 9.80509e+06 6.06726e+06 5.693e+06 2.29452e+06 1.93128e+06 1.71528e+06 1.67209e+06 1.66905e+06 1.56758e+06 1.48254e+06 1.31305e+06 1.25497e+06 1.1946e+06 1.18918e+06 889337 841366 1.13136e+06 788659 749056 726427
threshold=32.875000000000007 8.2500000000000018 14.105000000000002 4.4500000000000011 3.9500000000000006 8.5500000000000025 1.5000000000000002 20.500000000000004 9.5000000000000018 3.8500000000000001 28.445000000000004 353.50000000000006 2.5000000000000004 6.5500000000000007 1.0000000180025095e-35 -2.3499999999999992 1.7175000000000005 3.2500000000000004 36.242291666666674 10.65 2.5000000000000004
decision_type=2 2 2 2 2 2 2 2 2 2 2 2 2 2 2 2 2 2 2 2 2
left_child=1 2 4 7 16 13 -3 -2 12 -4 14 20 -8 15 -6 -5 -1 -18 -17 -10 -11
right_child=3 6 9 5 10 -7 8 -9 19 11 -12 -13 -14 -15 -16 18 17 -19 -20 -21 -22
leaf_value=-0.20710976125166008 0.16331640674045342 0.45530020788630604 -0.02432183457110814 0.16503354647682367 -0.23780187950456086 0.34529897993997621 0.24156616247016074 0.038243868428076991 0.1502061885749037 0.14538187985471981 0.043916926927553807 -0.03693097710899839 0.019113644700368249 0.037906474106883879 -0.048728767956704416 0.20319664566598811 -0.064395166914168162 -0.11895288305252226 0.3425537422492767 0.31917319258704019 0.051180162193847856
leaf_weight=27686 69442 6789 256199 58063 14072 52745 12801 118551 25722 43064 72631 59069 55160 16150 432116 33012 296137 328400 33541 18465 151593
leaf_count=27686 69442 6789 256199 58063 14072 52745 12801 118551 25722 43064 72631 59069 55160 16150 432116 33012 296137 328400 33541 18465 151593
internal_value=6.92407e-11 -0.0347128 -0.047279 0.163772 -0.0726541 0.240838 0.142889 0.0844439 0.123977 0.0109949 -0.0408873 0.0466559 0.0610144 0.201697 -0.0546918 0.222924 -0.0979235 -0.0930832 0.273429 0.220815 0.0720204
internal_weight=2.18141e+06 1.7999e+06 1.68097e+06 381504 1.17104e+06 193511 118937 187993 112148 509925 518819 253726 67961 140766 446188 124616 652223 624537 66553 44187 194657
internal_count=2181408 1799904 1680967 381504 1171042 193511 118937 187993 112148 509925 518819 253726 67961 140766 446188 124616 652223 624537 66553 44187 194657
is_linear=0
shrinkage=0.0202407


Tree=25
num_leaves=22
num_cat=0
split_feature=10 7 7 10 7 8 9 2 5 2 7 2 2 7 7 12 5 15 14 14 5
split_gain=2.91187e+07 9.16968e+06 6.27433e+06 4.54145e+06 2.46868e+06 2.31262e+06 1.99769e+06 1.70979e+06 1.68346e+06 1.55322e+06 1.31048e+06 1.2915e+06 1.21166e+06 1.1525e+06 1.10167e+06 1.07774e+06 1.00695e+06 897465 852938 812814 756484
threshold=19.185000000000006 6.9500000000000011 6.3500000000000005 40.725000000000001 10.65 92.500000000000014 10.500000000000002 1.5000000000000002 3.7500000000000004 2.5000000000000004 3.4500000000000006 11.500000000000002 2.5000000000000004 3.1500000000000008 2.9500000000000006 31.525000000000002 3.5500000000000003 0.71674907698291501 28.821875000000006 6.6970833333333335 -4.4499999999999993
decision_type=2 2 2 2 2 2 2 2 2 2 2 2 2 2 2 2 2 2 2 2 2
left_child=2 3 5 8 9 12 -5 -3 10 -4 -2 18 -1 -8 -7 -11 17 -16 -9 -14 -15
right_child=1 7 4 6 -6 14 13 11 -10 15 -12 -13 19 20 16 -17 -18 -19 -20 -21 -22
leaf_value=-0.026446944296880309 0.012032436572730985 0.40900175422795232 0.18296896282782932 0.29401389471638512 0.22496524385456304 -0.077241399453164453 0.045100101433375367 0.13443565967484944 -0.028595158347720188 -0.016871352478414078 0.10066181371200139 0.38083393106342361 -0.13090871151022532 0.076660113513154923 -0.21582737041651504 0.1384660546328968 -0.05214986611115191 0.028537166266721575 0.25541064105392491 -0.084222216453609569 0.19898075539589277
leaf_weight=95613 125918 23967 21533 33670 27515 179884 52597 50503 128441 158704 149490 17477 263070 29555 6399 20683 154446 163015 45288 364402 69238
leaf_count=95613 125918 23967 21533 33670 27515 179884 52597 50503 128441 158704 149490 17477 263070 29555 6399 20683 154446 163015 45288 364402 69238
internal_value=-4.50544e-11 0.104689 -0.0522375 0.0699676 0.04516 -0.0703729 0.153001 0.253688 0.0319185 0.0205366 0.06014 0.220824 -0.0935679 0.121638 -0.0370782 0.00103877 -0.0147701 0.0193072 0.19163 -0.103796 0.162387
internal_weight=2.18141e+06 726144 1.45526e+06 588909 228435 1.22683e+06 185060 137235 403849 200920 275408 113268 723085 151390 503744 179387 323860 169414 95791 627472 98793
internal_count=2181408 726144 1455264 588909 228435 1226829 185060 137235 403849 200920 275408 113268 723085 151390 503744 179387 323860 169414 95791 627472 98793
is_linear=0
shrinkage=0.0202407


Tree=26
num_leaves=22
num_cat=0
split_feature=10 7 10 7 5 2 2 7 9 9 7 8 5 8 7 15 5 5 1 14 15
split_gain=2.79828e+07 9.08506e+06 5.3573e+06 5.29955e+06 2.46965e+06 2.16421e+06 2.72295e+06 1.79856e+06 1.73514e+06 1.59152e+06 1.55931e+06 1.45801e+06 1.1252e+06 1.11166e+06 963058 890946 855662 853169 790643 785684 774944
threshold=32.875000000000007 7.5500000000000007 9.3850000000000033 4.4500000000000011 1.9500000000000002 2.5000000000000004 9.5000000000000018 8.2500000000000018 12.500000000000002 8.5000000000000018 3.4500000000000006 91.500000000000014 7.0500000000000007 35.500000000000007 10.65 0.71674907698291501 -2.3499999999999992 3.6500000000000008 3.5000000000000004 36.242291666666674 3.2420309208447482
decision_type=2 2 2 2 2 2 2 2 2 2 2 2 2 2 2 2 2 2 2 2 2
left_child=1 2 8 9 10 -3 20 12 -1 -2 -4 -10 16 -6 -8 -13 -5 18 -11 -18 -7
right_child=3 5 4 7 13 6 14 -9 11 17 -12 15 -14 -15 -16 -17 19 -19 -20 -21 -22
leaf_value=-0.13075755500352484 0.22995094455718459 0.28192180122688815 -0.015383458555521666 0.15333060786439059 -0.10163496145485591 -0.10876616628251452 0.1290208590703735 0.32626552016016408 -0.090390234838088016 0.12151960191478861 0.066880459602456782 -0.21906261784577385 0.022209282682568443 -0.023980747493721578 0.30812208200846902 -0.021270078585485432 0.19122987306844041 -0.043009936280107061 0.022207344621478387 0.33147724055146199 0.038974944223138436
leaf_weight=223131 25393 25455 178786 55782 102984 18817 36840 57891 385276 76719 199993 9687 14379 283253 18465 253148 32793 28458 57423 32666 64069
leaf_count=223131 25393 25455 178786 55782 102984 18817 36840 57891 385276 76719 199993 9687 14379 283253 18465 253148 32793 28458 57423 32666 64069
internal_value=1.35544e-11 -0.0333754 -0.0477565 0.157462 -0.00867187 0.110417 0.0788259 0.231818 -0.0820757 0.0809245 0.0280514 -0.0653155 0.191502 -0.044686 0.188818 -0.0285599 0.21158 0.0576513 0.0790064 0.261218 0.00543436
internal_weight=2.18141e+06 1.7999e+06 1.63626e+06 381504 765016 163646 138191 193511 871242 187993 378779 648111 135620 386237 55305 262835 121241 162600 134142 65459 82886
internal_count=2181408 1799904 1636258 381504 765016 163646 138191 193511 871242 187993 378779 648111 135620 386237 55305 262835 121241 162600 134142 65459 82886
is_linear=0
shrinkage=0.0202407


Tree=27
num_leaves=22
num_cat=0
split_feature=10 7 7 10 10 5 15 8 6 9 5 8 2 9 9 7 6 7 7 10 5
split_gain=2.69561e+07 8.51296e+06 5.91904e+06 3.02343e+06 2.93208e+06 2.80385e+06 2.10818e+06 1.84602e+06 1.55225e+06 1.38024e+06 1.21402e+06 1.21156e+06 1.01871e+06 913080 909706 814763 814178 754729 716795 711543 680807
threshold=19.185000000000006 5.3500000000000005 5.4500000000000011 41.675000000000004 42.035000000000004 1.7500000000000002 1.8693429868701941 96.500000000000014 274.50000000000006 24.500000000000004 6.0500000000000007 77.500000000000014 2.5000000000000004 11.500000000000002 13.500000000000002 8.5500000000000025 474.50000000000006 2.6500000000000008 10.250000000000002 5.1150000000000011 3.1500000000000008
decision_type=2 2 2 2 2 2 2 2 2 2 2 2 2 2 2 2 2 2 2 2 2
left_child=2 4 7 8 10 6 -4 12 18 -6 14 -8 -1 -13 -2 -5 -7 -9 -3 -14 -19
right_child=1 3 5 15 9 16 11 17 -10 -11 -12 13 19 -15 -16 -17 -18 20 -20 -21 -22
leaf_value=-0.03148306487276218 0.10227559494636913 0.15584733511547924 -0.090764394329318501 0.24003896324671503 0.20582346462644804 0.011405990968415112 0.032425851782446301 -0.078008723961624019 0.033975048014803472 0.072831311418935882 -0.051644098296343761 0.024781367670540722 -0.12843642335198507 0.21441182033054559 0.017761683126762236 0.36247837512262748 -0.06708256915726156 0.010955890292032106 0.28751409569304209 -0.084050754785012158 -0.053573744027307225
leaf_weight=95331 70642 94724 20080 58625 58174 133612 32260 133430 40678 70978 76153 12586 254681 59965 199641 35901 91036 143642 20628 353135 125506
leaf_count=95331 70642 94724 20080 58625 58174 133612 32260 133430 40678 70978 76153 12586 254681 59965 199641 35901 91036 143642 20628 353135 125506
internal_value=-2.92379e-12 0.100727 -0.0502603 0.196208 0.050424 0.0223427 0.0992274 -0.0732114 0.141482 0.132735 0.0197383 0.135627 -0.0930003 0.181515 0.0398505 0.286541 -0.0204006 -0.0386479 0.179393 -0.102649 -0.0191348
internal_weight=2.18141e+06 726144 1.45526e+06 250556 475588 349539 124891 1.10572e+06 156030 129152 346436 104811 703147 72551 270283 94526 224648 402578 115352 607816 269148
internal_count=2181408 726144 1455264 250556 475588 349539 124891 1105725 156030 129152 346436 104811 703147 72551 270283 94526 224648 402578 115352 607816 269148
is_linear=0
shrinkage=0.0202407


Tree=28
num_leaves=22
num_cat=0
split_feature=10 7 7 5 10 15 10 9 5 8 10 9 8 6 14 5 5 7 5 7 2
split_gain=2.58843e+07 7.22576e+06 6.30788e+06 3.47437e+06 2.92195e+06 2.2642e+06 2.19394e+06 1.91027e+06 1.50613e+06 1.36972e+06 1.26783e+06 1.25256e+06 1.22095e+06 976934 936759 1.13823e+06 814107 713546 680472 655893 637572
threshold=26.475000000000005 5.4500000000000011 4.9500000000000011 1.7500000000000002 8.7550000000000008 1.8693429868701941 45.475000000000001 8.5000000000000018 1.9500000000000002 99.500000000000014 45.475000000000001 14.500000000000002 75.500000000000014 474.50000000000006 1.0000000180025095e-35 5.1500000000000012 3.6500000000000008 13.15 6.1500000000000012 8.5500000000000025 1.5000000000000002
decision_type=2 2 2 2 2 2 2 2 2 2 2 2 2 2 2 2 2 2 2 2 2
left_child=1 4 7 5 11 -3 12 -2 -6 -7 18 -1 -4 17 -13 -16 -14 -5 -9 -8 -11
right_child=2 3 6 13 8 9 19 10 -10 20 -12 14 16 -15 15 -17 -18 -19 -20 -21 -22
leaf_value=-0.13249709904482851 0.18913141814769532 -0.088927263836579909 0.059313309468311946 0.015878702707476027 0.0044864608516993606 0.079093038689016473 0.2514715654525157 0.034082899771797966 -0.061378167503240932 0.37787175010320667 0.11454716287890701 -0.21489754002525296 0.23088105078646265 -0.059347681728846517 -0.037037775473708394 -0.10053454717651206 0.095544673532960811 0.34776394819443213 -0.069590776167109875 0.37375179666828645 0.18489421546702539
leaf_weight=207052 44230 20080 36064 149285 280739 69036 50831 152873 288303 8017 76458 18328 73124 101372 242192 221376 24248 2702 31237 27799 56062
leaf_count=207052 44230 20080 36064 149285 280739 69036 50831 152873 288303 8017 76458 18328 73124 101372 242192 221376 24248 2702 31237 27799 56062
internal_value=-7.93998e-11 -0.0388522 0.125122 0.0353298 -0.0628261 0.111424 0.209893 0.0661418 -0.0288836 0.141646 0.0452649 -0.0908612 0.159918 -0.0106808 -0.0729718 -0.0673605 0.197179 0.0217789 0.0164931 0.294703 0.209038
internal_weight=2.18141e+06 1.66454e+06 516864 406554 1.25799e+06 153195 212066 304798 569042 133115 260568 688948 133436 253359 481896 463568 97372 151987 184110 78630 64079
internal_count=2181408 1664544 516864 406554 1257990 153195 212066 304798 569042 133115 260568 688948 133436 253359 481896 463568 97372 151987 184110 78630 64079
is_linear=0
shrinkage=0.0202407


Tree=29
num_leaves=22
num_cat=0
split_feature=10 7 7 10 7 9 6 2 5 12 2 7 2 2 14 7 5 14 14 5 8
split_gain=2.49358e+07 8.03842e+06 5.41369e+06 4.00873e+06 2.56484e+06 1.81607e+06 1.72538e+06 1.58421e+06 1.47539e+06 1.39634e+06 1.22741e+06 1.20666e+06 1.18788e+06 1.64824e+06 1.06453e+06 1.06427e+06 983049 1.13978e+06 777804 729623 608281
threshold=18.755000000000006 6.9500000000000011 8.5500000000000025 40.725000000000001 3.9500000000000006 9.5000000000000018 409.50000000000006 1.5000000000000002 3.7500000000000004 31.525000000000002 11.500000000000002 3.4500000000000006 2.5000000000000004 9.5000000000000018 1.0000000180025095e-35 3.1500000000000008 3.2500000000000004 2.8652083333333338 28.821875000000006 -4.4499999999999993 33.500000000000007
decision_type=2 2 2 2 2 2 2 2 2 2 2 2 2 2 2 2 2 2 2 2 2
left_child=2 3 4 8 16 -5 9 -3 11 14 18 -2 -4 -14 -6 -7 17 -1 -9 -17 -10
right_child=1 7 12 5 6 15 -8 10 20 -11 -12 -13 13 -15 -16 19 -18 -19 -20 -21 -22
leaf_value=-0.16262967010358975 0.0092664950266552384 0.38314647746494812 0.31511684809186424 0.28551319240216877 -0.22392169010789728 0.0407786945879711 -0.084011913753754774 0.12114544574834263 -0.10141339573386338 0.079385822743530343 0.35790243515961179 0.093071278759996531 -0.0016944690266898158 0.20432106402840836 -0.016385766364080994 0.068644673378831997 -0.10684871537397139 -0.04824666072086678 0.23553155287735403 0.1875528210845869 -0.0019140299187257769
leaf_weight=39948 129980 24056 10671 30104 10406 53612 164066 52151 33587 65056 17660 153525 37904 27419 375781 30053 373141 334840 45692 71291 100465
leaf_count=39948 129980 24056 10671 30104 10406 53612 164066 52151 33587 65056 17660 153525 37904 27419 375781 30053 373141 334840 45692 71291 100465
internal_value=6.67662e-11 0.095297 -0.0491423 0.0632406 -0.0584108 0.141657 -0.0278016 0.233717 0.0284866 -0.00736425 0.202595 0.0546489 0.117123 0.0847795 -0.0219779 0.11371 -0.0835925 -0.0604385 0.174563 0.152291 -0.0268438
internal_weight=2.18141e+06 742176 1.43923e+06 602617 1.36324e+06 185060 615309 139559 417557 451243 115503 283505 75994 65323 386187 154956 747929 374788 97843 101344 134052
internal_count=2181408 742176 1439232 602617 1363238 185060 615309 139559 417557 451243 115503 283505 75994 65323 386187 154956 747929 374788 97843 101344 134052
is_linear=0
shrinkage=0.0202407


Tree=30
num_leaves=22
num_cat=0
split_feature=10 7 10 7 9 2 5 7 7 2 2 9 8 15 5 9 10 7 5 6 9
split_gain=2.39704e+07 7.94312e+06 4.90473e+06 4.59934e+06 1.79692e+06 1.72628e+06 1.58458e+06 1.58929e+06 1.55461e+06 1.4928e+06 1.49194e+06 1.46469e+06 1.34135e+06 1.04441e+06 1.02503e+06 825708 675024 666282 635478 610577 569668
threshold=32.875000000000007 8.2500000000000018 11.815000000000003 4.4500000000000011 14.500000000000002 2.5000000000000004 6.1500000000000012 4.4500000000000011 8.5500000000000025 1.5000000000000002 11.500000000000002 22.500000000000004 91.500000000000014 5.6531260027309624 7.0500000000000007 15.500000000000002 4.4150000000000009 3.3500000000000001 2.0500000000000003 390.50000000000006 5.5000000000000009
decision_type=2 2 2 2 2 2 2 2 2 2 2 2 2 2 2 2 2 2 2 2 2
left_child=1 2 4 11 16 17 7 19 14 -3 13 20 -7 -11 15 -5 -1 -6 -10 -4 -2
right_child=3 9 6 8 5 12 -8 -9 18 10 -12 -13 -14 -15 -16 -17 -18 -19 -20 -21 -22
leaf_value=-0.14359507494789936 0.25168715565871719 0.42040886437293529 0.0049407490844654706 0.27215567083360098 -0.027496125147122453 -0.087379699171435024 -0.045409585970615278 0.078742114201071842 0.35026407300794743 0.010589865754649869 0.30900529205871985 0.027131039821219304 -0.028258815998748216 0.14317267680359771 0.02145671558855225 0.16210550746652297 -0.083580254465065881 0.083654766542780576 0.18989348194661446 -0.10727498274419271 0.11447102501723105
leaf_weight=135683 15494 6789 267842 41857 41303 384009 195191 144894 39084 44113 13726 110518 266215 54309 14953 83956 176866 47508 13661 21456 61981
leaf_count=135683 15494 6789 267842 41857 41303 384009 195191 144894 39084 44113 13726 110518 266215 54309 14953 83956 176866 47508 13661 21456 61981
internal_value=6.01007e-12 -0.0308901 -0.0422004 0.145737 -0.0689482 -0.0517417 0.00249032 0.0240237 0.215006 0.128961 0.111318 0.0744344 -0.0631744 0.0837487 0.179889 0.198718 -0.109634 0.0319622 0.308728 -0.00338181 0.141912
internal_weight=2.18141e+06 1.7999e+06 1.68097e+06 381504 1.05158e+06 739035 629383 434192 193511 118937 112148 187993 650224 98422 140766 125813 312549 88811 52745 289298 77475
internal_count=2181408 1799904 1680967 381504 1051584 739035 629383 434192 193511 118937 112148 187993 650224 98422 140766 125813 312549 88811 52745 289298 77475
is_linear=0
shrinkage=0.0202407


Tree=31
num_leaves=22
num_cat=0
split_feature=10 7 7 10 7 14 12 8 5 9 2 7 14 10 8 10 5 7 2 2 5
split_gain=2.30608e+07 7.46854e+06 5.07236e+06 3.24161e+06 2.57887e+06 2.14024e+06 1.94421e+06 1.58727e+06 1.46166e+06 1.40507e+06 1.08695e+06 1.06903e+06 959698 855352 852678 776241 773020 652962 615483 637128 571694
threshold=18.755000000000006 6.1500000000000012 5.3500000000000005 43.555000000000007 10.65 28.135000000000009 31.525000000000002 96.500000000000014 5.9500000000000011 24.500000000000004 2.5000000000000004 3.1500000000000008 1.1664583333333336 4.6750000000000007 99.500000000000014 55.905000000000008 1.8500000000000003 2.6500000000000008 1.5000000000000002 9.5000000000000018 3.1500000000000008
decision_type=2 2 2 2 2 2 2 2 2 2 2 2 2 2 2 2 2 2 2 2 2
left_child=2 3 7 8 6 14 10 13 11 -5 -4 -2 -12 -1 -3 -7 -15 -9 -6 -20 -19
right_child=1 5 4 9 18 15 -8 17 -10 -11 12 -13 -14 16 -16 -17 -18 20 19 -21 -22
leaf_value=-0.11671001321322305 0.0026551763056698557 0.070428220856538798 0.11277513767146619 0.21326750773701666 0.57883363765607165 0.24862624799105068 0.12666509630008188 -0.073524693202792868 -0.04168305945016372 0.081464273946391566 -0.23579226684215057 0.077394389053147161 -0.020959950762803579 -0.035851841030250749 0.19837418672616114 0.43478907433829461 -0.092547666567949535 0.010348426121369925 0.086051430216430927 0.28973039028036729 -0.050649395054035339
leaf_weight=266476 129696 46084 24540 61097 1712 87879 44650 131807 96772 72403 8796 198257 270438 162696 39742 10246 249783 135599 13321 11924 117490
leaf_count=266476 129696 46084 24540 61097 1712 87879 44650 131807 96772 72403 8796 198257 270438 162696 39742 10246 249783 135599 13321 11924 117490
internal_value=-3.29428e-11 0.0916442 -0.0472586 0.0547859 0.0167102 0.203496 0.00195366 -0.0698301 0.0274403 0.141785 -0.016377 0.0478372 -0.0277273 -0.088445 0.129674 0.268065 -0.0701849 -0.0369934 0.207441 0.182255 -0.0179682
internal_weight=2.18141e+06 742176 1.43923e+06 558225 375381 183951 348424 1.06385e+06 424725 133500 303774 327953 279234 678955 85826 98125 412479 384896 26957 25245 253089
internal_count=2181408 742176 1439232 558225 375381 183951 348424 1063851 424725 133500 303774 327953 279234 678955 85826 98125 412479 384896 26957 25245 253089
is_linear=0
shrinkage=0.0202407


Tree=32
num_leaves=22
num_cat=0
split_feature=10 7 7 10 6 7 5 10 9 9 15 14 5 7 8 8 2 9 2 5 2
split_gain=2.21817e+07 7.40986e+06 4.29057e+06 3.99399e+06 2.68531e+06 2.0415e+06 1.81793e+06 1.45458e+06 1.38337e+06 1.37976e+06 1.24988e+06 1.16689e+06 1.31636e+06 1.02667e+06 882383 843115 739009 652746 646567 560766 560656
threshold=32.875000000000007 6.4500000000000011 4.4500000000000011 9.2750000000000004 416.50000000000006 10.450000000000001 1.9500000000000002 47.725000000000001 9.5000000000000018 21.500000000000004 4.3428701976985424 1.0000000180025095e-35 5.9500000000000011 3.4500000000000006 33.500000000000007 78.500000000000014 2.5000000000000004 14.500000000000002 1.5000000000000002 3.6500000000000008 11.500000000000002
decision_type=2 2 2 2 2 2 2 2 2 2 2 2 2 2 2 2 2 2 2 2 2
left_child=1 3 9 8 5 10 13 15 -1 -2 -3 -10 -13 -5 -8 -4 -12 -9 -7 -17 -20
right_child=2 4 7 6 -6 18 14 17 11 -11 16 12 -14 -15 -16 19 -18 -19 20 -21 -22
leaf_value=-0.13221617501458419 0.139813679594641 -0.001109465906798271 0.077121690705368617 -0.014538947367752377 -0.034086166135958593 0.53624407154498033 -0.098497874455636514 0.36267325284760166 -0.20610611281442132 0.027422549266616459 0.22138319166859566 -0.033191252372862648 -0.092092973427377267 0.05375265963747778 -0.025962543553076423 0.2230612712904049 0.088713856016018042 0.23434150930712505 0.18036333098381868 0.09912266942597317 0.39820222310449999
leaf_weight=156051 73436 57267 32783 180462 77641 2790 92885 25288 23190 114557 21834 342832 284381 180286 263967 71131 81067 45371 29459 18938 5792
leaf_count=156051 73436 57267 32783 180462 77641 2790 92885 25288 23190 114557 21834 342832 284381 180286 263967 71131 81067 45371 29459 18938 5792
internal_value=-8.14715e-11 -0.0297152 0.140194 -0.0471871 0.0668162 0.106341 -0.0124514 0.207097 -0.0780957 0.0713261 0.0746835 -0.0651106 -0.0598975 0.0195902 -0.0448428 0.165012 0.116864 0.28027 0.239632 0.197002 0.216156
internal_weight=2.18141e+06 1.7999e+06 381504 1.52405e+06 275850 198209 717600 193511 806454 187993 160168 650403 627213 360748 356852 122852 102901 70659 38041 90069 35251
internal_count=2181408 1799904 381504 1524054 275850 198209 717600 193511 806454 187993 160168 650403 627213 360748 356852 122852 102901 70659 38041 90069 35251
is_linear=0
shrinkage=0.0202407


Tree=33
num_leaves=22
num_cat=0
split_feature=10 7 7 10 12 7 8 9 2 5 7 2 2 14 7 2 5 14 7 14 5
split_gain=2.13543e+07 6.86813e+06 4.82124e+06 3.39604e+06 2.4404e+06 1.60878e+06 1.53686e+06 1.52895e+06 1.41916e+06 1.38444e+06 1.12158e+06 1.09569e+06 982978 881138 872973 846602 703146 656582 629534 604950 588147
threshold=19.185000000000006 6.9500000000000011 5.3500000000000005 42.035000000000004 31.525000000000002 10.450000000000001 96.500000000000014 8.5000000000000018 1.5000000000000002 3.7500000000000004 3.4500000000000006 11.500000000000002 2.5000000000000004 1.1664583333333336 3.1500000000000008 2.5000000000000004 -3.6499999999999999 28.135000000000009 2.6500000000000008 6.1172916666666675 6.6500000000000012
decision_type=2 2 2 2 2 2 2 2 2 2 2 2 2 2 2 2 2 2 2 2 2
left_child=2 3 6 9 5 12 15 -5 -3 10 -2 17 -4 -14 -9 -1 -16 -10 -8 -17 -6
right_child=1 8 4 7 20 -7 18 14 11 -11 -12 -13 13 -15 16 19 -18 -19 -20 -21 -22
leaf_value=-0.028408470434692787 0.010479193995516353 0.36010209616677741 0.10734090314891813 0.28828441129054022 0.17999812115971486 0.15869992082835721 -0.070201609973212009 0.04258603757551823 0.11002665052466389 -0.025091074804216486 0.090305589928339938 0.33604325775958632 -0.22791584047499405 -0.019869320223362782 0.072907878769361348 -0.12034736222224965 0.18906052361770848 0.21603980143481136 -0.015988260906620415 -0.078037628141086043 0.0068294377272009998
leaf_weight=93847 132638 23967 24539 23552 41666 23383 133430 48577 49035 132380 158012 17477 8604 271933 32892 221036 60858 46756 256330 370541 9955
leaf_count=93847 132638 23967 24539 23552 41666 23383 133430 48577 49035 132380 158012 17477 8604 271933 32892 221036 60858 46756 256330 370541 9955
internal_value=2.17378e-11 0.0896516 -0.0447341 0.0596018 0.0172295 -0.00310295 -0.0666384 0.137222 0.218602 0.0291652 0.0538768 0.188662 -0.0155046 -0.0262501 0.112225 -0.0848866 0.148309 0.161772 -0.0345476 -0.0938462 0.146603
internal_weight=2.18141e+06 726144 1.45526e+06 588909 380080 328459 1.07518e+06 165879 137235 423030 290650 113268 305076 280537 142327 685424 93750 95791 389760 591577 51621
internal_count=2181408 726144 1455264 588909 380080 328459 1075184 165879 137235 423030 290650 113268 305076 280537 142327 685424 93750 95791 389760 591577 51621
is_linear=0
shrinkage=0.0202407


Tree=34
num_leaves=22
num_cat=0
split_feature=14 7 7 10 8 5 2 10 7 2 9 9 2 7 8 14 5 6 5 2 15
split_gain=2.0555e+07 6.57459e+06 5.93461e+06 4.52092e+06 1.70403e+06 1.43154e+06 1.36753e+06 1.33515e+06 1.20419e+06 1.20313e+06 1.14145e+06 1.0875e+06 1.03103e+06 857843 826290 718094 783361 713210 831899 828963 693392
threshold=27.506666666666668 8.5500000000000025 5.1500000000000012 14.935 87.500000000000014 1.9500000000000002 1.5000000000000002 36.435000000000009 9.2500000000000018 11.500000000000002 13.500000000000002 23.500000000000004 3.5000000000000004 3.4500000000000006 33.500000000000007 2.0185416666666671 -0.54999999999999993 274.50000000000006 -2.9499999999999997 1.5000000000000002 6.8847979851074372
decision_type=2 2 2 2 2 2 2 2 2 2 2 2 2 2 2 2 2 2 2 2 2
left_child=1 3 7 4 15 13 -3 -2 17 20 -6 -9 -12 -5 -7 -1 -17 18 -4 -20 -8
right_child=2 6 8 5 10 14 9 11 -10 -11 12 -13 -14 -15 -16 16 -18 -19 19 -21 -22
leaf_value=-0.1728606234764988 0.022881203478744006 0.40768959039628755 0.14701807248444576 0.0044883096292053079 -0.084904991028338511 -0.090645448021806435 0.026137326784857435 0.17714224817441021 0.31293207671083445 0.28895944159288728 0.050795254884270377 0.061095638548146952 -0.033015882979081757 0.083120515830793329 -0.0012163314569928869 -0.039892410916726267 -0.091706413392953684 0.076579686349505863 0.43988095255335258 0.22785907050162074 0.14199995837250096
leaf_weight=34921 141670 6534 47309 101999 134875 56139 47280 58880 42310 12721 75145 75513 301013 128384 172049 160130 471608 19845 9050 45727 38306
leaf_count=34921 141670 6534 47309 101999 134875 56139 47280 58880 42310 12721 75145 75513 301013 128384 172049 160130 471608 19845 9050 45727 38306
internal_value=4.57795e-12 -0.0312449 0.123552 -0.0412009 -0.0621951 0.0127159 0.12414 0.0662357 0.219893 0.105293 -0.0343867 0.111938 -0.016273 0.0483072 -0.0232178 -0.0835118 -0.0785728 0.187608 0.209191 0.262888 0.0779943
internal_weight=2.18141e+06 1.7411e+06 440304 1.63626e+06 1.17769e+06 458571 104841 276063 164241 98307 511033 134393 376158 230383 228188 666659 631738 121931 102086 54777 85586
internal_count=2181408 1741104 440304 1636263 1177692 458571 104841 276063 164241 98307 511033 134393 376158 230383 228188 666659 631738 121931 102086 54777 85586
is_linear=0
shrinkage=0.0202407


Tree=35
num_leaves=22
num_cat=0
split_feature=10 7 7 5 10 15 5 8 7 9 9 5 5 14 5 5 15 7 2 2 5
split_gain=1.97841e+07 6.71074e+06 3.87222e+06 3.31957e+06 3.05005e+06 2.04534e+06 1.49045e+06 1.47093e+06 1.34001e+06 1.29e+06 1.0911e+06 1.00865e+06 925606 818222 963290 789592 735843 710071 705987 628224 596916
threshold=32.875000000000007 5.4500000000000011 4.4500000000000011 1.7500000000000002 8.7550000000000008 1.8693429868701941 3.7500000000000004 99.500000000000014 8.7500000000000018 16.500000000000004 13.500000000000002 14.750000000000002 6.5500000000000007 1.0000000180025095e-35 4.6500000000000012 -2.3499999999999992 5.8290075700870601 3.1500000000000008 1.5000000000000002 1.5000000000000002 3.5500000000000003
decision_type=2 2 2 2 2 2 2 2 2 2 2 2 2 2 2 2 2 2 2 2 2
left_child=1 4 9 5 10 -3 17 -7 12 -2 -1 16 15 -12 -15 -4 -5 -6 -17 -9 -11
right_child=2 3 8 11 6 7 -8 19 -10 20 13 -13 -14 14 -16 18 -18 -19 -20 -21 -22
leaf_value=-0.12123823993585751 0.15061091465521553 -0.083467913020471435 0.12939856225758281 -0.017304739415916214 -0.024517369919389163 0.072630599865691883 -0.055845412279653547 0.34775797320596097 0.28774221382682336 0.053042923622737936 -0.19522233907693359 -0.072888750318785001 0.023088892350563731 -0.030737617688913223 -0.08823130833516156 0.39094598146297288 0.059870855629768752 0.030270951387621658 0.20401671228700421 0.17475721033773362 -0.059303068367824646
leaf_weight=192509 53895 20090 59330 110926 175534 79291 273380 9889 48750 110608 18863 66447 16652 240257 237319 9624 93091 216366 59155 65942 23490
leaf_count=192509 53895 20090 59330 110926 175534 79291 273380 9889 48750 110608 18863 66447 16652 240257 237319 9624 93091 216366 59155 65942 23490
internal_value=-4.15132e-11 -0.0280633 0.1324 0.040064 -0.050484 0.108696 -0.0195723 0.133584 0.195959 0.0669765 -0.0803338 -0.00439743 0.16505 -0.0644719 -0.0593076 0.183502 0.0179097 0.00573098 0.230173 0.197318 0.0333632
internal_weight=2.18141e+06 1.7999e+06 381504 445676 1.35423e+06 175212 665280 155122 193511 187993 688948 270464 144761 496439 477576 128109 204017 391900 68779 75831 134098
internal_count=2181408 1799904 381504 445676 1354228 175212 665280 155122 193511 187993 688948 270464 144761 496439 477576 128109 204017 391900 68779 75831 134098
is_linear=0
shrinkage=0.0202407


Tree=36
num_leaves=22
num_cat=0
split_feature=14 7 7 10 7 5 7 2 10 2 6 9 9 7 8 6 5 2 15 14 5
split_gain=1.91233e+07 6.12451e+06 5.50853e+06 4.26308e+06 1.68102e+06 1.33519e+06 1.22261e+06 1.18466e+06 1.18152e+06 1.12647e+06 1.09652e+06 1.00918e+06 966768 816526 803034 752440 850764 778124 714757 637604 755119
threshold=27.506666666666668 8.7500000000000018 4.9500000000000011 14.935 3.9500000000000006 1.9500000000000002 9.2500000000000018 1.5000000000000002 36.435000000000009 9.5000000000000018 399.50000000000006 11.500000000000002 7.5000000000000009 3.4500000000000006 33.500000000000007 325.50000000000006 -2.9499999999999997 1.5000000000000002 4.0614638022849574 1.7175000000000005 3.2500000000000004
decision_type=2 2 2 2 2 2 2 2 2 2 2 2 2 2 2 2 2 2 2 2 2
left_child=1 3 8 4 19 13 15 -3 -2 18 11 -6 -10 -5 -7 16 -4 -18 -9 -1 -21
right_child=2 7 6 5 10 14 -8 9 12 -11 -12 -13 -14 -15 -16 -17 17 -19 -20 20 -22
leaf_value=-0.17649883974363031 0.019364656928458495 0.40292433460384541 0.13539596088272807 0.0042565343920328924 -0.077038473865219018 -0.088038781902766067 0.30183486914720442 -0.068371575960983616 0.25847063239261531 0.19467186288192567 -0.07908034982774366 0.0025146399308033536 0.084826016478083868 0.080727783984258242 -0.00012282957266607648 0.052936807478862133 0.41051988501196873 0.21504353043145014 0.097465942012343251 -0.053276917494247025 -0.098013947580342348
leaf_weight=27686 136386 6040 52574 101999 83499 56352 42310 15166 14857 37128 151686 300206 113368 130252 173969 17423 9884 53502 35736 288756 332629
leaf_count=27686 136386 6040 52574 101999 83499 56352 42310 15166 14857 37128 151686 300206 113368 130252 173969 17423 9884 53502 35736 288756 332629
internal_value=-1.88649e-11 -0.0301371 0.119172 -0.0392095 -0.0595595 0.0128987 0.207032 0.128708 0.0608354 0.109893 -0.0330097 -0.0147971 0.104946 0.0471435 -0.021633 0.17696 0.195595 0.245525 0.0480555 -0.0814593 -0.0772248
internal_weight=2.18141e+06 1.7411e+06 440304 1.64703e+06 1.18446e+06 462572 175693 94070 264611 88030 535391 383705 128225 232251 230321 133383 115960 63386 50902 649071 621385
internal_count=2181408 1741104 440304 1647034 1184462 462572 175693 94070 264611 88030 535391 383705 128225 232251 230321 133383 115960 63386 50902 649071 621385
is_linear=0
shrinkage=0.0202407


Tree=37
num_leaves=22
num_cat=0
split_feature=14 7 7 10 8 5 10 2 2 7 9 2 7 8 7 14 5 12 9 6 5
split_gain=1.8357e+07 5.87909e+06 5.28945e+06 4.09226e+06 1.63171e+06 1.28168e+06 1.20555e+06 1.13719e+06 1.08134e+06 1.07759e+06 1.02117e+06 923601 783806 770855 725897 711277 704190 689599 685853 650374 752643
threshold=27.506666666666668 8.7500000000000018 5.1500000000000012 14.935 91.500000000000014 1.9500000000000002 46.865000000000002 1.5000000000000002 9.5000000000000018 9.2500000000000018 14.500000000000002 3.5000000000000004 3.4500000000000006 33.500000000000007 3.2500000000000004 2.0185416666666671 -0.54999999999999993 15.935 25.500000000000004 274.50000000000006 -2.9499999999999997
decision_type=2 2 2 2 2 2 2 2 2 2 2 2 2 2 2 2 2 2 2 2 2
left_child=1 3 6 4 15 12 14 -3 17 19 -6 -12 -5 -7 -2 -1 -17 -9 -8 20 -4
right_child=2 7 9 5 10 13 18 8 -10 -11 11 -13 -14 -15 -16 16 -18 -19 -20 -21 -22
leaf_value=-0.16444828979824866 0.001097102274237285 0.39476888199278654 0.1386453746199357 0.0041703799859959196 -0.076565538425721558 -0.086256819093941742 0.21264426828976671 -0.0085000855870105384 0.19073157655347334 0.29572553071497926 0.054490065473985869 -0.02785684714790863 0.079093800240001066 -0.00012034332531072355 0.075994628931447192 -0.037294606961902108 -0.08532772966500278 0.14693777254433751 0.079410897591954105 0.07114764240544029 0.24885797500465032
leaf_weight=36991 103560 6040 47309 101999 136683 56352 28924 32700 37128 42310 69921 276312 130252 173969 108616 167018 497537 18202 34963 19845 54777
leaf_count=36991 103560 6040 47309 101999 136683 56352 28924 32700 37128 42310 69921 276312 130252 173969 108616 167018 497537 18202 34963 19845 54777
internal_value=-7.81816e-11 -0.0295271 0.11676 -0.0384159 -0.058354 0.0126376 0.0626481 0.126103 0.107669 0.207713 -0.0297203 -0.0112271 0.0461893 -0.0211951 0.0394382 -0.0780643 -0.0732559 0.0470828 0.139731 0.177172 0.197783
internal_weight=2.18141e+06 1.7411e+06 440304 1.64703e+06 1.18446e+06 462572 276063 94070 88030 164241 482916 346233 232251 230321 212176 701546 664555 50902 63887 121931 102086
internal_count=2181408 1741104 440304 1647034 1184462 462572 276063 94070 88030 164241 482916 346233 232251 230321 212176 701546 664555 50902 63887 121931 102086
is_linear=0
shrinkage=0.0202407


Tree=38
num_leaves=22
num_cat=0
split_feature=10 7 10 7 5 5 15 8 9 9 10 7 14 5 8 6 5 1 7 5 2
split_gain=1.77378e+07 6.38088e+06 3.32135e+06 3.2174e+06 2.52656e+06 1.6072e+06 1.57135e+06 1.29543e+06 1.20016e+06 1.17853e+06 1.1649e+06 1.01627e+06 957421 1.03427e+06 843359 669344 663040 720260 590491 590158 589757
threshold=34.555000000000007 6.2500000000000009 8.7550000000000008 4.4500000000000011 3.1500000000000008 5.9500000000000011 1.8693429868701941 99.500000000000014 9.5000000000000018 8.5000000000000018 54.605000000000011 3.3500000000000001 1.0000000180025095e-35 7.4500000000000011 75.500000000000014 567.50000000000011 3.5500000000000003 3.5000000000000004 13.15 4.1500000000000012 1.5000000000000002
decision_type=2 2 2 2 2 2 2 2 2 2 2 2 2 2 2 2 2 2 2 2 2
left_child=1 2 8 9 6 11 -3 -8 -1 -2 14 -4 -10 -14 -5 18 17 -11 -6 -16 -9
right_child=3 4 5 10 15 -7 7 20 12 16 -12 -13 13 -15 19 -17 -18 -19 -20 -21 -22
leaf_value=-0.12437629724966245 0.20466770500305637 -0.071848330398111171 -0.022761145957613978 0.085565292354013861 0.025205685775323616 -0.054567270655495381 0.077341513018907682 0.36607290509191598 -0.1883623828704265 0.11047034598566331 0.32789404451442916 0.034394248476920228 -0.033698957179078004 -0.08896653185895162 0.21716041165768626 -0.05328893460931735 -0.045686694171547935 0.011343528056628235 0.32654728266677868 0.093933001471626282 0.18154882882063503
leaf_weight=146677 22823 15880 236943 35390 104143 250518 65796 8064 22873 69949 22614 275807 361927 224934 101953 56363 25413 52621 2734 18869 59117
leaf_count=146677 22823 15880 236943 35390 104143 250518 65796 8064 22873 69949 22614 275807 361927 224934 101953 56363 25413 52621 2734 18869 59117
internal_value=-1.83833e-11 -0.025216 -0.0423357 0.13211 0.0581444 -0.0125474 0.118452 0.141178 -0.0723941 0.069285 0.192118 0.0079826 -0.0598894 -0.0548821 0.172463 0.00315028 0.0484053 0.0679138 0.0329142 0.197916 0.203698
internal_weight=2.18141e+06 1.83178e+06 1.51968e+06 349632 312097 763268 148857 132977 756411 170806 178826 512750 609734 586861 156212 163240 147983 122570 106877 120822 67181
internal_count=2181408 1831776 1519679 349632 312097 763268 148857 132977 756411 170806 178826 512750 609734 586861 156212 163240 147983 122570 106877 120822 67181
is_linear=0
shrinkage=0.0202407


Tree=39
num_leaves=22
num_cat=0
split_feature=14 7 7 10 7 8 5 7 10 2 2 14 7 9 6 5 2 7 9 7 12
split_gain=1.70715e+07 5.47746e+06 4.91823e+06 3.41353e+06 1.57918e+06 1.4211e+06 1.13103e+06 1.11032e+06 1.07726e+06 966287 831655 829732 702951 683695 681789 789535 731976 671947 617739 602749 600886
threshold=27.506666666666668 7.5500000000000007 4.9500000000000011 14.935 11.15 99.500000000000014 6.1500000000000012 9.2500000000000018 46.865000000000002 2.5000000000000004 11.500000000000002 6.1806250000000009 3.6500000000000008 9.5000000000000018 325.50000000000006 -2.9499999999999997 1.5000000000000002 3.7500000000000004 26.500000000000004 3.2500000000000004 29.495000000000001
decision_type=2 2 2 2 2 2 2 2 2 2 2 2 2 2 2 2 2 2 2 2 2
left_child=1 3 8 5 9 11 17 14 19 -3 -11 -1 -13 -7 15 -4 -17 -5 -10 -2 -15
right_child=2 4 7 6 -6 13 -8 -9 18 10 -12 12 -14 20 -16 16 -18 -19 -20 -21 -22
leaf_value=-0.096925418662173468 0.00091396600490573467 0.19123621848897554 0.12670517670612169 0.00044076763066821519 0.21180667282591523 -0.085188575186130974 -0.03923616215398671 0.28596106062732313 0.20025471541459242 0.010971184991207217 0.18641491428232032 -0.079622538970931633 -0.030894983224738874 -0.02137897489837905 0.048901917963875684 0.39282475047081428 0.20323342178388201 0.06125069871845519 0.071091217258353351 0.070548680416646761 0.06348594457403528
leaf_weight=336202 103560 17755 52574 151174 31742 57808 140772 42310 28793 99423 12456 245551 239680 221447 17423 9884 53502 146674 32061 100197 40420
leaf_count=336202 103560 17755 52574 151174 31742 57808 140772 42310 28793 99423 12456 245551 239680 221447 17423 9884 53502 146674 32061 100197 40420
internal_value=-6.28023e-11 -0.0284745 0.112597 -0.0399489 0.0838498 -0.0583955 0.0080415 0.195617 0.0574753 0.0525184 0.0305041 -0.0724865 -0.0555535 -0.0221875 0.166959 0.184697 0.232797 0.0303864 0.132205 0.0351567 -0.00827981
internal_weight=2.18141e+06 1.7411e+06 440304 1.57973e+06 161376 1.14111e+06 438620 175693 264611 129634 111879 821433 485231 319675 133383 115960 63386 297848 60854 203757 261867
internal_count=2181408 1741104 440304 1579728 161376 1141108 438620 175693 264611 129634 111879 821433 485231 319675 133383 115960 63386 297848 60854 203757 261867
is_linear=0
shrinkage=0.0202407


Tree=40
num_leaves=22
num_cat=0
split_feature=10 7 12 7 10 2 2 6 9 10 15 9 2 2 8 2 2 15 5 1 7
split_gain=1.64705e+07 5.97707e+06 3.19491e+06 2.98288e+06 2.59147e+06 2.03871e+06 1.44294e+06 1.34125e+06 1.13004e+06 1.10269e+06 978362 940733 926894 805652 803605 746340 725411 612436 585405 656876 569133
threshold=34.555000000000007 5.3500000000000005 31.525000000000002 4.4500000000000011 8.7550000000000008 2.5000000000000004 11.500000000000002 291.50000000000006 11.500000000000002 54.605000000000011 0.71674907698291501 15.500000000000002 2.5000000000000004 10.500000000000002 95.500000000000014 9.5000000000000018 2.5000000000000004 0.85551365922093392 3.5500000000000003 3.5000000000000004 8.5500000000000025
decision_type=2 2 2 2 2 2 2 2 2 2 2 2 2 2 2 2 2 2 2 2 2
left_child=1 4 5 8 11 20 10 12 -2 14 -7 -1 -6 -4 -5 -14 -13 -18 19 -10 -3
right_child=3 2 13 9 7 6 -8 -9 18 -11 -12 16 15 -15 -16 -17 17 -19 -20 -21 -22
leaf_value=-0.10942899873212736 0.17490461993674106 0.10015656141708779 0.11607999144076823 0.10465301592251651 0.049490400586977255 -0.22126300021937803 0.15884594211297201 -0.077554246700962851 0.10273141500654268 0.31718333911816293 -0.0064140508122746956 0.0095582910709731302 -0.035176886356959258 0.26511324619550602 0.20033666201468084 0.022179507106946994 -0.16945698739300921 -0.06156828522621919 -0.050320730960169049 0.0051480349173266228 0.26582767831203041
leaf_weight=215794 32162 30246 60986 56124 105344 8910 21528 126679 65343 22614 341209 56795 300321 19648 100088 134601 22870 375032 23503 49798 11813
leaf_count=215794 32162 30246 60986 56124 105344 8910 21528 126679 65343 22614 341209 56795 300321 19648 100088 134601 22870 375032 23503 49798 11813
internal_value=-5.36933e-11 -0.0242985 0.0358405 0.127303 -0.0465269 0.0131233 -0.00199208 -0.0182773 0.0668111 0.185083 -0.0118816 -0.0746271 -0.00437832 0.152395 0.165959 -0.0174261 -0.0581106 -0.0677693 0.041736 0.060527 0.146688
internal_weight=2.18141e+06 1.83178e+06 494340 349632 1.33744e+06 413706 371647 666945 170806 178826 350119 670491 540266 80634 156212 434922 454697 397902 138644 115141 42059
internal_count=2181408 1831776 494340 349632 1337436 413706 371647 666945 170806 178826 350119 670491 540266 80634 156212 434922 454697 397902 138644 115141 42059
is_linear=0
shrinkage=0.0202407


Tree=41
num_leaves=22
num_cat=0
split_feature=10 7 7 10 12 6 7 8 2 9 9 2 14 6 7 2 7 2 9 14 14
split_gain=1.58799e+07 5.32736e+06 3.64591e+06 2.70901e+06 1.97918e+06 1.36174e+06 1.24877e+06 1.23608e+06 1.17177e+06 1.15335e+06 1.1451e+06 967203 845984 817443 814779 684852 559891 494093 470432 468743 467866
threshold=18.755000000000006 6.9500000000000011 5.3500000000000005 45.475000000000001 31.525000000000002 295.50000000000006 10.65 96.500000000000014 1.5000000000000002 23.500000000000004 14.500000000000002 11.500000000000002 1.0000000180025095e-35 482.50000000000006 3.9500000000000006 2.5000000000000004 2.6500000000000008 10.500000000000002 6.5000000000000009 2.0185416666666671 28.821875000000006
decision_type=2 2 2 2 2 2 2 2 2 2 2 2 2 2 2 2 2 2 2 2 2
left_child=2 3 7 5 6 10 12 15 -3 18 -2 20 -4 -14 -12 -1 -9 -6 -5 -17 -10
right_child=1 8 4 9 17 -7 -8 16 11 -11 14 -13 13 -15 -16 19 -18 -19 -20 -21 -22
leaf_value=-0.023685174573943046 0.098522190364644227 0.31724904636539281 -0.21626418784463489 0.31508587943665162 0.099708933896094587 -0.044955385652979782 0.14817629657815873 -0.063203288557341697 0.095655318439675785 0.080091974306703118 -0.0067367962971564667 0.29983436291597737 0.01367830317268743 -0.060092127965358427 0.063130221495807728 -0.16416408218261516 -0.011758382068507548 0.25397782133539704 0.17258086875292075 -0.078837751524034605 0.18437069474245257
leaf_weight=92785 113184 24056 8223 12322 39953 85482 20848 131807 52151 68757 164581 17660 208191 87360 116992 27684 253089 10806 41299 558486 45692
leaf_count=92785 113184 24056 8223 12322 39953 85482 20848 131807 52151 68757 164581 17660 208191 87360 116992 27684 253089 10806 41299 558486 45692
internal_value=-3.42135e-11 0.0760489 -0.0392165 0.0499522 0.0150169 0.0282885 -0.00336117 -0.0583528 0.188735 0.134965 0.044149 0.161969 -0.0137612 -0.00812702 0.0222926 -0.0747798 -0.0293756 0.132551 0.205328 -0.0828676 0.137085
internal_weight=2.18141e+06 742176 1.43923e+06 602617 375381 480239 324622 1.06385e+06 139559 122378 394757 115503 303774 295551 281573 678955 384896 50759 53621 586170 97843
internal_count=2181408 742176 1439232 602617 375381 480239 324622 1063851 139559 122378 394757 115503 303774 295551 281573 678955 384896 50759 53621 586170 97843
is_linear=0
shrinkage=0.0202407


Tree=42
num_leaves=22
num_cat=0
split_feature=14 7 7 10 8 5 15 7 7 2 2 10 8 7 7 15 6 5 2 15 5
split_gain=1.53746e+07 4.95799e+06 4.42048e+06 3.36754e+06 1.45116e+06 1.09537e+06 1.0689e+06 1.08597e+06 1.02058e+06 1.0162e+06 975618 961546 713209 661331 642441 642129 626476 782663 653166 525415 507330
threshold=27.506666666666668 8.7500000000000018 4.9500000000000011 14.935 78.500000000000014 1.9500000000000002 0.71674907698291501 4.1500000000000012 9.2500000000000018 1.5000000000000002 9.5000000000000018 48.645000000000003 33.500000000000007 3.4500000000000006 3.2500000000000004 4.1282927885259406 241.50000000000003 -2.8499999999999992 1.5000000000000002 2.7674081254728065 0.15000000000000005
decision_type=2 2 2 2 2 2 2 2 2 2 2 2 2 2 2 2 2 2 2 2 2
left_child=1 3 11 4 19 13 -6 -8 16 -3 15 14 -7 -5 -2 -11 17 -4 -19 -1 -21
right_child=2 9 8 5 6 12 7 -9 -10 10 -12 -13 -14 -15 -16 -17 -18 18 -20 20 -22
